{
  "base_font": "AGaramond",
  "overlay_font": "EBGaramond-Bold",
  "overlay_font_path": "fonts/EBGaramond-Bold.ttf",
  "font_scale": 1.0368923611111112,
  "total_overlap": 1897.2211918492883,
  "offsets": {
    "a": [
      [
        -0.01506906655504395,
        0.022603599832565924
      ],
      5.861576316801232
    ],
    "b": [
      [
        -0.04520719966513185,
        0.01506906655504395
      ],
      29.59847750865052
    ],
    "c": [
      [
        0.0,
        0.0301381331100879
      ],
      1.5700576701268745
    ],
    "d": [
      [
        -0.022603599832565924,
        0.01506906655504395
      ],
      43.21304113802384
    ],
    "e": [
      [
        -0.01506906655504395,
        0.0301381331100879
      ],
      8.780484429065744
    ],
    "f": [
      [
        -0.037672666387609875,
        0.01506906655504395
      ],
      24.454794309880814
    ],
    "g": [
      [
        -0.007534533277521975,
        -0.01506906655504395
      ],
      157.28126105344097
    ],
    "h": [
      [
        -0.037672666387609875,
        0.007534533277521975
      ],
      1.6152402921953095
    ],
    "i": [
      [
        -0.022603599832565924,
        0.007534533277521975
      ],
      0.05050365244136869
    ],
    "j": [
      [
        -0.01506906655504395,
        -0.01506906655504395
      ],
      0.0
    ],
    "k": [
      [
        -0.0301381331100879,
        0.01506906655504395
      ],
      53.94875816993465
    ],
    "l": [
      [
        -0.037672666387609875,
        0.007534533277521975
      ],
      1.2434755863129567
    ],
    "m": [
      [
        -0.022603599832565924,
        0.007534533277521975
      ],
      2.9047750865051905
    ],
    "n": [
      [
        -0.0301381331100879,
        0.007534533277521975
      ],
      1.1438985005767013
    ],
    "o": [
      [
        -0.01506906655504395,
        0.022603599832565924
      ],
      12.590495963091119
    ],
    "p": [
      [
        -0.037672666387609875,
        0.007534533277521975
      ],
      14.428342945021146
    ],
    "q": [
      [
        -0.01506906655504395,
        0.0301381331100879
      ],
      44.97430219146483
    ],
    "r": [
      [
        -0.04520719966513185,
        0.007534533277521975
      ],
      8.28395232602845
    ],
    "s": [
      [
        -0.022603599832565924,
        0.022603599832565924
      ],
      31.993617839292583
    ],
    "t": [
      [
        -0.05274173294265383,
        0.022603599832565924
      ],
      5.61748558246828
    ],
    "u": [
      [
        -0.01506906655504395,
        0.0301381331100879
      ],
      0.7527566320645905
    ],
    "v": [
      [
        -0.05274173294265383,
        0.0301381331100879
      ],
      2.08161476355248
    ],
    "w": [
      [
        -0.0602762662201758,
        0.0301381331100879
      ],
      107.01714725105728
    ],
    "x": [
      [
        -0.022603599832565924,
        0.0301381331100879
      ],
      123.50003844675126
    ],
    "y": [
      [
        -0.04520719966513185,
        0.01506906655504395
      ],
      66.73765474817378
    ],
    "z": [
      [
        -0.037672666387609875,
        0.022603599832565924
      ],
      12.452456747404845
    ],
    "A": [
      [
        -0.04520719966513185,
        0.0
      ],
      20.134548250672815
    ],
    "B": [
      [
        -0.0301381331100879,
        0.007534533277521975
      ],
      3.8412456747404846
    ],
    "C": [
      [
        0.0,
        0.0
      ],
      13.3199846212995
    ],
    "D": [
      [
        -0.01506906655504395,
        0.007534533277521975
      ],
      0.0
    ],
    "E": [
      [
        -0.022603599832565924,
        0.007534533277521975
      ],
      52.93908496732026
    ],
    "F": [
      [
        -0.0301381331100879,
        0.01506906655504395
      ],
      18.565551710880428
    ],
    "G": [
      [
        0.007534533277521975,
        0.007534533277521975
      ],
      87.4715417147251
    ],
    "H": [
      [
        -0.01506906655504395,
        0.0
      ],
      4.214302191464821
    ],
    "I": [
      [
        -0.022603599832565924,
        0.007534533277521975
      ],
      0.0
    ],
    "J": [
      [
        -0.01506906655504395,
        -0.007534533277521975
      ],
      14.741622452902728
    ],
    "K": [
      [
        -0.05274173294265383,
        0.0
      ],
      23.99292579777009
    ],
    "L": [
      [
        -0.0301381331100879,
        0.007534533277521975
      ],
      0.013041138023837008
    ],
    "M": [
      [
        -0.007534533277521975,
        0.01506906655504395
      ],
      146.87015763168012
    ],
    "N": [
      [
        -0.022603599832565924,
        0.007534533277521975
      ],
      251.49247212610533
    ],
    "O": [
      [
        0.007534533277521975,
        0.007534533277521975
      ],
      3.2778777393310268
    ],
    "P": [
      [
        -0.05274173294265383,
        0.007534533277521975
      ],
      47.43049596309112
    ],
    "Q": [
      [
        0.007534533277521975,
        0.0
      ],
      2.7688888888888887
    ],
    "R": [
      [
        -0.022603599832565924,
        0.01506906655504395
      ],
      16.985974625144173
    ],
    "S": [
      [
        -0.007534533277521975,
        0.007534533277521975
      ],
      2.1266589773164166
    ],
    "T": [
      [
        -0.04520719966513185,
        0.01506906655504395
      ],
      5.238308342945021
    ],
    "U": [
      [
        -0.007534533277521975,
        0.007534533277521975
      ],
      3.4142099192618223
    ],
    "V": [
      [
        -0.0301381331100879,
        0.007534533277521975
      ],
      9.586651287966166
    ],
    "W": [
      [
        -0.05274173294265383,
        0.007534533277521975
      ],
      185.33333333333334
    ],
    "X": [
      [
        -0.0301381331100879,
        0.007534533277521975
      ],
      202.3777316416763
    ],
    "Y": [
      [
        -0.07534533277521975,
        0.007534533277521975
      ],
      2.4719569396386003
    ],
    "Z": [
      [
        0.022603599832565924,
        0.007534533277521975
      ],
      16.516416762783546
    ]
  }
}