{
  "base_font": "AGaramond",
  "overlay_font": "EBGaramond-Bold",
  "font_scale": 1.0368923611111112,
  "average_remainder": 0.0012624575404906102,
  "offsets": {
    "a": [
      [
        -0.01506906655504395,
        0.022603599832565924
      ],
      0.00020282270992391798
    ],
    "b": [
      [
        -0.04520719966513185,
        0.01506906655504395
      ],
      0.0010241687719256237
    ],
    "c": [
      [
        0.0,
        0.0301381331100879
      ],
      5.432725502169116e-05
    ],
    "d": [
      [
        -0.022603599832565924,
        0.01506906655504395
      ],
      0.0014952609390319668
    ],
    "e": [
      [
        -0.01506906655504395,
        0.0301381331100879
      ],
      0.00030382299062511225
    ],
    "f": [
      [
        -0.037672666387609875,
        0.01506906655504395
      ],
      0.0008461866543211354
    ],
    "g": [
      [
        -0.007534533277521975,
        -0.01506906655504395
      ],
      0.005442258167939134
    ],
    "h": [
      [
        -0.037672666387609875,
        0.007534533277521975
      ],
      5.589066755001071e-05
    ],
    "i": [
      [
        -0.022603599832565924,
        0.007534533277521975
      ],
      1.7475312263449372e-06
    ],
    "j": [
      [
        -0.022603599832565924,
        -0.01506906655504395
      ],
      0.0
    ],
    "k": [
      [
        -0.0301381331100879,
        0.01506906655504395
      ],
      0.00186673903702196
    ],
    "l": [
      [
        -0.037672666387609875,
        0.007534533277521975
      ],
      4.30268368966421e-05
    ],
    "m": [
      [
        -0.022603599832565924,
        0.007534533277521975
      ],
      0.00010051124866799967
    ],
    "n": [
      [
        -0.0301381331100879,
        0.007534533277521975
      ],
      3.9581262995733616e-05
    ],
    "o": [
      [
        -0.01506906655504395,
        0.022603599832565924
      ],
      0.00043565729976093834
    ],
    "p": [
      [
        -0.037672666387609875,
        0.007534533277521975
      ],
      0.0004992506209349878
    ],
    "q": [
      [
        -0.01506906655504395,
        0.0301381331100879
      ],
      0.0015562042280783677
    ],
    "r": [
      [
        -0.04520719966513185,
        0.007534533277521975
      ],
      0.0002866419489975242
    ],
    "s": [
      [
        -0.022603599832565924,
        0.022603599832565924
      ],
      0.0011070455999755218
    ],
    "t": [
      [
        -0.05274173294265383,
        0.022603599832565924
      ],
      0.00019437666375322768
    ],
    "u": [
      [
        -0.01506906655504395,
        0.0301381331100879
      ],
      2.6046942285971992e-05
    ],
    "v": [
      [
        -0.05274173294265383,
        0.0301381331100879
      ],
      7.202819251046644e-05
    ],
    "w": [
      [
        -0.0602762662201758,
        0.0301381331100879
      ],
      0.003703015475815131
    ],
    "x": [
      [
        -0.022603599832565924,
        0.0301381331100879
      ],
      0.004273357731721497
    ],
    "y": [
      [
        -0.04520719966513185,
        0.01506906655504395
      ],
      0.002309261409971411
    ],
    "z": [
      [
        -0.037672666387609875,
        0.022603599832565924
      ],
      0.00043088085631158633
    ],
    "A": [
      [
        -0.04520719966513185,
        0.0
      ],
      0.0006966971713035577
    ],
    "B": [
      [
        -0.0301381331100879,
        0.007534533277521975
      ],
      0.0001329150752505358
    ],
    "C": [
      [
        0.0,
        0.0
      ],
      0.0004608991218442735
    ],
    "D": [
      [
        -0.01506906655504395,
        0.007534533277521975
      ],
      0.0
    ],
    "E": [
      [
        -0.022603599832565924,
        0.007534533277521975
      ],
      0.0018318022480041613
    ],
    "F": [
      [
        -0.0301381331100879,
        0.01506906655504395
      ],
      0.0006424066335944786
    ],
    "G": [
      [
        0.007534533277521975,
        0.007534533277521975
      ],
      0.0030266969451461976
    ],
    "H": [
      [
        -0.01506906655504395,
        0.0
      ],
      0.00014582360524099727
    ],
    "I": [
      [
        -0.022603599832565924,
        0.007534533277521975
      ],
      0.0
    ],
    "J": [
      [
        -0.01506906655504395,
        -0.007534533277521975
      ],
      0.0005100907423149733
    ],
    "K": [
      [
        -0.05274173294265383,
        0.0
      ],
      0.0008302050449055393
    ],
    "L": [
      [
        -0.0301381331100879,
        0.007534533277521975
      ],
      4.512504506517996e-07
    ],
    "M": [
      [
        -0.007534533277521975,
        0.01506906655504395
      ],
      0.0050820123747986196
    ],
    "N": [
      [
        -0.022603599832565924,
        0.007534533277521975
      ],
      0.00870216166526316
    ],
    "O": [
      [
        0.007534533277521975,
        0.007534533277521975
      ],
      0.00011342137506335735
    ],
    "P": [
      [
        -0.05274173294265383,
        0.007534533277521975
      ],
      0.0016411936319408692
    ],
    "Q": [
      [
        0.007534533277521975,
        0.0
      ],
      9.58093041138024e-05
    ],
    "R": [
      [
        -0.022603599832565924,
        0.01506906655504395
      ],
      0.0005877499870292101
    ],
    "S": [
      [
        -0.007534533277521975,
        0.007534533277521975
      ],
      7.358681582409746e-05
    ],
    "T": [
      [
        -0.04520719966513185,
        0.01506906655504395
      ],
      0.00018125634404654055
    ],
    "U": [
      [
        -0.007534533277521975,
        0.007534533277521975
      ],
      0.00011813875153155095
    ],
    "V": [
      [
        -0.0301381331100879,
        0.007534533277521975
      ],
      0.0003317180376458881
    ],
    "W": [
      [
        -0.05274173294265383,
        0.007534533277521975
      ],
      0.006412918108419839
    ],
    "X": [
      [
        -0.0301381331100879,
        0.007534533277521975
      ],
      0.0070026896761825694
    ],
    "Y": [
      [
        -0.07534533277521975,
        0.007534533277521975
      ],
      8.553484220202769e-05
    ],
    "Z": [
      [
        0.022603599832565924,
        0.007534533277521975
      ],
      0.0005715023101309184
    ]
  }
}