{
  "base_font": "Aptos",
  "overlay_font": "IBMPlexSans-Bold",
  "overlay_font_path": "fonts/IBMPlexSans-Bold.ttf",
  "font_scale": 1.02734375,
  "total_overlap": 1662.962214532872,
  "offsets": {
    "a": [
      [
        -0.022813688212927757,
        0.030418250950570342
      ],
      49.82046905036525
    ],
    "b": [
      [
        -0.053231939163498096,
        0.030418250950570342
      ],
      4.628558246828144
    ],
    "c": [
      [
        0.0076045627376425855,
        0.022813688212927757
      ],
      55.767166474432905
    ],
    "d": [
      [
        -0.0076045627376425855,
        0.022813688212927757
      ],
      3.1647673971549404
    ],
    "e": [
      [
        -0.015209125475285171,
        0.0
      ],
      18.221114955786234
    ],
    "f": [
      [
        -0.0076045627376425855,
        0.045627376425855515
      ],
      5.612179930795848
    ],
    "g": [
      [
        -0.030418250950570342,
        0.015209125475285171
      ],
      177.0963014225298
    ],
    "h": [
      [
        -0.053231939163498096,
        0.015209125475285171
      ],
      1.4596693579392541
    ],
    "i": [
      [
        -0.015209125475285171,
        0.022813688212927757
      ],
      0.0
    ],
    "j": [
      [
        -0.030418250950570342,
        0.015209125475285171
      ],
      0.07929257977700883
    ],
    "k": [
      [
        -0.053231939163498096,
        0.045627376425855515
      ],
      6.423175701653211
    ],
    "l": [
      [
        -0.0076045627376425855,
        0.015209125475285171
      ],
      0.0
    ],
    "m": [
      [
        -0.030418250950570342,
        0.0
      ],
      4.192725874663591
    ],
    "n": [
      [
        -0.053231939163498096,
        0.015209125475285171
      ],
      1.4596693579392541
    ],
    "o": [
      [
        0.0,
        0.015209125475285171
      ],
      0.0
    ],
    "p": [
      [
        -0.053231939163498096,
        0.030418250950570342
      ],
      4.198523644752019
    ],
    "q": [
      [
        -0.0076045627376425855,
        0.022813688212927757
      ],
      2.9319338715878507
    ],
    "r": [
      [
        -0.053231939163498096,
        0.0
      ],
      1.9190157631680123
    ],
    "s": [
      [
        -0.015209125475285171,
        0.022813688212927757
      ],
      75.80452133794695
    ],
    "t": [
      [
        -0.022813688212927757,
        0.015209125475285171
      ],
      0.0
    ],
    "u": [
      [
        -0.015209125475285171,
        0.03802281368821293
      ],
      1.5482506728181467
    ],
    "v": [
      [
        -0.053231939163498096,
        0.0076045627376425855
      ],
      0.0
    ],
    "w": [
      [
        -0.06844106463878327,
        0.0
      ],
      6.947204921184158
    ],
    "x": [
      [
        -0.053231939163498096,
        0.0076045627376425855
      ],
      0.0
    ],
    "y": [
      [
        -0.03802281368821293,
        -0.0076045627376425855
      ],
      0.0
    ],
    "z": [
      [
        -0.030418250950570342,
        0.0
      ],
      0.0
    ],
    "A": [
      [
        -0.053231939163498096,
        0.03802281368821293
      ],
      0.0
    ],
    "B": [
      [
        -0.045627376425855515,
        0.022813688212927757
      ],
      0.0
    ],
    "C": [
      [
        0.0,
        0.022813688212927757
      ],
      165.5678892733564
    ],
    "D": [
      [
        -0.0076045627376425855,
        0.015209125475285171
      ],
      0.0
    ],
    "E": [
      [
        0.0,
        0.0076045627376425855
      ],
      0.0
    ],
    "F": [
      [
        0.0,
        0.0076045627376425855
      ],
      0.0
    ],
    "G": [
      [
        -0.0076045627376425855,
        0.060836501901140684
      ],
      39.893148788927334
    ],
    "H": [
      [
        0.0,
        0.0
      ],
      0.0
    ],
    "I": [
      [
        -0.060836501901140684,
        0.053231939163498096
      ],
      0.0
    ],
    "J": [
      [
        -0.07,
        0.060836501901140684
      ],
      660.2859823144944
    ],
    "K": [
      [
        -0.060836501901140684,
        0.045627376425855515
      ],
      61.28189158016147
    ],
    "L": [
      [
        0.0,
        0.0
      ],
      0.0
    ],
    "M": [
      [
        -0.022813688212927757,
        0.022813688212927757
      ],
      0.0
    ],
    "N": [
      [
        -0.030418250950570342,
        0.015209125475285171
      ],
      0.0014763552479815508
    ],
    "O": [
      [
        0.0,
        0.030418250950570342
      ],
      1.8264359861591695
    ],
    "P": [
      [
        -0.03802281368821293,
        0.030418250950570342
      ],
      0.0
    ],
    "Q": [
      [
        0.0,
        0.0
      ],
      165.5530488273741
    ],
    "R": [
      [
        -0.022813688212927757,
        0.0076045627376425855
      ],
      26.761445597846983
    ],
    "S": [
      [
        -0.03802281368821293,
        0.022813688212927757
      ],
      120.46520569011919
    ],
    "T": [
      [
        -0.030418250950570342,
        0.030418250950570342
      ],
      0.0
    ],
    "U": [
      [
        -0.0076045627376425855,
        0.015209125475285171
      ],
      0.0
    ],
    "V": [
      [
        -0.03802281368821293,
        0.0076045627376425855
      ],
      0.0
    ],
    "W": [
      [
        -0.053231939163498096,
        0.015209125475285171
      ],
      0.051149557862360626
    ],
    "X": [
      [
        -0.060836501901140684,
        0.030418250950570342
      ],
      0.0
    ],
    "Y": [
      [
        -0.045627376425855515,
        0.022813688212927757
      ],
      0.0
    ],
    "Z": [
      [
        -0.03802281368821293,
        0.0076045627376425855
      ],
      0.0
    ]
  }
}