{
  "base_font": "Aptos",
  "overlay_font": "IBMPlexSans-Bold",
  "font_scale": 1.02734375,
  "average_remainder": 0.0006661535759930176,
  "offsets": {
    "a": [
      [
        -0.022813688212927757,
        0.030418250950570342
      ],
      0.0017238916626423956
    ],
    "b": [
      [
        -0.053231939163498096,
        0.030418250950570342
      ],
      0.000160157724803742
    ],
    "c": [
      [
        0.0076045627376425855,
        0.022813688212927757
      ],
      0.0019296597395997547
    ],
    "d": [
      [
        -0.0076045627376425855,
        0.022813688212927757
      ],
      0.00010950752239290451
    ],
    "e": [
      [
        -0.015209125475285171,
        0.0
      ],
      0.0006304884067746102
    ],
    "f": [
      [
        -0.0076045627376425855,
        0.045627376425855515
      ],
      0.00019419307719016778
    ],
    "g": [
      [
        -0.030418250950570342,
        0.015209125475285171
      ],
      0.0061278997032017226
    ],
    "h": [
      [
        -0.053231939163498096,
        0.015209125475285171
      ],
      5.05075902401126e-05
    ],
    "i": [
      [
        -0.022813688212927757,
        0.022813688212927757
      ],
      0.0
    ],
    "j": [
      [
        -0.030418250950570342,
        0.015209125475285171
      ],
      2.743687881557399e-06
    ],
    "k": [
      [
        -0.053231939163498096,
        0.045627376425855515
      ],
      0.0002222552145900765
    ],
    "l": [
      [
        -0.022813688212927757,
        0.0076045627376425855
      ],
      0.0
    ],
    "m": [
      [
        -0.053231939163498096,
        0.015209125475285171
      ],
      9.038365600667297e-05
    ],
    "n": [
      [
        -0.053231939163498096,
        0.015209125475285171
      ],
      5.05075902401126e-05
    ],
    "o": [
      [
        -0.015209125475285171,
        0.0076045627376425855
      ],
      0.0
    ],
    "p": [
      [
        -0.053231939163498096,
        0.030418250950570342
      ],
      0.00014527763476650585
    ],
    "q": [
      [
        -0.0076045627376425855,
        0.022813688212927757
      ],
      0.00010145099901688064
    ],
    "r": [
      [
        -0.053231939163498096,
        0.0
      ],
      6.640192952138451e-05
    ],
    "s": [
      [
        -0.015209125475285171,
        0.022813688212927757
      ],
      0.0026229938179220392
    ],
    "t": [
      [
        -0.030418250950570342,
        0.0076045627376425855
      ],
      0.0
    ],
    "u": [
      [
        -0.015209125475285171,
        0.03802281368821293
      ],
      5.357268764076632e-05
    ],
    "v": [
      [
        -0.053231939163498096,
        0.0076045627376425855
      ],
      0.0
    ],
    "w": [
      [
        -0.06844106463878327,
        0.0
      ],
      0.00024038771353578406
    ],
    "x": [
      [
        -0.060836501901140684,
        0.0
      ],
      0.0
    ],
    "y": [
      [
        -0.045627376425855515,
        0.0
      ],
      0.0
    ],
    "z": [
      [
        -0.03802281368821293,
        0.0
      ],
      0.0
    ],
    "A": [
      [
        -0.053231939163498096,
        0.03802281368821293
      ],
      0.0
    ],
    "B": [
      [
        -0.045627376425855515,
        0.022813688212927757
      ],
      0.0
    ],
    "C": [
      [
        0.0,
        0.022813688212927757
      ],
      0.005728992708420637
    ],
    "D": [
      [
        -0.015209125475285171,
        0.015209125475285171
      ],
      0.0
    ],
    "E": [
      [
        -0.030418250950570342,
        0.0076045627376425855
      ],
      0.0
    ],
    "F": [
      [
        -0.030418250950570342,
        0.0076045627376425855
      ],
      0.0
    ],
    "G": [
      [
        -0.0076045627376425855,
        0.060836501901140684
      ],
      0.0013803857712431605
    ],
    "H": [
      [
        -0.022813688212927757,
        0.0
      ],
      0.0
    ],
    "I": [
      [
        -0.09125475285171103,
        0.0
      ],
      0.0
    ],
    "J": [
      [
        -0.18250950570342206,
        0.022813688212927757
      ],
      0.0
    ],
    "K": [
      [
        -0.060836501901140684,
        0.045627376425855515
      ],
      0.0021204806775142375
    ],
    "L": [
      [
        -0.022813688212927757,
        0.0
      ],
      0.0
    ],
    "M": [
      [
        -0.030418250950570342,
        0.015209125475285171
      ],
      0.0
    ],
    "N": [
      [
        -0.030418250950570342,
        0.015209125475285171
      ],
      5.108495667756231e-08
    ],
    "O": [
      [
        0.0,
        0.030418250950570342
      ],
      6.319847702972905e-05
    ],
    "P": [
      [
        -0.053231939163498096,
        0.015209125475285171
      ],
      0.0
    ],
    "Q": [
      [
        0.0,
        0.0
      ],
      0.005728479198179034
    ],
    "R": [
      [
        -0.022813688212927757,
        0.0076045627376425855
      ],
      0.0009260015777801723
    ],
    "S": [
      [
        -0.03802281368821293,
        0.022813688212927757
      ],
      0.0041683462176511825
    ],
    "T": [
      [
        -0.053231939163498096,
        0.0076045627376425855
      ],
      0.0
    ],
    "U": [
      [
        -0.015209125475285171,
        0.0076045627376425855
      ],
      0.0
    ],
    "V": [
      [
        -0.03802281368821293,
        0.0076045627376425855
      ],
      0.0
    ],
    "W": [
      [
        -0.053231939163498096,
        0.015209125475285171
      ],
      1.769880894891371e-06
    ],
    "X": [
      [
        -0.060836501901140684,
        0.015209125475285171
      ],
      0.0
    ],
    "Y": [
      [
        -0.060836501901140684,
        0.0
      ],
      0.0
    ],
    "Z": [
      [
        -0.045627376425855515,
        0.0076045627376425855
      ],
      0.0
    ]
  }
}