{
  "base_font": "Arial",
  "overlay_font": "LiberationSans-Bold",
  "overlay_font_path": "fonts/LiberationSans-Bold.ttf",
  "font_scale": 1.04296875,
  "total_overlap": 1289.8334640522878,
  "offsets": {
    "a": [
      [
        -0.00749063670411985,
        0.0299625468164794
      ],
      29.061960784313722
    ],
    "b": [
      [
        -0.0599250936329588,
        0.0149812734082397
      ],
      17.609181084198386
    ],
    "c": [
      [
        -0.02247191011235955,
        0.00749063670411985
      ],
      14.651810841983853
    ],
    "d": [
      [
        -0.0299625468164794,
        0.0149812734082397
      ],
      17.354232987312574
    ],
    "e": [
      [
        -0.0149812734082397,
        0.00749063670411985
      ],
      43.71769319492503
    ],
    "f": [
      [
        -0.02247191011235955,
        0.02247191011235955
      ],
      0.0
    ],
    "g": [
      [
        -0.0299625468164794,
        0.00749063670411985
      ],
      76.72258362168398
    ],
    "h": [
      [
        -0.052434456928838954,
        0.0
      ],
      7.568135332564398
    ],
    "i": [
      [
        -0.0149812734082397,
        0.0299625468164794
      ],
      0.0
    ],
    "j": [
      [
        -0.052434456928838954,
        0.0299625468164794
      ],
      12.145051903114187
    ],
    "k": [
      [
        -0.052434456928838954,
        0.00749063670411985
      ],
      0.3014532871972318
    ],
    "l": [
      [
        -0.0149812734082397,
        0.0149812734082397
      ],
      0.0
    ],
    "m": [
      [
        -0.052434456928838954,
        0.0
      ],
      22.08321414840446
    ],
    "n": [
      [
        -0.052434456928838954,
        0.0
      ],
      7.5597846981930035
    ],
    "o": [
      [
        -0.0449438202247191,
        0.0149812734082397
      ],
      0.0
    ],
    "p": [
      [
        -0.0599250936329588,
        0.0149812734082397
      ],
      17.85011918492887
    ],
    "q": [
      [
        -0.0299625468164794,
        0.0149812734082397
      ],
      16.10888119953864
    ],
    "r": [
      [
        -0.052434456928838954,
        0.00749063670411985
      ],
      21.78705113417916
    ],
    "s": [
      [
        -0.0449438202247191,
        0.0149812734082397
      ],
      71.09946943483276
    ],
    "t": [
      [
        -0.03745318352059925,
        0.0
      ],
      6.476093810073049
    ],
    "u": [
      [
        -0.0299625468164794,
        0.0299625468164794
      ],
      6.960692041522491
    ],
    "v": [
      [
        -0.03745318352059925,
        0.0
      ],
      0.311126489811611
    ],
    "w": [
      [
        -0.0449438202247191,
        0.0149812734082397
      ],
      290.3136332179931
    ],
    "x": [
      [
        -0.03745318352059925,
        0.00749063670411985
      ],
      0.014317570165321022
    ],
    "y": [
      [
        -0.03745318352059925,
        -0.00749063670411985
      ],
      0.006628219915417149
    ],
    "z": [
      [
        -0.0149812734082397,
        0.0149812734082397
      ],
      14.801953094963475
    ],
    "A": [
      [
        -0.052434456928838954,
        0.0
      ],
      0.028773548635140336
    ],
    "B": [
      [
        -0.0449438202247191,
        0.0
      ],
      1.7052518262206842
    ],
    "C": [
      [
        -0.00749063670411985,
        0.0
      ],
      21.156478277585546
    ],
    "D": [
      [
        0.0,
        0.0
      ],
      6.501222606689734
    ],
    "E": [
      [
        0.0,
        0.0
      ],
      0.0
    ],
    "F": [
      [
        0.0,
        -0.0299625468164794
      ],
      48.51764705882353
    ],
    "G": [
      [
        -0.02247191011235955,
        0.00749063670411985
      ],
      42.47586312956555
    ],
    "H": [
      [
        0.0,
        0.0
      ],
      0.0
    ],
    "I": [
      [
        0.0,
        0.0
      ],
      0.0
    ],
    "J": [
      [
        -0.0449438202247191,
        0.0
      ],
      4.444429065743945
    ],
    "K": [
      [
        -0.0299625468164794,
        0.0
      ],
      0.20259900038446757
    ],
    "L": [
      [
        0.0,
        0.0
      ],
      0.0
    ],
    "M": [
      [
        -0.0149812734082397,
        0.0
      ],
      20.084198385236448
    ],
    "N": [
      [
        -0.0149812734082397,
        0.0
      ],
      3.1084505959246442
    ],
    "O": [
      [
        -0.0149812734082397,
        0.00749063670411985
      ],
      2.771657054978854
    ],
    "P": [
      [
        -0.02247191011235955,
        -0.00749063670411985
      ],
      12.721061130334487
    ],
    "Q": [
      [
        -0.00749063670411985,
        0.0
      ],
      288.2376778162245
    ],
    "R": [
      [
        -0.02247191011235955,
        -0.00749063670411985
      ],
      29.046674356016915
    ],
    "S": [
      [
        -0.02247191011235955,
        0.00749063670411985
      ],
      103.44681276432144
    ],
    "T": [
      [
        0.0,
        0.0
      ],
      0.0
    ],
    "U": [
      [
        -0.00749063670411985,
        0.0
      ],
      4.336439830834295
    ],
    "V": [
      [
        -0.0149812734082397,
        0.0
      ],
      0.0
    ],
    "W": [
      [
        -0.02247191011235955,
        0.0
      ],
      1.9210457516339872
    ],
    "X": [
      [
        -0.0149812734082397,
        0.0
      ],
      0.01619377162629759
    ],
    "Y": [
      [
        -0.0149812734082397,
        0.0
      ],
      0.797770088427528
    ],
    "Z": [
      [
        -0.0149812734082397,
        0.0
      ],
      3.808150711264898
    ]
  }
}