{
  "base_font": "Arial-Italic",
  "overlay_font": "LiberationSans-BoldItalic",
  "font_scale": 1.05859375,
  "average_remainder": 0.0009695495590084975,
  "offsets": {
    "a": [
      [
        0.007380073800738007,
        0.02952029520295203
      ],
      0.0013945698287456646
    ],
    "b": [
      [
        -0.03690036900369004,
        0.02214022140221402
      ],
      0.0002655880290918186
    ],
    "c": [
      [
        -0.014760147601476014,
        0.014760147601476014
      ],
      0.0013158383320761645
    ],
    "d": [
      [
        -0.02214022140221402,
        0.02214022140221402
      ],
      0.00012787735353317662
    ],
    "e": [
      [
        0.0,
        0.014760147601476014
      ],
      0.0016791023947403778
    ],
    "f": [
      [
        -0.02214022140221402,
        0.03690036900369004
      ],
      8.301252246607307e-05
    ],
    "g": [
      [
        -0.014760147601476014,
        0.007380073800738007
      ],
      0.0022152964856476547
    ],
    "h": [
      [
        -0.02952029520295203,
        0.014760147601476014
      ],
      4.5367698609398305e-05
    ],
    "i": [
      [
        -0.007380073800738007,
        0.02952029520295203
      ],
      0.0
    ],
    "j": [
      [
        -0.03690036900369004,
        0.02952029520295203
      ],
      0.000924655808452698
    ],
    "k": [
      [
        -0.02952029520295203,
        0.02952029520295203
      ],
      1.3178854552880247e-05
    ],
    "l": [
      [
        -0.02214022140221402,
        0.0
      ],
      0.0
    ],
    "m": [
      [
        -0.03690036900369004,
        0.014760147601476014
      ],
      0.0011231602431324658
    ],
    "n": [
      [
        -0.02952029520295203,
        0.014760147601476014
      ],
      1.0243598083781991e-05
    ],
    "o": [
      [
        -0.02214022140221402,
        0.014760147601476014
      ],
      1.1687812379853905e-05
    ],
    "p": [
      [
        -0.03690036900369004,
        0.02214022140221402
      ],
      0.0001393038876450234
    ],
    "q": [
      [
        -0.02214022140221402,
        0.014760147601476014
      ],
      0.0003220108316072206
    ],
    "r": [
      [
        -0.02952029520295203,
        0.0
      ],
      4.692525765309855e-05
    ],
    "s": [
      [
        -0.014760147601476014,
        0.014760147601476014
      ],
      0.003947603862767713
    ],
    "t": [
      [
        -0.02952029520295203,
        0.007380073800738007
      ],
      0.00038794128954926834
    ],
    "u": [
      [
        -0.02214022140221402,
        0.014760147601476014
      ],
      2.0347244671666076e-05
    ],
    "v": [
      [
        -0.02214022140221402,
        0.0
      ],
      6.704900563930033e-08
    ],
    "w": [
      [
        -0.02952029520295203,
        0.014760147601476014
      ],
      0.012505801734493921
    ],
    "x": [
      [
        -0.02214022140221402,
        0.02214022140221402
      ],
      0.0002853222542833539
    ],
    "y": [
      [
        -0.02214022140221402,
        0.0
      ],
      3.6637492367189104e-06
    ],
    "z": [
      [
        -0.007380073800738007,
        0.02952029520295203
      ],
      0.0
    ],
    "A": [
      [
        -0.02952029520295203,
        0.014760147601476014
      ],
      1.0642699307825406e-09
    ],
    "B": [
      [
        -0.02214022140221402,
        0.007380073800738007
      ],
      2.817335360767552e-05
    ],
    "C": [
      [
        0.007380073800738007,
        0.007380073800738007
      ],
      0.002336855800736741
    ],
    "D": [
      [
        0.007380073800738007,
        0.007380073800738007
      ],
      2.3804525541813174e-05
    ],
    "E": [
      [
        0.007380073800738007,
        0.007380073800738007
      ],
      0.0
    ],
    "F": [
      [
        0.02214022140221402,
        -0.014760147601476014
      ],
      0.0008477074960522237
    ],
    "G": [
      [
        -0.007380073800738007,
        0.014760147601476014
      ],
      0.0016858051667644463
    ],
    "H": [
      [
        -0.007380073800738007,
        0.0
      ],
      0.0
    ],
    "I": [
      [
        0.0,
        0.007380073800738007
      ],
      0.0
    ],
    "J": [
      [
        -0.02952029520295203,
        0.0
      ],
      0.00025867559589138597
    ],
    "K": [
      [
        -0.014760147601476014,
        0.0
      ],
      0.0005295881674469095
    ],
    "L": [
      [
        -0.014760147601476014,
        0.014760147601476014
      ],
      0.0
    ],
    "M": [
      [
        0.0,
        0.014760147601476014
      ],
      0.0032167846010783714
    ],
    "N": [
      [
        0.0,
        0.0
      ],
      2.7407611392477468e-05
    ],
    "O": [
      [
        0.0,
        0.007380073800738007
      ],
      1.968899371947706e-08
    ],
    "P": [
      [
        0.014760147601476014,
        0.0
      ],
      7.036420647368793e-06
    ],
    "Q": [
      [
        0.007380073800738007,
        -0.007380073800738007
      ],
      0.008737444874143428
    ],
    "R": [
      [
        0.0,
        0.0
      ],
      3.9476964542516915e-05
    ],
    "S": [
      [
        0.014760147601476014,
        0.007380073800738007
      ],
      0.0034255001736090323
    ],
    "T": [
      [
        0.0,
        0.0
      ],
      0.0
    ],
    "U": [
      [
        0.0,
        0.007380073800738007
      ],
      0.0
    ],
    "V": [
      [
        0.014760147601476014,
        0.0
      ],
      1.452728455518173e-07
    ],
    "W": [
      [
        0.007380073800738007,
        0.0
      ],
      0.0013788856827757225
    ],
    "X": [
      [
        0.0,
        0.014760147601476014
      ],
      0.0006280022722163022
    ],
    "Y": [
      [
        0.014760147601476014,
        0.014760147601476014
      ],
      1.0238276734128074e-06
    ],
    "Z": [
      [
        -0.007380073800738007,
        0.014760147601476014
      ],
      0.0003756723857872072
    ]
  }
}