{
  "base_font": "Arial-Bold",
  "overlay_font": "UnBPro-Extrabold",
  "overlay_font_path": "fonts/UnBPro-Extrabold.ttf",
  "font_scale": 1.0099826388888888,
  "total_overlap": 1585.9393617839291,
  "offsets": {
    "a": [
      [
        -0.007735281478298239,
        0.015470562956596478
      ],
      30.795155709342563
    ],
    "b": [
      [
        -0.06188225182638591,
        0.015470562956596478
      ],
      13.751341791618607
    ],
    "c": [
      [
        -0.007735281478298239,
        0.023205844434894714
      ],
      0.0
    ],
    "d": [
      [
        0.015470562956596478,
        0.015470562956596478
      ],
      8.080707420222993
    ],
    "e": [
      [
        -0.03867640739149119,
        0.023205844434894714
      ],
      0.0
    ],
    "f": [
      [
        -0.015470562956596478,
        0.015470562956596478
      ],
      0.0
    ],
    "g": [
      [
        0.015470562956596478,
        0.007735281478298239
      ],
      25.64881199538639
    ],
    "h": [
      [
        -0.06961753330468415,
        0.0
      ],
      2.290011534025375
    ],
    "i": [
      [
        0.023205844434894714,
        0.023205844434894714
      ],
      0.0
    ],
    "j": [
      [
        -0.06961753330468415,
        0.030941125913192955
      ],
      0.0
    ],
    "k": [
      [
        -0.07735281478298238,
        0.007735281478298239
      ],
      7.294502114571319
    ],
    "l": [
      [
        0.0,
        0.0
      ],
      0.0
    ],
    "m": [
      [
        -0.07735281478298238,
        0.0
      ],
      7.848950403690888
    ],
    "n": [
      [
        -0.06961753330468415,
        0.0
      ],
      2.9785774702037675
    ],
    "o": [
      [
        -0.007735281478298239,
        0.015470562956596478
      ],
      0.0
    ],
    "p": [
      [
        -0.06188225182638591,
        0.015470562956596478
      ],
      8.10954248366013
    ],
    "q": [
      [
        0.015470562956596478,
        0.015470562956596478
      ],
      11.846828143021915
    ],
    "r": [
      [
        -0.06188225182638591,
        0.0
      ],
      6.584129181084198
    ],
    "s": [
      [
        0.0,
        0.007735281478298239
      ],
      0.0
    ],
    "t": [
      [
        -0.06188225182638591,
        0.023205844434894714
      ],
      0.0
    ],
    "u": [
      [
        0.023205844434894714,
        0.03867640739149119
      ],
      0.7852979623221837
    ],
    "v": [
      [
        -0.03867640739149119,
        0.0
      ],
      1.7110342176086122
    ],
    "w": [
      [
        -0.11602922217447358,
        0.0
      ],
      246.37290272971933
    ],
    "x": [
      [
        -0.05414697034808767,
        0.015470562956596478
      ],
      0.0
    ],
    "y": [
      [
        -0.030941125913192955,
        0.0
      ],
      0.0
    ],
    "z": [
      [
        -0.007735281478298239,
        0.007735281478298239
      ],
      0.0
    ],
    "A": [
      [
        -0.05414697034808767,
        0.007735281478298239
      ],
      0.4800461361014994
    ],
    "B": [
      [
        0.030941125913192955,
        0.007735281478298239
      ],
      0.31360246059208
    ],
    "C": [
      [
        -0.030941125913192955,
        0.0
      ],
      0.0
    ],
    "D": [
      [
        0.030941125913192955,
        0.0
      ],
      0.08187620146097654
    ],
    "E": [
      [
        0.030941125913192955,
        0.0
      ],
      81.06666666666666
    ],
    "F": [
      [
        0.007735281478298239,
        0.007735281478298239
      ],
      0.0
    ],
    "G": [
      [
        -0.03867640739149119,
        0.007735281478298239
      ],
      10.680907343329489
    ],
    "H": [
      [
        0.0,
        0.0
      ],
      0.0
    ],
    "I": [
      [
        0.0,
        0.0
      ],
      0.0
    ],
    "J": [
      [
        -0.1005586592178771,
        0.007735281478298239
      ],
      1.5692272202998847
    ],
    "K": [
      [
        -0.04641168886978943,
        0.0
      ],
      0.0009227220299884671
    ],
    "L": [
      [
        0.007735281478298239,
        0.0
      ],
      0.0
    ],
    "M": [
      [
        -0.07735281478298238,
        0.007735281478298239
      ],
      234.81833141099577
    ],
    "N": [
      [
        -0.015470562956596478,
        0.007735281478298239
      ],
      0.0
    ],
    "O": [
      [
        -0.030941125913192955,
        0.007735281478298239
      ],
      4.923260284505959
    ],
    "P": [
      [
        0.007735281478298239,
        0.0
      ],
      0.0
    ],
    "Q": [
      [
        0.0,
        0.0
      ],
      285.5842675893887
    ],
    "R": [
      [
        0.023205844434894714,
        0.0
      ],
      0.5197693194925028
    ],
    "S": [
      [
        -0.015470562956596478,
        0.007735281478298239
      ],
      25.21837754709727
    ],
    "T": [
      [
        0.007735281478298239,
        0.007735281478298239
      ],
      0.0
    ],
    "U": [
      [
        -0.03867640739149119,
        0.007735281478298239
      ],
      5.155709342560553
    ],
    "V": [
      [
        -0.06188225182638591,
        0.0
      ],
      0.35840061514802
    ],
    "W": [
      [
        -0.11602922217447358,
        0.0
      ],
      561.0702037677817
    ],
    "X": [
      [
        -0.07735281478298238,
        0.0
      ],
      0.0
    ],
    "Y": [
      [
        -0.023205844434894714,
        0.0
      ],
      0.0
    ],
    "Z": [
      [
        -0.030941125913192955,
        0.007735281478298239
      ],
      0.0
    ]
  }
}