{
  "base_font": "Arial-Bold",
  "overlay_font": "UnBPro-Extrabold",
  "font_scale": 1.0099826388888888,
  "average_remainder": 0.0010587774997372584,
  "offsets": {
    "a": [
      [
        -0.007735281478298239,
        0.015470562956596478
      ],
      0.0010655763221225798
    ],
    "b": [
      [
        -0.06188225182638591,
        0.015470562956596478
      ],
      0.0004758249754885331
    ],
    "c": [
      [
        -0.023205844434894714,
        0.015470562956596478
      ],
      0.0
    ],
    "d": [
      [
        0.015470562956596478,
        0.015470562956596478
      ],
      0.0002796092532949132
    ],
    "e": [
      [
        -0.03867640739149119,
        0.015470562956596478
      ],
      0.0
    ],
    "f": [
      [
        -0.030941125913192955,
        0.015470562956596478
      ],
      0.0
    ],
    "g": [
      [
        0.015470562956596478,
        0.007735281478298239
      ],
      0.0008875021451690793
    ],
    "h": [
      [
        -0.06961753330468415,
        0.0
      ],
      7.923915342648356e-05
    ],
    "i": [
      [
        0.0,
        0.023205844434894714
      ],
      0.0
    ],
    "j": [
      [
        -0.06961753330468415,
        0.030941125913192955
      ],
      0.0
    ],
    "k": [
      [
        -0.07735281478298238,
        0.007735281478298239
      ],
      0.00025240491745921517
    ],
    "l": [
      [
        -0.023205844434894714,
        0.0
      ],
      0.0
    ],
    "m": [
      [
        -0.07735281478298238,
        0.0
      ],
      0.0002715899793664667
    ],
    "n": [
      [
        -0.06961753330468415,
        0.0
      ],
      0.00010306496436691235
    ],
    "o": [
      [
        -0.007735281478298239,
        0.015470562956596478
      ],
      0.0
    ],
    "p": [
      [
        -0.06188225182638591,
        0.015470562956596478
      ],
      0.0002806070063550218
    ],
    "q": [
      [
        0.015470562956596478,
        0.015470562956596478
      ],
      0.0004099248492395127
    ],
    "r": [
      [
        -0.06188225182638591,
        0.0
      ],
      0.00022782453913786153
    ],
    "s": [
      [
        -0.007735281478298239,
        0.007735281478298239
      ],
      0.0
    ],
    "t": [
      [
        -0.07735281478298238,
        0.023205844434894714
      ],
      0.0
    ],
    "u": [
      [
        0.023205844434894714,
        0.03867640739149119
      ],
      2.717293987273992e-05
    ],
    "v": [
      [
        -0.03867640739149119,
        0.0
      ],
      5.920533624943295e-05
    ],
    "w": [
      [
        -0.11602922217447358,
        0.0
      ],
      0.008525013935284405
    ],
    "x": [
      [
        -0.05414697034808767,
        0.007735281478298239
      ],
      0.0
    ],
    "y": [
      [
        -0.03867640739149119,
        0.0
      ],
      0.0
    ],
    "z": [
      [
        -0.023205844434894714,
        0.0
      ],
      0.0
    ],
    "A": [
      [
        -0.05414697034808767,
        0.007735281478298239
      ],
      1.661059294468856e-05
    ],
    "B": [
      [
        0.030941125913192955,
        0.007735281478298239
      ],
      1.0851296214258825e-05
    ],
    "C": [
      [
        -0.04641168886978943,
        0.0
      ],
      0.0
    ],
    "D": [
      [
        0.030941125913192955,
        0.0
      ],
      2.833086555743133e-06
    ],
    "E": [
      [
        0.030941125913192955,
        0.0
      ],
      0.0028050749711649365
    ],
    "F": [
      [
        0.015470562956596478,
        0.007735281478298239
      ],
      0.0
    ],
    "G": [
      [
        -0.03867640739149119,
        0.007735281478298239
      ],
      0.0003695815689733387
    ],
    "H": [
      [
        -0.04641168886978943,
        0.0
      ],
      0.0
    ],
    "I": [
      [
        -0.03867640739149119,
        0.0
      ],
      0.0
    ],
    "J": [
      [
        -0.1005586592178771,
        0.007735281478298239
      ],
      5.429851973356003e-05
    ],
    "K": [
      [
        -0.04641168886978943,
        0.0
      ],
      3.192809792347637e-08
    ],
    "L": [
      [
        0.007735281478298239,
        0.0
      ],
      0.0
    ],
    "M": [
      [
        -0.10829394069617534,
        0.007735281478298239
      ],
      0.008129968643947163
    ],
    "N": [
      [
        -0.03867640739149119,
        0.0
      ],
      0.0
    ],
    "O": [
      [
        -0.030941125913192955,
        0.007735281478298239
      ],
      0.00017035502714553492
    ],
    "P": [
      [
        0.007735281478298239,
        0.0
      ],
      0.0
    ],
    "Q": [
      [
        0.0,
        0.0
      ],
      0.009881808567106876
    ],
    "R": [
      [
        0.023205844434894714,
        0.0
      ],
      1.7985097560294216e-05
    ],
    "S": [
      [
        -0.015470562956596478,
        0.007735281478298239
      ],
      0.0008726082196227428
    ],
    "T": [
      [
        -0.007735281478298239,
        0.007735281478298239
      ],
      0.0
    ],
    "U": [
      [
        -0.03867640739149119,
        0.007735281478298239
      ],
      0.000178398247147424
    ],
    "V": [
      [
        -0.06188225182638591,
        0.0
      ],
      1.24014053684436e-05
    ],
    "W": [
      [
        -0.14697034808766654,
        0.0
      ],
      0.019589062497921344
    ],
    "X": [
      [
        -0.07735281478298238,
        0.0
      ],
      0.0
    ],
    "Y": [
      [
        -0.04641168886978943,
        0.0
      ],
      0.0
    ],
    "Z": [
      [
        -0.030941125913192955,
        0.0
      ],
      0.0
    ]
  }
}