{
  "base_font": "Arial",
  "overlay_font": "LiberationSans-Bold",
  "font_scale": 1.04296875,
  "average_remainder": 0.0008582868405990734,
  "offsets": {
    "a": [
      [
        -0.00749063670411985,
        0.0
      ],
      0.0010056041793880181
    ],
    "b": [
      [
        -0.0599250936329588,
        0.005
      ],
      0.0006093142243667262
    ],
    "c": [
      [
        -0.02247191011235955,
        0.0
      ],
      0.0005069830741170884
    ],
    "d": [
      [
        -0.0299625468164794,
        0.005
      ],
      0.0006004924909104696
    ],
    "e": [
      [
        -0.0149812734082397,
        0.0
      ],
      0.001512722947921281
    ],
    "f": [
      [
        -0.02247191011235955,
        0.005
      ],
      0.0
    ],
    "g": [
      [
        -0.0299625468164794,
        0.0
      ],
      0.002654760678951002
    ],
    "h": [
      [
        -0.052434456928838954,
        0.0
      ],
      0.0002618731948984221
    ],
    "i": [
      [
        -0.0149812734082397,
        0.005
      ],
      0.0
    ],
    "j": [
      [
        -0.052434456928838954,
        0.0299625468164794
      ],
      0.00042024401048838014
    ],
    "k": [
      [
        -0.052434456928838954,
        0.0
      ],
      1.0430909591599716e-05
    ],
    "l": [
      [
        -0.0299625468164794,
        0.0
      ],
      0.0
    ],
    "m": [
      [
        -0.052434456928838954,
        0.0
      ],
      0.0007641250570382165
    ],
    "n": [
      [
        -0.052434456928838954,
        0.0
      ],
      0.00026158424561221463
    ],
    "o": [
      [
        -0.0449438202247191,
        0.005
      ],
      0.0
    ],
    "p": [
      [
        -0.0599250936329588,
        0.01
      ],
      0.0006176511828695111
    ],
    "q": [
      [
        -0.0299625468164794,
        0.0149812734082397
      ],
      0.0005574007335480499
    ],
    "r": [
      [
        -0.052434456928838954,
        0.0
      ],
      0.0007538772018747115
    ],
    "s": [
      [
        -0.0449438202247191,
        0.005
      ],
      0.002460189253800442
    ],
    "t": [
      [
        -0.03745318352059925,
        0.0
      ],
      0.00022408629100598786
    ],
    "u": [
      [
        -0.0299625468164794,
        0.0
      ],
      0.00024085439590043224
    ],
    "v": [
      [
        -0.03745318352059925,
        0.0
      ],
      1.0765622484830828e-05
    ],
    "w": [
      [
        -0.0449438202247191,
        0.0
      ],
      0.010045454436608757
    ],
    "x": [
      [
        -0.03745318352059925,
        0.00749063670411985
      ],
      4.954176527792742e-07
    ],
    "y": [
      [
        -0.03745318352059925,
        -0.00749063670411985
      ],
      2.2935017008363837e-07
    ],
    "z": [
      [
        -0.0149812734082397,
        0.0
      ],
      0.0005121783077842032
    ],
    "A": [
      [
        -0.052434456928838954,
        0.0
      ],
      9.956245202470705e-07
    ],
    "B": [
      [
        -0.0449438202247191,
        0.0
      ],
      5.900525350244583e-05
    ],
    "C": [
      [
        -0.00749063670411985,
        0.0
      ],
      0.0007320580718887732
    ],
    "D": [
      [
        0.0,
        0.0
      ],
      0.00022495579953943717
    ],
    "E": [
      [
        -0.0149812734082397,
        0.0
      ],
      0.0
    ],
    "F": [
      [
        0.0,
        -0.0299625468164794
      ],
      0.001678811316914309
    ],
    "G": [
      [
        -0.02247191011235955,
        0.00749063670411985
      ],
      0.0014697530494659358
    ],
    "H": [
      [
        -0.0149812734082397,
        0.0
      ],
      0.0
    ],
    "I": [
      [
        0.0,
        0.0
      ],
      0.0
    ],
    "J": [
      [
        -0.0449438202247191,
        0.0
      ],
      0.00015378647286311224
    ],
    "K": [
      [
        -0.0299625468164794,
        0.0
      ],
      7.010346034064622e-06
    ],
    "L": [
      [
        -0.0449438202247191,
        0.0
      ],
      0.0
    ],
    "M": [
      [
        -0.0149812734082397,
        0.0
      ],
      0.0006949549614268667
    ],
    "N": [
      [
        -0.0149812734082397,
        0.0
      ],
      0.00010755884414964168
    ],
    "O": [
      [
        -0.0149812734082397,
        0.00749063670411985
      ],
      9.59050884075728e-05
    ],
    "P": [
      [
        -0.02247191011235955,
        -0.00749063670411985
      ],
      0.00044017512561711025
    ],
    "Q": [
      [
        -0.00749063670411985,
        0.0
      ],
      0.009973622069765554
    ],
    "R": [
      [
        -0.02247191011235955,
        -0.00749063670411985
      ],
      0.0010050752372324193
    ],
    "S": [
      [
        -0.02247191011235955,
        0.0
      ],
      0.0035794744901149274
    ],
    "T": [
      [
        -0.0149812734082397,
        0.0
      ],
      0.0
    ],
    "U": [
      [
        -0.00749063670411985,
        0.0
      ],
      0.00015004982113613478
    ],
    "V": [
      [
        -0.0149812734082397,
        0.0
      ],
      0.0
    ],
    "W": [
      [
        -0.02247191011235955,
        0.0
      ],
      6.647217133681616e-05
    ],
    "X": [
      [
        -0.0149812734082397,
        0.0
      ],
      5.603381185570101e-07
    ],
    "Y": [
      [
        -0.0149812734082397,
        0.0
      ],
      2.7604501329672242e-05
    ],
    "Z": [
      [
        -0.0149812734082397,
        0.0
      ],
      0.00013176992080501379
    ]
  }
}