{
  "base_font": "ComputerModernSerif",
  "overlay_font": "ComputerModernSerif-Bold",
  "overlay_font_path": "fonts/ComputerModernSerif-Bold.ttf",
  "font_scale": 0.98828125,
  "total_overlap": 5518.57324106113,
  "offsets": {
    "a": [
      [
        -0.03162055335968379,
        0.0
      ],
      93.45894655901577
    ],
    "b": [
      [
        -0.039525691699604744,
        0.0
      ],
      38.82005382545175
    ],
    "c": [
      [
        -0.039525691699604744,
        0.0
      ],
      5.0842752787389465
    ],
    "d": [
      [
        -0.039525691699604744,
        0.0
      ],
      44.51534025374857
    ],
    "e": [
      [
        -0.04743083003952569,
        -0.007905138339920948
      ],
      68.73007304882738
    ],
    "f": [
      [
        -0.039525691699604744,
        -0.007905138339920948
      ],
      60.91726259131103
    ],
    "g": [
      [
        -0.03162055335968379,
        0.0
      ],
      81.4250826605152
    ],
    "h": [
      [
        -0.04743083003952569,
        0.0
      ],
      56.18895809304114
    ],
    "i": [
      [
        -0.03162055335968379,
        0.007905138339920948
      ],
      3.140330642060746
    ],
    "j": [
      [
        -0.023715415019762844,
        0.007905138339920948
      ],
      14.426174548250673
    ],
    "k": [
      [
        -0.039525691699604744,
        0.0
      ],
      58.07457131872357
    ],
    "l": [
      [
        -0.03162055335968379,
        0.0
      ],
      23.027943098808148
    ],
    "m": [
      [
        -0.07114624505928854,
        0.007905138339920948
      ],
      283.1874971164936
    ],
    "n": [
      [
        -0.04743083003952569,
        0.007905138339920948
      ],
      29.83126489811611
    ],
    "o": [
      [
        -0.039525691699604744,
        0.0
      ],
      4.088304498269896
    ],
    "p": [
      [
        -0.039525691699604744,
        0.0
      ],
      11.725459438677431
    ],
    "q": [
      [
        -0.039525691699604744,
        0.0
      ],
      21.754094579008076
    ],
    "r": [
      [
        -0.03162055335968379,
        0.0
      ],
      19.74279123414071
    ],
    "s": [
      [
        -0.023715415019762844,
        0.0
      ],
      41.07860053825451
    ],
    "t": [
      [
        -0.03162055335968379,
        0.0
      ],
      4.876924259900038
    ],
    "u": [
      [
        -0.04743083003952569,
        0.0
      ],
      12.846366782006921
    ],
    "v": [
      [
        -0.04743083003952569,
        0.0
      ],
      23.981361014994235
    ],
    "w": [
      [
        -0.05533596837944664,
        0.0
      ],
      159.0884275278739
    ],
    "x": [
      [
        -0.039525691699604744,
        0.007905138339920948
      ],
      39.222237600922725
    ],
    "y": [
      [
        -0.04743083003952569,
        0.007905138339920948
      ],
      59.574102268358324
    ],
    "z": [
      [
        -0.03162055335968379,
        0.007905138339920948
      ],
      6.648212226066898
    ],
    "A": [
      [
        -0.04743083003952569,
        0.0
      ],
      123.65104190695887
    ],
    "B": [
      [
        -0.05533596837944664,
        0.0
      ],
      87.24361399461745
    ],
    "C": [
      [
        -0.05533596837944664,
        0.0
      ],
      217.54054594386776
    ],
    "D": [
      [
        -0.05533596837944664,
        -0.007905138339920948
      ],
      90.11746251441753
    ],
    "E": [
      [
        -0.039525691699604744,
        0.0
      ],
      5.111157247212611
    ],
    "F": [
      [
        -0.039525691699604744,
        0.0
      ],
      9.425974625144176
    ],
    "G": [
      [
        -0.05533596837944664,
        0.0
      ],
      191.51801614763554
    ],
    "H": [
      [
        -0.07114624505928854,
        0.0
      ],
      277.5522029988466
    ],
    "I": [
      [
        -0.015810276679841896,
        0.0
      ],
      34.84207612456747
    ],
    "J": [
      [
        -0.015810276679841896,
        0.0
      ],
      64.01870049980776
    ],
    "K": [
      [
        -0.06324110671936758,
        0.0
      ],
      131.5935409457901
    ],
    "L": [
      [
        -0.04743083003952569,
        0.0
      ],
      27.91255670895809
    ],
    "M": [
      [
        -0.09486166007905138,
        -0.007905138339920948
      ],
      722.7607227989236
    ],
    "N": [
      [
        -0.039525691699604744,
        0.0
      ],
      534.201076509035
    ],
    "O": [
      [
        -0.039525691699604744,
        0.0
      ],
      109.8720492118416
    ],
    "P": [
      [
        -0.05533596837944664,
        -0.007905138339920948
      ],
      44.43269511726259
    ],
    "Q": [
      [
        -0.04743083003952569,
        0.0
      ],
      134.2143790849673
    ],
    "R": [
      [
        -0.05533596837944664,
        -0.007905138339920948
      ],
      151.16183006535945
    ],
    "S": [
      [
        -0.039525691699604744,
        0.0
      ],
      153.99675509419453
    ],
    "T": [
      [
        -0.039525691699604744,
        -0.007905138339920948
      ],
      57.83018838908112
    ],
    "U": [
      [
        -0.06324110671936758,
        -0.007905138339920948
      ],
      384.5029450211457
    ],
    "V": [
      [
        -0.07114624505928854,
        -0.007905138339920948
      ],
      70.89759323337178
    ],
    "W": [
      [
        -0.07905138339920949,
        -0.007905138339920948
      ],
      366.957416378316
    ],
    "X": [
      [
        -0.05533596837944664,
        0.0
      ],
      124.1678431372549
    ],
    "Y": [
      [
        -0.07114624505928854,
        -0.007905138339920948
      ],
      53.624344482891196
    ],
    "Z": [
      [
        -0.05533596837944664,
        0.0
      ],
      83.97185697808534
    ]
  }
}