{
  "base_font": "ComputerModernSerif",
  "overlay_font": "ComputerModernSerif-Bold",
  "font_scale": 1.00390625,
  "average_remainder": 0.003373609052925632,
  "offsets": {
    "a": [
      [
        -0.038910505836575876,
        0.007782101167315175
      ],
      0.003186652990798056
    ],
    "b": [
      [
        -0.038910505836575876,
        0.007782101167315175
      ],
      0.001944638274605588
    ],
    "c": [
      [
        -0.04669260700389105,
        0.0
      ],
      0.000326787807191538
    ],
    "d": [
      [
        -0.04669260700389105,
        0.007782101167315175
      ],
      0.0019213605626795124
    ],
    "e": [
      [
        -0.04669260700389105,
        0.0
      ],
      0.0023828216190472386
    ],
    "f": [
      [
        -0.038910505836575876,
        0.0
      ],
      0.0008300576435201259
    ],
    "g": [
      [
        -0.038910505836575876,
        0.0
      ],
      0.0035409968750374156
    ],
    "h": [
      [
        -0.04669260700389105,
        0.007782101167315175
      ],
      0.0017829927004386122
    ],
    "i": [
      [
        -0.023346303501945526,
        0.007782101167315175
      ],
      0.0
    ],
    "j": [
      [
        -0.023346303501945526,
        0.007782101167315175
      ],
      0.00031094934208163215
    ],
    "k": [
      [
        -0.038910505836575876,
        0.0
      ],
      0.0016881369821827913
    ],
    "l": [
      [
        -0.0311284046692607,
        0.0
      ],
      0.000286780304088526
    ],
    "m": [
      [
        -0.08560311284046693,
        0.007782101167315175
      ],
      0.011545421045139679
    ],
    "n": [
      [
        -0.04669260700389105,
        0.007782101167315175
      ],
      0.001089149368954448
    ],
    "o": [
      [
        -0.038910505836575876,
        0.007782101167315175
      ],
      0.00011374438098734982
    ],
    "p": [
      [
        -0.038910505836575876,
        0.007782101167315175
      ],
      0.000825530239234577
    ],
    "q": [
      [
        -0.04669260700389105,
        0.007782101167315175
      ],
      0.0009310100320744351
    ],
    "r": [
      [
        -0.038910505836575876,
        0.007782101167315175
      ],
      0.0004850803989415836
    ],
    "s": [
      [
        -0.0311284046692607,
        0.0
      ],
      0.0016902708433940102
    ],
    "t": [
      [
        -0.038910505836575876,
        0.0
      ],
      0.00014560170496042912
    ],
    "u": [
      [
        -0.04669260700389105,
        0.0
      ],
      0.0009524571997195649
    ],
    "v": [
      [
        -0.054474708171206226,
        0.007782101167315175
      ],
      0.0009225182222967211
    ],
    "w": [
      [
        -0.0622568093385214,
        0.007782101167315175
      ],
      0.006534862689223868
    ],
    "x": [
      [
        -0.038910505836575876,
        0.007782101167315175
      ],
      0.0012866666932734151
    ],
    "y": [
      [
        -0.04669260700389105,
        0.007782101167315175
      ],
      0.0017611118427966889
    ],
    "z": [
      [
        -0.038910505836575876,
        0.01556420233463035
      ],
      0.0004822930759928641
    ],
    "A": [
      [
        -0.04669260700389105,
        0.0
      ],
      0.004398937326474114
    ],
    "B": [
      [
        -0.0622568093385214,
        0.0
      ],
      0.0018836545433018178
    ],
    "C": [
      [
        -0.0622568093385214,
        0.0
      ],
      0.007675608928692585
    ],
    "D": [
      [
        -0.0622568093385214,
        0.0
      ],
      0.0028495172870695194
    ],
    "E": [
      [
        -0.04669260700389105,
        0.0
      ],
      0.00031180927218570445
    ],
    "F": [
      [
        -0.04669260700389105,
        0.007782101167315175
      ],
      2.5755864459902963e-05
    ],
    "G": [
      [
        -0.0622568093385214,
        0.007782101167315175
      ],
      0.006151367387310445
    ],
    "H": [
      [
        -0.07782101167315175,
        0.0
      ],
      0.009280786069770876
    ],
    "I": [
      [
        -0.023346303501945526,
        0.0
      ],
      0.0003002890823199488
    ],
    "J": [
      [
        -0.01556420233463035,
        0.0
      ],
      0.0013016979096408224
    ],
    "K": [
      [
        -0.0622568093385214,
        0.0
      ],
      0.0027729116695867574
    ],
    "L": [
      [
        -0.054474708171206226,
        0.0
      ],
      3.1928097923476217e-09
    ],
    "M": [
      [
        -0.10894941634241245,
        0.0
      ],
      0.025946457644052262
    ],
    "N": [
      [
        -0.11673151750972763,
        -0.007782101167315175
      ],
      0.013878301265549982
    ],
    "O": [
      [
        -0.04669260700389105,
        0.0
      ],
      0.0025611948558512893
    ],
    "P": [
      [
        -0.054474708171206226,
        0.0
      ],
      0.0007283059882477993
    ],
    "Q": [
      [
        -0.054474708171206226,
        0.007782101167315175
      ],
      0.0038613820343253655
    ],
    "R": [
      [
        -0.0622568093385214,
        0.0
      ],
      0.0043480301028749925
    ],
    "S": [
      [
        -0.038910505836575876,
        0.007782101167315175
      ],
      0.00493909635500852
    ],
    "T": [
      [
        -0.038910505836575876,
        0.0
      ],
      0.0013787483919546516
    ],
    "U": [
      [
        -0.0622568093385214,
        0.0
      ],
      0.012851899655309579
    ],
    "V": [
      [
        -0.07782101167315175,
        -0.007782101167315175
      ],
      0.0023968917996671493
    ],
    "W": [
      [
        -0.07782101167315175,
        0.0
      ],
      0.013338516327896243
    ],
    "X": [
      [
        -0.0622568093385214,
        0.0
      ],
      0.0026578151336523483
    ],
    "Y": [
      [
        -0.07782101167315175,
        0.0
      ],
      0.0012583411490656373
    ],
    "Z": [
      [
        -0.054474708171206226,
        0.0
      ],
      0.0013624586763940937
    ]
  }
}