{
  "base_font": "ComputerModernSerif-Italic",
  "overlay_font": "ComputerModernSerif-BoldItalic",
  "overlay_font_path": "fonts/ComputerModernSerif-BoldItalic.ttf",
  "font_scale": 0.98828125,
  "total_overlap": 4470.500684352172,
  "offsets": {
    "a": [
      [
        -0.039525691699604744,
        0.007905138339920948
      ],
      68.06932718185314
    ],
    "b": [
      [
        -0.03162055335968379,
        0.0
      ],
      34.69176470588235
    ],
    "c": [
      [
        -0.03162055335968379,
        0.0
      ],
      16.7598308342945
    ],
    "d": [
      [
        -0.039525691699604744,
        0.0
      ],
      80.36036908881199
    ],
    "e": [
      [
        -0.03162055335968379,
        0.0
      ],
      30.804352172241444
    ],
    "f": [
      [
        -0.04743083003952569,
        0.0
      ],
      31.73505574778931
    ],
    "g": [
      [
        -0.03162055335968379,
        0.0
      ],
      27.545882352941174
    ],
    "h": [
      [
        -0.03162055335968379,
        0.0
      ],
      82.1128489042676
    ],
    "i": [
      [
        -0.023715415019762844,
        0.007905138339920948
      ],
      17.6479661668589
    ],
    "j": [
      [
        -0.015810276679841896,
        0.007905138339920948
      ],
      4.9510034602076125
    ],
    "k": [
      [
        -0.03162055335968379,
        0.0
      ],
      69.22645136485966
    ],
    "l": [
      [
        -0.023715415019762844,
        -0.007905138339920948
      ],
      11.243906189926951
    ],
    "m": [
      [
        -0.04743083003952569,
        0.007905138339920948
      ],
      396.6123029603998
    ],
    "n": [
      [
        -0.039525691699604744,
        0.0
      ],
      124.98848135332565
    ],
    "o": [
      [
        -0.039525691699604744,
        0.007905138339920948
      ],
      35.93776239907728
    ],
    "p": [
      [
        -0.039525691699604744,
        0.007905138339920948
      ],
      72.30769703960016
    ],
    "q": [
      [
        -0.039525691699604744,
        0.007905138339920948
      ],
      32.114033064206076
    ],
    "r": [
      [
        -0.015810276679841896,
        0.0
      ],
      37.23684736639754
    ],
    "s": [
      [
        -0.039525691699604744,
        0.0
      ],
      24.993141099577088
    ],
    "t": [
      [
        -0.03162055335968379,
        0.0
      ],
      2.5110342176086125
    ],
    "u": [
      [
        -0.039525691699604744,
        0.007905138339920948
      ],
      100.61227220299884
    ],
    "v": [
      [
        -0.03162055335968379,
        0.0
      ],
      36.41093425605536
    ],
    "w": [
      [
        -0.04743083003952569,
        0.0
      ],
      161.55677047289507
    ],
    "x": [
      [
        -0.039525691699604744,
        0.0
      ],
      125.70119184928872
    ],
    "y": [
      [
        -0.039525691699604744,
        0.007905138339920948
      ],
      48.182006920415226
    ],
    "z": [
      [
        -0.039525691699604744,
        0.007905138339920948
      ],
      40.57127258746636
    ],
    "A": [
      [
        -0.04743083003952569,
        0.0
      ],
      95.50306805074972
    ],
    "B": [
      [
        -0.05533596837944664,
        0.0
      ],
      53.33830065359477
    ],
    "C": [
      [
        -0.05533596837944664,
        -0.007905138339920948
      ],
      69.09170319108036
    ],
    "D": [
      [
        -0.06324110671936758,
        0.0
      ],
      59.88204536716647
    ],
    "E": [
      [
        -0.039525691699604744,
        0.0
      ],
      0.34286812764321417
    ],
    "F": [
      [
        -0.039525691699604744,
        0.0
      ],
      8.513002691272588
    ],
    "G": [
      [
        -0.05533596837944664,
        0.0
      ],
      68.50562091503268
    ],
    "H": [
      [
        -0.07114624505928854,
        0.0
      ],
      156.40321414840446
    ],
    "I": [
      [
        -0.023715415019762844,
        0.0
      ],
      46.44595155709342
    ],
    "J": [
      [
        -0.015810276679841896,
        -0.007905138339920948
      ],
      14.698515955401767
    ],
    "K": [
      [
        -0.06324110671936758,
        0.0
      ],
      91.39893886966551
    ],
    "L": [
      [
        -0.039525691699604744,
        0.0
      ],
      41.171472510572855
    ],
    "M": [
      [
        -0.09486166007905138,
        -0.007905138339920948
      ],
      633.0433679354094
    ],
    "N": [
      [
        -0.039525691699604744,
        0.0
      ],
      528.1149711649366
    ],
    "O": [
      [
        -0.039525691699604744,
        0.0
      ],
      22.058608227604765
    ],
    "P": [
      [
        -0.05533596837944664,
        -0.007905138339920948
      ],
      35.95630911188004
    ],
    "Q": [
      [
        -0.04743083003952569,
        0.0
      ],
      46.351818531334104
    ],
    "R": [
      [
        -0.06324110671936758,
        -0.007905138339920948
      ],
      99.35920030757401
    ],
    "S": [
      [
        -0.039525691699604744,
        0.0
      ],
      55.04964244521339
    ],
    "T": [
      [
        -0.03162055335968379,
        -0.007905138339920948
      ],
      56.18946559015763
    ],
    "U": [
      [
        -0.07114624505928854,
        -0.007905138339920948
      ],
      177.32498269896195
    ],
    "V": [
      [
        -0.06324110671936758,
        -0.007905138339920948
      ],
      19.77210303729335
    ],
    "W": [
      [
        -0.07905138339920949,
        -0.007905138339920948
      ],
      180.28064590542098
    ],
    "X": [
      [
        -0.05533596837944664,
        0.0
      ],
      81.16795078815841
    ],
    "Y": [
      [
        -0.07114624505928854,
        -0.007905138339920948
      ],
      48.87864667435601
    ],
    "Z": [
      [
        -0.04743083003952569,
        0.0
      ],
      66.77376393694733
    ]
  }
}