{
  "base_font": "ComputerModernSerif-Italic",
  "overlay_font": "ComputerModernSerif-BoldItalic",
  "font_scale": 1.00390625,
  "average_remainder": 0.002857194531248961,
  "offsets": {
    "a": [
      [
        -0.038910505836575876,
        0.007782101167315175
      ],
      0.003027223758761935
    ],
    "b": [
      [
        -0.038910505836575876,
        0.007782101167315175
      ],
      0.0014085740246298668
    ],
    "c": [
      [
        -0.0311284046692607,
        0.0
      ],
      0.0009233978413945128
    ],
    "d": [
      [
        -0.038910505836575876,
        0.007782101167315175
      ],
      0.0035456589094692084
    ],
    "e": [
      [
        -0.038910505836575876,
        0.0
      ],
      0.0014721827777179125
    ],
    "f": [
      [
        -0.04669260700389105,
        0.0
      ],
      0.0006551704228743536
    ],
    "g": [
      [
        -0.038910505836575876,
        0.007782101167315175
      ],
      0.0012953303826449504
    ],
    "h": [
      [
        -0.038910505836575876,
        0.007782101167315175
      ],
      0.0032009142078705424
    ],
    "i": [
      [
        -0.023346303501945526,
        0.007782101167315175
      ],
      0.000977354198345326
    ],
    "j": [
      [
        -0.023346303501945526,
        0.007782101167315175
      ],
      0.00021226384847988997
    ],
    "k": [
      [
        -0.0311284046692607,
        0.0
      ],
      0.002568364310240006
    ],
    "l": [
      [
        -0.0311284046692607,
        0.0
      ],
      6.902641917069428e-05
    ],
    "m": [
      [
        -0.08560311284046693,
        0.007782101167315175
      ],
      0.015092038861816523
    ],
    "n": [
      [
        -0.04669260700389105,
        0.007782101167315175
      ],
      0.0049440856524440285
    ],
    "o": [
      [
        -0.04669260700389105,
        0.007782101167315175
      ],
      0.002084305078297008
    ],
    "p": [
      [
        -0.038910505836575876,
        0.007782101167315175
      ],
      0.0033271728068389986
    ],
    "q": [
      [
        -0.038910505836575876,
        0.007782101167315175
      ],
      0.0015559216644117446
    ],
    "r": [
      [
        -0.023346303501945526,
        0.007782101167315175
      ],
      0.00133251969897125
    ],
    "s": [
      [
        -0.04669260700389105,
        0.007782101167315175
      ],
      0.0011190947319968765
    ],
    "t": [
      [
        -0.038910505836575876,
        0.007782101167315175
      ],
      0.00012561897274005604
    ],
    "u": [
      [
        -0.04669260700389105,
        0.007782101167315175
      ],
      0.004128651609907821
    ],
    "v": [
      [
        -0.038910505836575876,
        0.007782101167315175
      ],
      0.0017024907907392552
    ],
    "w": [
      [
        -0.04669260700389105,
        0.007782101167315175
      ],
      0.006978919739413507
    ],
    "x": [
      [
        -0.038910505836575876,
        0.007782101167315175
      ],
      0.0048102286983047506
    ],
    "y": [
      [
        -0.038910505836575876,
        0.0
      ],
      0.0023175025841804253
    ],
    "z": [
      [
        -0.038910505836575876,
        0.007782101167315175
      ],
      0.0013102024906577053
    ],
    "A": [
      [
        -0.054474708171206226,
        0.0
      ],
      0.0023662301829613045
    ],
    "B": [
      [
        -0.0622568093385214,
        0.0
      ],
      0.0002896027479449613
    ],
    "C": [
      [
        -0.0622568093385214,
        0.0
      ],
      0.0031384676375469105
    ],
    "D": [
      [
        -0.07003891050583658,
        0.0
      ],
      0.0008739545210851828
    ],
    "E": [
      [
        -0.04669260700389105,
        0.0
      ],
      2.7399097233031217e-05
    ],
    "F": [
      [
        -0.04669260700389105,
        0.007782101167315175
      ],
      1.923933967372145e-05
    ],
    "G": [
      [
        -0.0622568093385214,
        0.0
      ],
      0.0024434802158871554
    ],
    "H": [
      [
        -0.07782101167315175,
        0.0
      ],
      0.004944123434026573
    ],
    "I": [
      [
        -0.0622568093385214,
        0.0
      ],
      0.0005461700251034671
    ],
    "J": [
      [
        -0.01556420233463035,
        0.0
      ],
      9.955127719043381e-05
    ],
    "K": [
      [
        -0.07003891050583658,
        0.0
      ],
      0.0014201985129488393
    ],
    "L": [
      [
        -0.04669260700389105,
        0.0
      ],
      0.0003077113008172263
    ],
    "M": [
      [
        -0.10116731517509728,
        0.0
      ],
      0.022248475100739802
    ],
    "N": [
      [
        -0.11673151750972763,
        -0.007782101167315175
      ],
      0.01408574503551336
    ],
    "O": [
      [
        -0.04669260700389105,
        0.0
      ],
      0.00012059561866676245
    ],
    "P": [
      [
        -0.0622568093385214,
        0.0
      ],
      0.0002672615935579741
    ],
    "Q": [
      [
        -0.054474708171206226,
        0.0
      ],
      0.0011670922416052384
    ],
    "R": [
      [
        -0.0622568093385214,
        0.0
      ],
      0.0025940009764676615
    ],
    "S": [
      [
        -0.04669260700389105,
        0.0
      ],
      0.0016500925249671075
    ],
    "T": [
      [
        -0.038910505836575876,
        0.0
      ],
      0.0009869688129000157
    ],
    "U": [
      [
        -0.07782101167315175,
        -0.007782101167315175
      ],
      0.0077345471331893905
    ],
    "V": [
      [
        -0.07782101167315175,
        0.0
      ],
      0.0005691215382957579
    ],
    "W": [
      [
        -0.0933852140077821,
        0.0
      ],
      0.00787043152154681
    ],
    "X": [
      [
        -0.0622568093385214,
        0.0
      ],
      0.0010817308754019284
    ],
    "Y": [
      [
        -0.07782101167315175,
        0.0
      ],
      0.0007155209135693086
    ],
    "Z": [
      [
        -0.054474708171206226,
        0.0
      ],
      0.0008221889637868853
    ]
  }
}