{
  "base_font": "Corbel",
  "overlay_font": "Vegur-Bold",
  "font_scale": 1.038628472222222,
  "average_remainder": 0.0003190850614672168,
  "offsets": {
    "a": [
      [
        0.0,
        0.022565816966151276
      ],
      0.00020603786938481203
    ],
    "b": [
      [
        -0.03760969494358546,
        0.015043877977434185
      ],
      0.00031910218188639183
    ],
    "c": [
      [
        -0.007521938988717092,
        0.015043877977434185
      ],
      0.0
    ],
    "d": [
      [
        -0.015043877977434185,
        0.03008775595486837
      ],
      0.00021469251246193573
    ],
    "e": [
      [
        0.007521938988717092,
        0.022565816966151276
      ],
      4.257079723130192e-09
    ],
    "f": [
      [
        -0.03760969494358546,
        0.015043877977434185
      ],
      0.0
    ],
    "g": [
      [
        -0.022565816966151276,
        0.022565816966151276
      ],
      0.00023463373815500824
    ],
    "h": [
      [
        -0.015043877977434185,
        0.0
      ],
      0.0
    ],
    "i": [
      [
        -0.007521938988717092,
        0.0
      ],
      0.0
    ],
    "j": [
      [
        0.0,
        0.04513163393230255
      ],
      0.0021627673146740202
    ],
    "k": [
      [
        -0.007521938988717092,
        0.007521938988717092
      ],
      1.9227632704482838e-05
    ],
    "l": [
      [
        -0.007521938988717092,
        0.0
      ],
      0.0
    ],
    "m": [
      [
        -0.03760969494358546,
        0.0
      ],
      1.2451958190155764e-07
    ],
    "n": [
      [
        -0.03760969494358546,
        0.0
      ],
      4.922248429869265e-07
    ],
    "o": [
      [
        -0.015043877977434185,
        0.015043877977434185
      ],
      0.0
    ],
    "p": [
      [
        -0.04513163393230255,
        0.022565816966151276
      ],
      0.0002203629426531451
    ],
    "q": [
      [
        -0.022565816966151276,
        0.03008775595486837
      ],
      0.000274877509182654
    ],
    "r": [
      [
        -0.015043877977434185,
        0.0
      ],
      7.540352459594327e-07
    ],
    "s": [
      [
        -0.007521938988717092,
        0.022565816966151276
      ],
      4.4294914519169506e-06
    ],
    "t": [
      [
        -0.022565816966151276,
        0.015043877977434185
      ],
      0.0
    ],
    "u": [
      [
        0.007521938988717092,
        0.04513163393230255
      ],
      0.00018399524271340943
    ],
    "v": [
      [
        -0.03760969494358546,
        0.0
      ],
      0.0
    ],
    "w": [
      [
        -0.022565816966151276,
        0.0
      ],
      0.0001251602723998888
    ],
    "x": [
      [
        -0.007521938988717092,
        0.022565816966151276
      ],
      5.321349653912717e-09
    ],
    "y": [
      [
        -0.03008775595486837,
        0.04513163393230255
      ],
      0.0003146375695267591
    ],
    "z": [
      [
        0.0,
        0.0
      ],
      0.0002768166089965398
    ],
    "A": [
      [
        -0.007521938988717092,
        0.04513163393230255
      ],
      2.5382837849163686e-07
    ],
    "B": [
      [
        0.03008775595486837,
        0.022565816966151276
      ],
      0.00013982484777614148
    ],
    "C": [
      [
        -0.015043877977434185,
        0.03008775595486837
      ],
      0.0
    ],
    "D": [
      [
        -0.022565816966151276,
        0.03008775595486837
      ],
      2.8290423300061597e-05
    ],
    "E": [
      [
        0.03008775595486837,
        0.015043877977434185
      ],
      0.0
    ],
    "F": [
      [
        0.007521938988717092,
        0.007521938988717092
      ],
      0.0
    ],
    "G": [
      [
        -0.015043877977434185,
        0.03008775595486837
      ],
      6.699579214276116e-07
    ],
    "H": [
      [
        -0.022565816966151276,
        0.0
      ],
      0.0
    ],
    "I": [
      [
        -0.007521938988717092,
        0.0
      ],
      0.0
    ],
    "J": [
      [
        0.07521938988717092,
        -0.15796071876305895
      ],
      0.00022491588941703282
    ],
    "K": [
      [
        -0.015043877977434185,
        0.007521938988717092
      ],
      3.0544547013459036e-07
    ],
    "L": [
      [
        0.0,
        0.0
      ],
      0.0
    ],
    "M": [
      [
        -0.022565816966151276,
        0.015043877977434185
      ],
      0.00027554480642925466
    ],
    "N": [
      [
        -0.015043877977434185,
        0.007521938988717092
      ],
      0.000931007371399608
    ],
    "O": [
      [
        -0.022565816966151276,
        0.03760969494358546
      ],
      1.1547328748990607e-07
    ],
    "P": [
      [
        0.022565816966151276,
        0.03008775595486837
      ],
      0.0
    ],
    "Q": [
      [
        -0.007521938988717092,
        0.03760969494358546
      ],
      0.0034210084223661647
    ],
    "R": [
      [
        0.015043877977434185,
        0.052653572921019645
      ],
      0.001370288510274861
    ],
    "S": [
      [
        0.007521938988717092,
        0.03008775595486837
      ],
      0.0005933634787791228
    ],
    "T": [
      [
        0.0,
        0.015043877977434185
      ],
      0.0
    ],
    "U": [
      [
        0.0,
        0.015043877977434185
      ],
      0.0
    ],
    "V": [
      [
        -0.015043877977434185,
        0.0
      ],
      3.267308687502412e-07
    ],
    "W": [
      [
        -0.03760969494358546,
        0.0
      ],
      0.005044536769860939
    ],
    "X": [
      [
        -0.007521938988717092,
        0.022565816966151276
      ],
      3.849996474605856e-06
    ],
    "Y": [
      [
        -0.007521938988717092,
        0.03760969494358546
      ],
      0.0
    ],
    "Z": [
      [
        -0.007521938988717092,
        0.015043877977434185
      ],
      0.0
    ]
  }
}