{
  "base_font": "Corbel",
  "overlay_font": "Vegur-Bold",
  "overlay_font_path": "fonts/Vegur-Bold.ttf",
  "font_scale": 1.038628472222222,
  "total_overlap": 479.52103037293364,
  "offsets": {
    "a": [
      [
        0.0,
        0.022565816966151276
      ],
      5.9544944252210685
    ],
    "b": [
      [
        -0.03760969494358546,
        0.015043877977434185
      ],
      9.222053056516726
    ],
    "c": [
      [
        -0.007521938988717092,
        0.015043877977434185
      ],
      0.0
    ],
    "d": [
      [
        -0.015043877977434185,
        0.03008775595486837
      ],
      6.204613610149943
    ],
    "e": [
      [
        0.007521938988717092,
        0.022565816966151276
      ],
      0.00012302960399846255
    ],
    "f": [
      [
        -0.007521938988717092,
        0.015043877977434185
      ],
      0.0
    ],
    "g": [
      [
        -0.022565816966151276,
        0.022565816966151276
      ],
      6.780915032679738
    ],
    "h": [
      [
        -0.015043877977434185,
        0.0
      ],
      0.0
    ],
    "i": [
      [
        0.0,
        0.0
      ],
      0.0
    ],
    "j": [
      [
        0.0,
        0.04513163393230255
      ],
      62.503975394079205
    ],
    "k": [
      [
        -0.007521938988717092,
        0.007521938988717092
      ],
      0.555678585159554
    ],
    "l": [
      [
        0.0,
        0.0
      ],
      0.0
    ],
    "m": [
      [
        -0.03760969494358546,
        0.0
      ],
      0.0035986159169550157
    ],
    "n": [
      [
        -0.03760969494358546,
        0.0
      ],
      0.014225297962322175
    ],
    "o": [
      [
        -0.015043877977434185,
        0.015043877977434185
      ],
      0.0
    ],
    "p": [
      [
        -0.04513163393230255,
        0.022565816966151276
      ],
      6.368489042675893
    ],
    "q": [
      [
        -0.022565816966151276,
        0.03008775595486837
      ],
      7.943960015378701
    ],
    "r": [
      [
        -0.015043877977434185,
        0.0
      ],
      0.021791618608227606
    ],
    "s": [
      [
        -0.007521938988717092,
        0.022565816966151276
      ],
      0.1280123029603999
    ],
    "t": [
      [
        -0.015043877977434185,
        0.022565816966151276
      ],
      0.0
    ],
    "u": [
      [
        0.007521938988717092,
        0.04513163393230255
      ],
      5.3174625144175325
    ],
    "v": [
      [
        -0.03008775595486837,
        0.0
      ],
      0.0
    ],
    "w": [
      [
        -0.022565816966151276,
        0.0
      ],
      3.617131872356786
    ],
    "x": [
      [
        -0.007521938988717092,
        0.022565816966151276
      ],
      0.00015378700499807754
    ],
    "y": [
      [
        -0.03008775595486837,
        0.04513163393230255
      ],
      9.093025759323337
    ],
    "z": [
      [
        0.0,
        0.0
      ],
      8.0
    ],
    "A": [
      [
        -0.007521938988717092,
        0.04513163393230255
      ],
      0.007335640138408306
    ],
    "B": [
      [
        0.03008775595486837,
        0.022565816966151276
      ],
      4.0409381007304885
    ],
    "C": [
      [
        0.0,
        0.03760969494358546
      ],
      0.0
    ],
    "D": [
      [
        -0.022565816966151276,
        0.03008775595486837
      ],
      0.8175932333717801
    ],
    "E": [
      [
        0.015043877977434185,
        0.015043877977434185
      ],
      0.0
    ],
    "F": [
      [
        0.007521938988717092,
        0.007521938988717092
      ],
      0.0
    ],
    "G": [
      [
        -0.015043877977434185,
        0.03008775595486837
      ],
      0.019361783929257977
    ],
    "H": [
      [
        -0.015043877977434185,
        0.015043877977434185
      ],
      0.0
    ],
    "I": [
      [
        0.0,
        0.0
      ],
      0.0
    ],
    "J": [
      [
        0.07521938988717092,
        -0.15796071876305895
      ],
      6.50006920415225
    ],
    "K": [
      [
        -0.015043877977434185,
        0.007521938988717092
      ],
      0.008827374086889661
    ],
    "L": [
      [
        0.0,
        0.0
      ],
      0.0
    ],
    "M": [
      [
        -0.022565816966151276,
        0.015043877977434185
      ],
      7.96324490580546
    ],
    "N": [
      [
        -0.015043877977434185,
        0.007521938988717092
      ],
      26.906113033448676
    ],
    "O": [
      [
        -0.022565816966151276,
        0.03760969494358546
      ],
      0.0033371780084582854
    ],
    "P": [
      [
        0.022565816966151276,
        0.03008775595486837
      ],
      0.0
    ],
    "Q": [
      [
        -0.007521938988717092,
        0.03760969494358546
      ],
      98.86714340638216
    ],
    "R": [
      [
        0.015043877977434185,
        0.052653572921019645
      ],
      39.60133794694348
    ],
    "S": [
      [
        0.007521938988717092,
        0.03008775595486837
      ],
      17.148204536716648
    ],
    "T": [
      [
        0.007521938988717092,
        0.015043877977434185
      ],
      0.0
    ],
    "U": [
      [
        0.0,
        0.015043877977434185
      ],
      0.0
    ],
    "V": [
      [
        -0.015043877977434185,
        0.0
      ],
      0.00944252210688197
    ],
    "W": [
      [
        -0.03760969494358546,
        0.0
      ],
      145.78711264898115
    ],
    "X": [
      [
        -0.007521938988717092,
        0.022565816966151276
      ],
      0.11126489811610922
    ],
    "Y": [
      [
        -0.007521938988717092,
        0.03760969494358546
      ],
      0.0
    ],
    "Z": [
      [
        -0.007521938988717092,
        0.015043877977434185
      ],
      0.0
    ]
  }
}