{
  "base_font": "LinBiolinum-Italic",
  "overlay_font": "LinBiolinum-BoldItalic",
  "font_scale": 1.01953125,
  "average_remainder": 0.002127651789708039,
  "offsets": {
    "a": [
      [
        -0.038314176245210725,
        0.0
      ],
      0.007950585414978803
    ],
    "b": [
      [
        -0.06130268199233716,
        0.0
      ],
      0.0006773290549682116
    ],
    "c": [
      [
        -0.05363984674329502,
        0.0
      ],
      0.0005635596636374883
    ],
    "d": [
      [
        -0.04597701149425287,
        0.0
      ],
      0.000410243598083782
    ],
    "e": [
      [
        -0.04597701149425287,
        0.01532567049808429
      ],
      0.0017827825071272828
    ],
    "f": [
      [
        -0.04597701149425287,
        0.007662835249042145
      ],
      0.01041038567811954
    ],
    "g": [
      [
        -0.038314176245210725,
        0.0
      ],
      0.005057655493162731
    ],
    "h": [
      [
        -0.06130268199233716,
        0.0
      ],
      0.0006079854833581441
    ],
    "i": [
      [
        -0.04597701149425287,
        0.007662835249042145
      ],
      2.0405779517859115e-05
    ],
    "j": [
      [
        -0.038314176245210725,
        -0.007662835249042145
      ],
      0.00011085275958541364
    ],
    "k": [
      [
        -0.06130268199233716,
        0.0
      ],
      0.003535766520462585
    ],
    "l": [
      [
        -0.01532567049808429,
        0.0
      ],
      0.0013730279410766955
    ],
    "m": [
      [
        -0.07662835249042145,
        0.0
      ],
      0.0064705419395521295
    ],
    "n": [
      [
        -0.05363984674329502,
        0.0
      ],
      0.0005065195845622325
    ],
    "o": [
      [
        -0.04597701149425287,
        0.007662835249042145
      ],
      5.4359715254580016e-05
    ],
    "p": [
      [
        -0.05363984674329502,
        0.0
      ],
      0.0008021897353825851
    ],
    "q": [
      [
        -0.06130268199233716,
        0.007662835249042145
      ],
      0.0007038112836558737
    ],
    "r": [
      [
        -0.06130268199233716,
        0.0
      ],
      0.00042924560556293896
    ],
    "s": [
      [
        -0.038314176245210725,
        0.0
      ],
      0.0001294700334845927
    ],
    "t": [
      [
        -0.04597701149425287,
        0.0
      ],
      5.919895062984824e-05
    ],
    "u": [
      [
        -0.038314176245210725,
        0.0
      ],
      0.000939533237815107
    ],
    "v": [
      [
        -0.07662835249042145,
        -0.03065134099616858
      ],
      0.0021639124691195427
    ],
    "w": [
      [
        -0.07662835249042145,
        -0.007662835249042145
      ],
      0.012431301242934244
    ],
    "x": [
      [
        -0.038314176245210725,
        0.0
      ],
      0.001009480250475928
    ],
    "y": [
      [
        -0.05363984674329502,
        -0.007662835249042145
      ],
      5.506905116344659e-05
    ],
    "z": [
      [
        -0.022988505747126436,
        0.0
      ],
      3.1728015176489214e-05
    ],
    "A": [
      [
        -0.022988505747126436,
        0.01532567049808429
      ],
      6.508010626735258e-05
    ],
    "B": [
      [
        -0.06130268199233716,
        0.007662835249042145
      ],
      0.00038198297434178233
    ],
    "C": [
      [
        -0.05363984674329502,
        0.01532567049808429
      ],
      0.0007016678440152776
    ],
    "D": [
      [
        -0.06130268199233716,
        0.01532567049808429
      ],
      0.0006465232296867456
    ],
    "E": [
      [
        -0.05363984674329502,
        0.01532567049808429
      ],
      4.202269821694877e-06
    ],
    "F": [
      [
        -0.05363984674329502,
        0.01532567049808429
      ],
      4.257611858095568e-06
    ],
    "G": [
      [
        -0.05363984674329502,
        0.01532567049808429
      ],
      0.0014778521436391912
    ],
    "H": [
      [
        -0.06130268199233716,
        0.007662835249042145
      ],
      0.0008256882833192982
    ],
    "I": [
      [
        -0.05363984674329502,
        0.007662835249042145
      ],
      3.974516056507413e-06
    ],
    "J": [
      [
        -0.022988505747126436,
        -0.01532567049808429
      ],
      3.405663778504144e-07
    ],
    "K": [
      [
        -0.06130268199233716,
        0.007662835249042145
      ],
      0.0004302172840097434
    ],
    "L": [
      [
        -0.038314176245210725,
        0.007662835249042145
      ],
      0.0
    ],
    "M": [
      [
        -0.07662835249042145,
        0.022988505747126436
      ],
      0.016370014726835167
    ],
    "N": [
      [
        -0.06130268199233716,
        0.01532567049808429
      ],
      0.0149025285723218
    ],
    "O": [
      [
        -0.06130268199233716,
        0.007662835249042145
      ],
      0.0004634012204515431
    ],
    "P": [
      [
        -0.04597701149425287,
        0.01532567049808429
      ],
      0.000645174799684444
    ],
    "Q": [
      [
        -0.06130268199233716,
        0.007662835249042145
      ],
      0.0017879543268559206
    ],
    "R": [
      [
        -0.06130268199233716,
        0.01532567049808429
      ],
      0.0016736927106822104
    ],
    "S": [
      [
        -0.038314176245210725,
        0.007662835249042145
      ],
      0.0003178303793191067
    ],
    "T": [
      [
        -0.06130268199233716,
        0.007662835249042145
      ],
      1.7379527969678946e-06
    ],
    "U": [
      [
        -0.05363984674329502,
        0.007662835249042145
      ],
      3.273694307087107e-05
    ],
    "V": [
      [
        -0.05363984674329502,
        0.007662835249042145
      ],
      0.0004097896869583033
    ],
    "W": [
      [
        -0.07662835249042145,
        -0.01532567049808429
      ],
      0.010457338074655875
    ],
    "X": [
      [
        -0.04597701149425287,
        0.007662835249042145
      ],
      2.7727424506677634e-05
    ],
    "Y": [
      [
        -0.06130268199233716,
        0.007662835249042145
      ],
      1.6939452353300368e-05
    ],
    "Z": [
      [
        -0.03065134099616858,
        0.007662835249042145
      ],
      0.0007022989560842315
    ]
  }
}