{
  "base_font": "LinBiolinum-Italic",
  "overlay_font": "LinBiolinum-BoldItalic",
  "overlay_font_path": "fonts/LinBiolinum-BoldItalic.ttf",
  "font_scale": 1.01953125,
  "total_overlap": 3185.1744405997692,
  "offsets": {
    "a": [
      [
        -0.038314176245210725,
        0.0
      ],
      229.77191849288735
    ],
    "b": [
      [
        -0.06130268199233716,
        0.0
      ],
      19.574809688581315
    ],
    "c": [
      [
        -0.05363984674329502,
        0.0
      ],
      16.286874279123413
    ],
    "d": [
      [
        -0.04597701149425287,
        0.0
      ],
      11.8560399846213
    ],
    "e": [
      [
        -0.04597701149425287,
        0.01532567049808429
      ],
      51.52241445597848
    ],
    "f": [
      [
        -0.04597701149425287,
        0.007662835249042145
      ],
      300.8601460976547
    ],
    "g": [
      [
        -0.038314176245210725,
        0.0
      ],
      146.16624375240292
    ],
    "h": [
      [
        -0.06130268199233716,
        0.0
      ],
      17.570780469050362
    ],
    "i": [
      [
        -0.04597701149425287,
        0.007662835249042145
      ],
      0.5897270280661284
    ],
    "j": [
      [
        -0.038314176245210725,
        -0.007662835249042145
      ],
      3.2036447520184543
    ],
    "k": [
      [
        -0.06130268199233716,
        0.0
      ],
      102.18365244136871
    ],
    "l": [
      [
        -0.01532567049808429,
        0.0
      ],
      39.680507497116494
    ],
    "m": [
      [
        -0.07662835249042145,
        0.0
      ],
      186.9986620530565
    ],
    "n": [
      [
        -0.05363984674329502,
        0.0
      ],
      14.63841599384852
    ],
    "o": [
      [
        -0.04597701149425287,
        0.007662835249042145
      ],
      1.5709957708573623
    ],
    "p": [
      [
        -0.05363984674329502,
        0.0
      ],
      23.18328335255671
    ],
    "q": [
      [
        -0.06130268199233716,
        0.007662835249042145
      ],
      20.34014609765475
    ],
    "r": [
      [
        -0.06130268199233716,
        0.0
      ],
      12.405198000768936
    ],
    "s": [
      [
        -0.038314176245210725,
        0.0
      ],
      3.741683967704729
    ],
    "t": [
      [
        -0.04597701149425287,
        0.0
      ],
      1.7108496732026142
    ],
    "u": [
      [
        -0.038314176245210725,
        0.0
      ],
      27.152510572856595
    ],
    "v": [
      [
        -0.07662835249042145,
        -0.03065134099616858
      ],
      62.53707035755478
    ],
    "w": [
      [
        -0.07662835249042145,
        -0.007662835249042145
      ],
      359.26460592079974
    ],
    "x": [
      [
        -0.038314176245210725,
        0.0
      ],
      29.173979238754324
    ],
    "y": [
      [
        -0.05363984674329502,
        -0.007662835249042145
      ],
      1.5914955786236065
    ],
    "z": [
      [
        -0.022988505747126436,
        0.0
      ],
      0.9169396386005383
    ],
    "A": [
      [
        -0.022988505747126436,
        0.01532567049808429
      ],
      1.8808150711264895
    ],
    "B": [
      [
        -0.06130268199233716,
        0.007662835249042145
      ],
      11.039307958477508
    ],
    "C": [
      [
        -0.05363984674329502,
        0.01532567049808429
      ],
      20.278200692041523
    ],
    "D": [
      [
        -0.06130268199233716,
        0.01532567049808429
      ],
      18.684521337946943
    ],
    "E": [
      [
        -0.05363984674329502,
        0.01532567049808429
      ],
      0.12144559784698196
    ],
    "F": [
      [
        -0.05363984674329502,
        0.01532567049808429
      ],
      0.12304498269896191
    ],
    "G": [
      [
        -0.05363984674329502,
        0.01532567049808429
      ],
      42.709926951172626
    ],
    "H": [
      [
        -0.06130268199233716,
        0.007662835249042145
      ],
      23.86239138792772
    ],
    "I": [
      [
        -0.05363984674329502,
        0.007662835249042145
      ],
      0.11486351403306423
    ],
    "J": [
      [
        -0.022988505747126436,
        -0.01532567049808429
      ],
      0.009842368319876976
    ],
    "K": [
      [
        -0.06130268199233716,
        0.007662835249042145
      ],
      12.433279507881585
    ],
    "L": [
      [
        -0.01532567049808429,
        0.007662835249042145
      ],
      0.0
    ],
    "M": [
      [
        -0.07662835249042145,
        0.022988505747126436
      ],
      473.09342560553625
    ],
    "N": [
      [
        -0.022988505747126436,
        0.022988505747126436
      ],
      418.42240676662817
    ],
    "O": [
      [
        -0.06130268199233716,
        0.007662835249042145
      ],
      13.392295271049596
    ],
    "P": [
      [
        -0.04597701149425287,
        0.01532567049808429
      ],
      18.64555171088043
    ],
    "Q": [
      [
        -0.06130268199233716,
        0.007662835249042145
      ],
      51.6718800461361
    ],
    "R": [
      [
        -0.06130268199233716,
        0.01532567049808429
      ],
      48.36971933871587
    ],
    "S": [
      [
        -0.038314176245210725,
        0.007662835249042145
      ],
      9.185297962322183
    ],
    "T": [
      [
        -0.06130268199233716,
        0.007662835249042145
      ],
      0.050226835832372155
    ],
    "U": [
      [
        -0.05363984674329502,
        0.007662835249042145
      ],
      0.9460976547481739
    ],
    "V": [
      [
        -0.05363984674329502,
        0.007662835249042145
      ],
      11.842921953094965
    ],
    "W": [
      [
        -0.07662835249042145,
        -0.01532567049808429
      ],
      302.2170703575548
    ],
    "X": [
      [
        -0.04597701149425287,
        0.007662835249042145
      ],
      0.8013225682429838
    ],
    "Y": [
      [
        -0.06130268199233716,
        0.007662835249042145
      ],
      0.4895501730103807
    ],
    "Z": [
      [
        -0.03065134099616858,
        0.007662835249042145
      ],
      20.29643983083429
    ]
  }
}