{
  "base_font": "MinionPro",
  "overlay_font": "Mignon-Bold",
  "font_scale": 1.0316840277777777,
  "average_remainder": 0.0003793988450829245,
  "offsets": {
    "a": [
      [
        -0.022717711400925537,
        0.01514514093395036
      ],
      0.0003742968169016708
    ],
    "b": [
      [
        -0.022717711400925537,
        0.0
      ],
      0.00023942082430366816
    ],
    "c": [
      [
        -0.01514514093395036,
        0.00757257046697518
      ],
      0.00017573278310577912
    ],
    "d": [
      [
        -0.01514514093395036,
        0.00757257046697518
      ],
      0.00035935925628817234
    ],
    "e": [
      [
        -0.01514514093395036,
        0.00757257046697518
      ],
      9.912822989294774e-05
    ],
    "f": [
      [
        -0.01514514093395036,
        0.00757257046697518
      ],
      0.00011402321970921484
    ],
    "g": [
      [
        -0.022717711400925537,
        0.0
      ],
      0.001014577039174446
    ],
    "h": [
      [
        -0.03029028186790072,
        0.0
      ],
      8.146986320140378e-05
    ],
    "i": [
      [
        -0.022717711400925537,
        0.0
      ],
      2.5938918887997567e-05
    ],
    "j": [
      [
        -0.01514514093395036,
        0.00757257046697518
      ],
      0.0002382160707420223
    ],
    "k": [
      [
        -0.03029028186790072,
        0.00757257046697518
      ],
      0.00035994779755989514
    ],
    "l": [
      [
        -0.03029028186790072,
        0.0
      ],
      8.684442635185561e-07
    ],
    "m": [
      [
        -0.0378628523348759,
        0.00757257046697518
      ],
      0.0002188905252039075
    ],
    "n": [
      [
        -0.022717711400925537,
        0.00757257046697518
      ],
      0.00014752218005052625
    ],
    "o": [
      [
        -0.01514514093395036,
        0.00757257046697518
      ],
      0.0001658015482466818
    ],
    "p": [
      [
        -0.0378628523348759,
        0.00757257046697518
      ],
      9.258137341373891e-05
    ],
    "q": [
      [
        -0.01514514093395036,
        0.01514514093395036
      ],
      0.0004933519048436255
    ],
    "r": [
      [
        -0.0378628523348759,
        -0.00757257046697518
      ],
      2.1169925328160978e-05
    ],
    "s": [
      [
        -0.01514514093395036,
        0.00757257046697518
      ],
      0.0005171213094777228
    ],
    "t": [
      [
        -0.022717711400925537,
        0.00757257046697518
      ],
      1.4255895722832184e-06
    ],
    "u": [
      [
        -0.01514514093395036,
        0.00757257046697518
      ],
      6.570962193141047e-05
    ],
    "v": [
      [
        -0.022717711400925537,
        0.01514514093395036
      ],
      9.884885903611735e-05
    ],
    "w": [
      [
        -0.022717711400925537,
        0.00757257046697518
      ],
      0.0004857194930350185
    ],
    "x": [
      [
        -0.01514514093395036,
        0.00757257046697518
      ],
      0.0007355036457896816
    ],
    "y": [
      [
        -0.01514514093395036,
        0.01514514093395036
      ],
      0.00011395670283854095
    ],
    "z": [
      [
        -0.00757257046697518,
        0.00757257046697518
      ],
      0.0011379344383115888
    ],
    "A": [
      [
        0.0,
        0.0
      ],
      0.0013518654656380499
    ],
    "B": [
      [
        -0.03029028186790072,
        0.00757257046697518
      ],
      0.0001946049496533806
    ],
    "C": [
      [
        -0.03029028186790072,
        0.00757257046697518
      ],
      1.620297756119885e-05
    ],
    "D": [
      [
        -0.0378628523348759,
        0.00757257046697518
      ],
      0.00022599771980167331
    ],
    "E": [
      [
        -0.0378628523348759,
        0.00757257046697518
      ],
      0.0001890994813014425
    ],
    "F": [
      [
        -0.0378628523348759,
        0.01514514093395036
      ],
      6.29462450561336e-05
    ],
    "G": [
      [
        -0.022717711400925537,
        0.00757257046697518
      ],
      0.00033604589131941534
    ],
    "H": [
      [
        -0.022717711400925537,
        0.0
      ],
      2.801158457819657e-05
    ],
    "I": [
      [
        -0.022717711400925537,
        0.00757257046697518
      ],
      1.163779169310713e-06
    ],
    "J": [
      [
        -0.01514514093395036,
        0.01514514093395036
      ],
      2.2136814560276908e-07
    ],
    "K": [
      [
        -0.045435422801851075,
        0.00757257046697518
      ],
      0.0003782708008232128
    ],
    "L": [
      [
        -0.0378628523348759,
        0.00757257046697518
      ],
      0.00014470825035353717
    ],
    "M": [
      [
        0.0,
        0.00757257046697518
      ],
      0.0017327564990308492
    ],
    "N": [
      [
        -0.00757257046697518,
        0.00757257046697518
      ],
      0.002018111213547092
    ],
    "O": [
      [
        -0.022717711400925537,
        0.00757257046697518
      ],
      0.00017539115245799792
    ],
    "P": [
      [
        -0.03029028186790072,
        0.00757257046697518
      ],
      0.00015216292908370348
    ],
    "Q": [
      [
        -0.022717711400925537,
        0.00757257046697518
      ],
      0.0003306585569297941
    ],
    "R": [
      [
        -0.0378628523348759,
        0.00757257046697518
      ],
      0.0002056962387370309
    ],
    "S": [
      [
        -0.01514514093395036,
        0.00757257046697518
      ],
      0.0011518955312635945
    ],
    "T": [
      [
        -0.022717711400925537,
        0.00757257046697518
      ],
      0.0008194766718682859
    ],
    "U": [
      [
        -0.03029028186790072,
        0.00757257046697518
      ],
      6.21107931604693e-05
    ],
    "V": [
      [
        -0.03029028186790072,
        0.00757257046697518
      ],
      0.00011010617422896969
    ],
    "W": [
      [
        -0.03029028186790072,
        0.00757257046697518
      ],
      0.00038267953901147947
    ],
    "X": [
      [
        -0.03029028186790072,
        0.00757257046697518
      ],
      0.0016683314509058935
    ],
    "Y": [
      [
        -0.0378628523348759,
        0.00757257046697518
      ],
      9.416713561060492e-05
    ],
    "Z": [
      [
        -0.01514514093395036,
        0.00757257046697518
      ],
      0.0005175411639654165
    ]
  }
}