{
  "base_font": "MinionPro",
  "overlay_font": "Mignon-Bold",
  "overlay_font_path": "fonts/Mignon-Bold.ttf",
  "font_scale": 1.0316840277777777,
  "total_overlap": 570.1605843906189,
  "offsets": {
    "a": [
      [
        -0.022717711400925537,
        0.01514514093395036
      ],
      10.817178008458285
    ],
    "b": [
      [
        -0.022717711400925537,
        0.0
      ],
      6.91926182237601
    ],
    "c": [
      [
        -0.01514514093395036,
        0.00757257046697518
      ],
      5.078677431757017
    ],
    "d": [
      [
        -0.01514514093395036,
        0.00757257046697518
      ],
      10.38548250672818
    ],
    "e": [
      [
        -0.01514514093395036,
        0.00757257046697518
      ],
      2.86480584390619
    ],
    "f": [
      [
        -0.01514514093395036,
        0.00757257046697518
      ],
      3.295271049596309
    ],
    "g": [
      [
        -0.022717711400925537,
        0.0
      ],
      29.321276432141488
    ],
    "h": [
      [
        -0.03029028186790072,
        0.0
      ],
      2.354479046520569
    ],
    "i": [
      [
        -0.022717711400925537,
        0.0
      ],
      0.7496347558631297
    ],
    "j": [
      [
        -0.01514514093395036,
        0.00757257046697518
      ],
      6.884444444444446
    ],
    "k": [
      [
        -0.03029028186790072,
        0.00757257046697518
      ],
      10.40249134948097
    ],
    "l": [
      [
        -0.03029028186790072,
        0.0
      ],
      0.02509803921568627
    ],
    "m": [
      [
        -0.0378628523348759,
        0.00757257046697518
      ],
      6.325936178392926
    ],
    "n": [
      [
        -0.022717711400925537,
        0.00757257046697518
      ],
      4.263391003460208
    ],
    "o": [
      [
        -0.01514514093395036,
        0.00757257046697518
      ],
      4.791664744329104
    ],
    "p": [
      [
        -0.0378628523348759,
        0.00757257046697518
      ],
      2.6756016916570546
    ],
    "q": [
      [
        -0.01514514093395036,
        0.01514514093395036
      ],
      14.257870049980776
    ],
    "r": [
      [
        -0.0378628523348759,
        -0.00757257046697518
      ],
      0.6118108419838523
    ],
    "s": [
      [
        -0.01514514093395036,
        0.00757257046697518
      ],
      14.944805843906192
    ],
    "t": [
      [
        -0.022717711400925537,
        0.00757257046697518
      ],
      0.04119953863898501
    ],
    "u": [
      [
        -0.01514514093395036,
        0.00757257046697518
      ],
      1.8990080738177626
    ],
    "v": [
      [
        -0.022717711400925537,
        0.01514514093395036
      ],
      2.856732026143791
    ],
    "w": [
      [
        -0.022717711400925537,
        0.00757257046697518
      ],
      14.037293348712033
    ],
    "x": [
      [
        -0.01514514093395036,
        0.00757257046697518
      ],
      21.2560553633218
    ],
    "y": [
      [
        -0.01514514093395036,
        0.01514514093395036
      ],
      3.2933487120338336
    ],
    "z": [
      [
        -0.00757257046697518,
        0.00757257046697518
      ],
      32.88630526720492
    ],
    "A": [
      [
        0.0,
        0.0
      ],
      39.06891195693964
    ],
    "B": [
      [
        -0.03029028186790072,
        0.00757257046697518
      ],
      5.624083044982699
    ],
    "C": [
      [
        -0.03029028186790072,
        0.00757257046697518
      ],
      0.46826605151864675
    ],
    "D": [
      [
        -0.0378628523348759,
        0.00757257046697518
      ],
      6.531334102268358
    ],
    "E": [
      [
        -0.0378628523348759,
        0.00757257046697518
      ],
      5.464975009611688
    ],
    "F": [
      [
        -0.0378628523348759,
        0.01514514093395036
      ],
      1.8191464821222614
    ],
    "G": [
      [
        -0.022717711400925537,
        0.00757257046697518
      ],
      9.711726259131105
    ],
    "H": [
      [
        -0.022717711400925537,
        0.0
      ],
      0.809534794309881
    ],
    "I": [
      [
        -0.022717711400925537,
        0.00757257046697518
      ],
      0.033633217993079605
    ],
    "J": [
      [
        -0.01514514093395036,
        0.01514514093395036
      ],
      0.006397539407920027
    ],
    "K": [
      [
        -0.045435422801851075,
        0.00757257046697518
      ],
      10.93202614379085
    ],
    "L": [
      [
        -0.0378628523348759,
        0.00757257046697518
      ],
      4.182068435217224
    ],
    "M": [
      [
        0.0,
        0.00757257046697518
      ],
      50.07666282199154
    ],
    "N": [
      [
        -0.00757257046697518,
        0.00757257046697518
      ],
      58.32341407151095
    ],
    "O": [
      [
        -0.022717711400925537,
        0.00757257046697518
      ],
      5.06880430603614
    ],
    "P": [
      [
        -0.03029028186790072,
        0.00757257046697518
      ],
      4.397508650519031
    ],
    "Q": [
      [
        -0.022717711400925537,
        0.00757257046697518
      ],
      9.55603229527105
    ],
    "R": [
      [
        -0.0378628523348759,
        0.00757257046697518
      ],
      5.944621299500192
    ],
    "S": [
      [
        -0.01514514093395036,
        0.00757257046697518
      ],
      33.289780853517875
    ],
    "T": [
      [
        -0.022717711400925537,
        0.00757257046697518
      ],
      23.68287581699347
    ],
    "U": [
      [
        -0.03029028186790072,
        0.00757257046697518
      ],
      1.7950019223375628
    ],
    "V": [
      [
        -0.03029028186790072,
        0.00757257046697518
      ],
      3.182068435217224
    ],
    "W": [
      [
        -0.03029028186790072,
        0.00757257046697518
      ],
      11.059438677431757
    ],
    "X": [
      [
        -0.03029028186790072,
        0.00757257046697518
      ],
      48.21477893118031
    ],
    "Y": [
      [
        -0.0378628523348759,
        0.00757257046697518
      ],
      2.721430219146482
    ],
    "Z": [
      [
        -0.01514514093395036,
        0.00757257046697518
      ],
      14.956939638600538
    ]
  }
}