{
  "base_font": "MinionPro-Italic",
  "overlay_font": "Mignon-BoldItalic",
  "overlay_font_path": "fonts/Mignon-BoldItalic.ttf",
  "font_scale": 1.0256076388888888,
  "total_overlap": 592.6677431757016,
  "offsets": {
    "a": [
      [
        -0.015234870926787982,
        0.007617435463393991
      ],
      10.243367935409458
    ],
    "b": [
      [
        -0.015234870926787982,
        0.0
      ],
      3.6520261437908497
    ],
    "c": [
      [
        -0.022852306390181973,
        0.007617435463393991
      ],
      5.45926951172626
    ],
    "d": [
      [
        -0.015234870926787982,
        0.007617435463393991
      ],
      30.311311034217606
    ],
    "e": [
      [
        -0.022852306390181973,
        0.007617435463393991
      ],
      11.678892733564014
    ],
    "f": [
      [
        -0.022852306390181973,
        0.015234870926787982
      ],
      16.718308342945022
    ],
    "g": [
      [
        -0.015234870926787982,
        0.015234870926787982
      ],
      14.994786620530565
    ],
    "h": [
      [
        -0.015234870926787982,
        0.0
      ],
      10.077400999615532
    ],
    "i": [
      [
        -0.030469741853575965,
        0.015234870926787982
      ],
      6.750173010380622
    ],
    "j": [
      [
        0.0,
        0.015234870926787982
      ],
      4.496286043829296
    ],
    "k": [
      [
        -0.030469741853575965,
        0.007617435463393991
      ],
      5.854763552479815
    ],
    "l": [
      [
        -0.022852306390181973,
        0.0
      ],
      3.07277201076509
    ],
    "m": [
      [
        -0.022852306390181973,
        0.007617435463393991
      ],
      21.921753171856977
    ],
    "n": [
      [
        -0.015234870926787982,
        0.007617435463393991
      ],
      16.374794309880816
    ],
    "o": [
      [
        -0.022852306390181973,
        0.007617435463393991
      ],
      3.2570396001537874
    ],
    "p": [
      [
        -0.030469741853575965,
        0.015234870926787982
      ],
      20.840553633217993
    ],
    "q": [
      [
        -0.015234870926787982,
        0.007617435463393991
      ],
      12.475140330642063
    ],
    "r": [
      [
        -0.022852306390181973,
        0.007617435463393991
      ],
      11.963552479815457
    ],
    "s": [
      [
        -0.015234870926787982,
        0.007617435463393991
      ],
      5.1679354094579
    ],
    "t": [
      [
        -0.030469741853575965,
        0.015234870926787982
      ],
      3.327581699346406
    ],
    "u": [
      [
        -0.007617435463393991,
        0.007617435463393991
      ],
      8.8401076509035
    ],
    "v": [
      [
        -0.030469741853575965,
        0.007617435463393991
      ],
      13.452195309496348
    ],
    "w": [
      [
        -0.022852306390181973,
        0.015234870926787982
      ],
      13.414671280276815
    ],
    "x": [
      [
        -0.007617435463393991,
        0.0
      ],
      16.736455209534792
    ],
    "y": [
      [
        -0.030469741853575965,
        0.007617435463393991
      ],
      20.610549788542865
    ],
    "z": [
      [
        -0.007617435463393991,
        0.015234870926787982
      ],
      29.56412149173395
    ],
    "A": [
      [
        0.0,
        -0.007617435463393991
      ],
      18.95555555555556
    ],
    "B": [
      [
        -0.022852306390181973,
        0.007617435463393991
      ],
      0.8557016532103038
    ],
    "C": [
      [
        -0.022852306390181973,
        0.007617435463393991
      ],
      2.7393771626297574
    ],
    "D": [
      [
        -0.030469741853575965,
        0.007617435463393991
      ],
      2.9811303344867355
    ],
    "E": [
      [
        -0.022852306390181973,
        0.007617435463393991
      ],
      3.0256670511341794
    ],
    "F": [
      [
        -0.030469741853575965,
        0.0
      ],
      7.835924644367552
    ],
    "G": [
      [
        -0.022852306390181973,
        0.007617435463393991
      ],
      2.9959246443675513
    ],
    "H": [
      [
        -0.015234870926787982,
        0.007617435463393991
      ],
      0.08585928489042674
    ],
    "I": [
      [
        -0.022852306390181973,
        0.007617435463393991
      ],
      0.3118646674356016
    ],
    "J": [
      [
        -0.03808717731696996,
        0.015234870926787982
      ],
      0.0338485198000769
    ],
    "K": [
      [
        -0.03808717731696996,
        0.007617435463393991
      ],
      20.377931564782777
    ],
    "L": [
      [
        -0.022852306390181973,
        0.007617435463393991
      ],
      0.10865051903114185
    ],
    "M": [
      [
        0.0,
        0.015234870926787982
      ],
      46.22734332948866
    ],
    "N": [
      [
        -0.007617435463393991,
        0.015234870926787982
      ],
      51.166797385620924
    ],
    "O": [
      [
        -0.015234870926787982,
        0.007617435463393991
      ],
      1.276416762783545
    ],
    "P": [
      [
        -0.030469741853575965,
        0.007617435463393991
      ],
      3.4893810073048823
    ],
    "Q": [
      [
        -0.015234870926787982,
        0.007617435463393991
      ],
      1.8912264513648598
    ],
    "R": [
      [
        -0.022852306390181973,
        0.007617435463393991
      ],
      0.3716416762783545
    ],
    "S": [
      [
        -0.015234870926787982,
        0.007617435463393991
      ],
      24.354632833525564
    ],
    "T": [
      [
        -0.015234870926787982,
        0.007617435463393991
      ],
      18.43913879277201
    ],
    "U": [
      [
        -0.015234870926787982,
        0.007617435463393991
      ],
      5.146805074971164
    ],
    "V": [
      [
        -0.022852306390181973,
        0.007617435463393991
      ],
      8.315217224144561
    ],
    "W": [
      [
        -0.022852306390181973,
        0.007617435463393991
      ],
      7.9494963475586315
    ],
    "X": [
      [
        -0.007617435463393991,
        0.007617435463393991
      ],
      6.786328335255671
    ],
    "Y": [
      [
        -0.030469741853575965,
        0.007617435463393991
      ],
      3.1790849673202612
    ],
    "Z": [
      [
        -0.015234870926787982,
        0.007617435463393991
      ],
      32.510988081507115
    ]
  }
}