{
  "base_font": "MinionPro-Italic",
  "overlay_font": "Mignon-BoldItalic",
  "font_scale": 1.0256076388888888,
  "average_remainder": 0.00039228115719297583,
  "offsets": {
    "a": [
      [
        -0.015234870926787982,
        0.007617435463393991
      ],
      0.0003544417970729915
    ],
    "b": [
      [
        -0.015234870926787982,
        0.0
      ],
      0.00012636768663636157
    ],
    "c": [
      [
        -0.022852306390181973,
        0.007617435463393991
      ],
      0.00018890205922928236
    ],
    "d": [
      [
        -0.015234870926787982,
        0.007617435463393991
      ],
      0.0010488342918414397
    ],
    "e": [
      [
        -0.022852306390181973,
        0.007617435463393991
      ],
      0.00040411393541743996
    ],
    "f": [
      [
        -0.022852306390181973,
        0.015234870926787982
      ],
      0.0005784881779565752
    ],
    "g": [
      [
        -0.015234870926787982,
        0.015234870926787982
      ],
      0.0005188507481152444
    ],
    "h": [
      [
        -0.030469741853575965,
        0.007617435463393991
      ],
      0.00023978480461999576
    ],
    "i": [
      [
        -0.030469741853575965,
        0.015234870926787982
      ],
      0.0002335700003591911
    ],
    "j": [
      [
        0.0,
        0.015234870926787982
      ],
      0.00015558083196641164
    ],
    "k": [
      [
        -0.030469741853575965,
        0.007617435463393991
      ],
      0.00020258697413424965
    ],
    "l": [
      [
        -0.022852306390181973,
        0.0
      ],
      0.00010632429102993392
    ],
    "m": [
      [
        -0.022852306390181973,
        0.007617435463393991
      ],
      0.0007585381720365736
    ],
    "n": [
      [
        -0.015234870926787982,
        0.007617435463393991
      ],
      0.0005666018792346303
    ],
    "o": [
      [
        -0.022852306390181973,
        0.007617435463393991
      ],
      0.00011270033218525214
    ],
    "p": [
      [
        -0.030469741853575965,
        0.015234870926787982
      ],
      0.0007211264232947402
    ],
    "q": [
      [
        -0.015234870926787982,
        0.007617435463393991
      ],
      0.0004316657553855384
    ],
    "r": [
      [
        -0.022852306390181973,
        0.007617435463393991
      ],
      0.00041396375362683227
    ],
    "s": [
      [
        -0.015234870926787982,
        0.007617435463393991
      ],
      0.00017882129444491004
    ],
    "t": [
      [
        -0.030469741853575965,
        0.015234870926787982
      ],
      0.00011514123527150193
    ],
    "u": [
      [
        -0.007617435463393991,
        0.007617435463393991
      ],
      0.0003058860778859342
    ],
    "v": [
      [
        -0.030469741853575965,
        0.007617435463393991
      ],
      0.00046547388614174217
    ],
    "w": [
      [
        -0.022852306390181973,
        0.015234870926787982
      ],
      0.00046417547682618747
    ],
    "x": [
      [
        -0.007617435463393991,
        0.0
      ],
      0.0005791160972157368
    ],
    "y": [
      [
        -0.030469741853575965,
        0.007617435463393991
      ],
      0.0007131678127523485
    ],
    "z": [
      [
        -0.007617435463393991,
        0.015234870926787982
      ],
      0.0010229799824129394
    ],
    "A": [
      [
        0.0,
        -0.007617435463393991
      ],
      0.0006559015763168012
    ],
    "B": [
      [
        -0.022852306390181973,
        0.007617435463393991
      ],
      2.9609053744301172e-05
    ],
    "C": [
      [
        -0.022852306390181973,
        0.007617435463393991
      ],
      9.478813711521652e-05
    ],
    "D": [
      [
        -0.030469741853575965,
        0.007617435463393991
      ],
      0.00010315329877116733
    ],
    "E": [
      [
        -0.022852306390181973,
        0.007617435463393991
      ],
      0.00010469436163094045
    ],
    "F": [
      [
        -0.030469741853575965,
        0.0
      ],
      0.0002711392610507803
    ],
    "G": [
      [
        -0.022852306390181973,
        0.007617435463393991
      ],
      0.00010366521260787373
    ],
    "H": [
      [
        -0.015234870926787982,
        0.007617435463393991
      ],
      2.970909511779472e-06
    ],
    "I": [
      [
        -0.022852306390181973,
        0.007617435463393991
      ],
      1.0791164963169605e-05
    ],
    "J": [
      [
        -0.03808717731696996,
        0.015234870926787982
      ],
      1.1712290588261903e-06
    ],
    "K": [
      [
        -0.03808717731696996,
        0.007617435463393991
      ],
      0.0007051187392658401
    ],
    "L": [
      [
        -0.022852306390181973,
        0.007617435463393991
      ],
      3.7595335304893373e-06
    ],
    "M": [
      [
        0.0,
        0.015234870926787982
      ],
      0.0015995620529234832
    ],
    "N": [
      [
        -0.007617435463393991,
        0.015234870926787982
      ],
      0.001770477418187575
    ],
    "O": [
      [
        -0.015234870926787982,
        0.007617435463393991
      ],
      4.4166669992510206e-05
    ],
    "P": [
      [
        -0.030469741853575965,
        0.007617435463393991
      ],
      0.0001207398272423835
    ],
    "Q": [
      [
        -0.015234870926787982,
        0.007617435463393991
      ],
      6.544036163892249e-05
    ],
    "R": [
      [
        -0.022852306390181973,
        0.007617435463393991
      ],
      1.2859573573645482e-05
    ],
    "S": [
      [
        -0.015234870926787982,
        0.007617435463393991
      ],
      0.0008427208592915421
    ],
    "T": [
      [
        -0.015234870926787982,
        0.007617435463393991
      ],
      0.0006380324841789623
    ],
    "U": [
      [
        -0.015234870926787982,
        0.007617435463393991
      ],
      0.00017809014100246244
    ],
    "V": [
      [
        -0.022852306390181973,
        0.007617435463393991
      ],
      0.0002877237793821647
    ],
    "W": [
      [
        -0.022852306390181973,
        0.007617435463393991
      ],
      0.00027506907777019487
    ],
    "X": [
      [
        -0.007617435463393991,
        0.007617435463393991
      ],
      0.000234821049662826
    ],
    "Y": [
      [
        -0.030469741853575965,
        0.007617435463393991
      ],
      0.00011000294004568379
    ],
    "Z": [
      [
        -0.015234870926787982,
        0.007617435463393991
      ],
      0.001124947684481215
    ]
  }
}