{
  "base_font": "Sabon",
  "overlay_font": "CrimsonText-Bold",
  "font_scale": 1.14453125,
  "average_remainder": 0.0009942553062810243,
  "offsets": {
    "a": [
      [
        -0.027303754266211604,
        0.027303754266211604
      ],
      4.0238449677991834e-05
    ],
    "b": [
      [
        -0.06143344709897611,
        0.020477815699658702
      ],
      0.0003064059737471215
    ],
    "c": [
      [
        -0.040955631399317405,
        0.013651877133105802
      ],
      1.2231654314483781e-05
    ],
    "d": [
      [
        -0.013651877133105802,
        0.013651877133105802
      ],
      0.0004672395099569103
    ],
    "e": [
      [
        -0.034129692832764506,
        0.006825938566552901
      ],
      0.0009693413100364646
    ],
    "f": [
      [
        -0.04778156996587031,
        0.020477815699658702
      ],
      0.00029049088120219934
    ],
    "g": [
      [
        -0.020477815699658702,
        0.006825938566552901
      ],
      0.0011359756495039836
    ],
    "h": [
      [
        -0.05460750853242321,
        0.013651877133105802
      ],
      0.00028788767695150523
    ],
    "i": [
      [
        -0.027303754266211604,
        0.006825938566552901
      ],
      0.0
    ],
    "j": [
      [
        -0.020477815699658702,
        0.013651877133105802
      ],
      2.2466738238819528e-06
    ],
    "k": [
      [
        -0.07508532423208192,
        0.020477815699658702
      ],
      0.0008167633156797561
    ],
    "l": [
      [
        -0.06143344709897611,
        0.0
      ],
      0.0
    ],
    "m": [
      [
        -0.07508532423208192,
        0.013651877133105802
      ],
      0.0010474156200237067
    ],
    "n": [
      [
        -0.04778156996587031,
        0.013651877133105802
      ],
      3.815407701855422e-07
    ],
    "o": [
      [
        -0.013651877133105802,
        0.013651877133105802
      ],
      0.0
    ],
    "p": [
      [
        -0.05460750853242321,
        0.027303754266211604
      ],
      0.0014768331051804669
    ],
    "q": [
      [
        -0.027303754266211604,
        0.013651877133105802
      ],
      0.00017597543664999753
    ],
    "r": [
      [
        -0.04778156996587031,
        0.020477815699658702
      ],
      0.00015317185697808538
    ],
    "s": [
      [
        -0.027303754266211604,
        0.013651877133105802
      ],
      5.287399443120759e-05
    ],
    "t": [
      [
        -0.04778156996587031,
        0.020477815699658702
      ],
      0.0004656473621404597
    ],
    "u": [
      [
        -0.05460750853242321,
        0.013651877133105802
      ],
      1.3212379055699897e-05
    ],
    "v": [
      [
        -0.08191126279863481,
        0.040955631399317405
      ],
      1.636740726550475e-05
    ],
    "w": [
      [
        -0.08873720136518772,
        0.034129692832764506
      ],
      0.001875330356038202
    ],
    "x": [
      [
        -0.04778156996587031,
        0.020477815699658702
      ],
      0.0003153176380125291
    ],
    "y": [
      [
        -0.05460750853242321,
        0.027303754266211604
      ],
      0.0003379392275262775
    ],
    "z": [
      [
        -0.013651877133105802,
        0.006825938566552901
      ],
      1.2441847625813336e-05
    ],
    "A": [
      [
        -0.034129692832764506,
        0.0
      ],
      0.0015587755042311383
    ],
    "B": [
      [
        -0.034129692832764506,
        0.020477815699658702
      ],
      0.0002347619826816676
    ],
    "C": [
      [
        0.013651877133105802,
        0.020477815699658702
      ],
      1.711346048698331e-06
    ],
    "D": [
      [
        -0.040955631399317405,
        0.020477815699658702
      ],
      0.00010165959592331403
    ],
    "E": [
      [
        -0.034129692832764506,
        0.013651877133105802
      ],
      0.0010756629403915715
    ],
    "F": [
      [
        -0.034129692832764506,
        0.013651877133105802
      ],
      0.0003355643091757362
    ],
    "G": [
      [
        0.020477815699658702,
        0.013651877133105802
      ],
      0.00019279569077105025
    ],
    "H": [
      [
        0.006825938566552901,
        0.013651877133105802
      ],
      0.008194588453469452
    ],
    "I": [
      [
        -0.027303754266211604,
        0.020477815699658702
      ],
      0.00036249406336929233
    ],
    "J": [
      [
        0.020477815699658702,
        0.013651877133105802
      ],
      0.001137257562635611
    ],
    "K": [
      [
        -0.04778156996587031,
        0.020477815699658702
      ],
      0.0011171715962319522
    ],
    "L": [
      [
        -0.020477815699658702,
        0.020477815699658702
      ],
      0.0001378836194223941
    ],
    "M": [
      [
        -0.013651877133105802,
        0.027303754266211604
      ],
      0.0018345172005975875
    ],
    "N": [
      [
        -0.006825938566552901,
        0.034129692832764506
      ],
      0.0037653715831946453
    ],
    "O": [
      [
        0.020477815699658702,
        0.013651877133105802
      ],
      0.00014612532576637412
    ],
    "P": [
      [
        -0.040955631399317405,
        0.020477815699658702
      ],
      0.0001998975640191622
    ],
    "Q": [
      [
        0.027303754266211604,
        0.020477815699658702
      ],
      0.003958207716223066
    ],
    "R": [
      [
        -0.020477815699658702,
        0.020477815699658702
      ],
      0.000173227491688717
    ],
    "S": [
      [
        -0.013651877133105802,
        0.013651877133105802
      ],
      2.948027708267647e-07
    ],
    "T": [
      [
        -0.034129692832764506,
        0.020477815699658702
      ],
      0.0005846034729788516
    ],
    "U": [
      [
        -0.040955631399317405,
        0.040955631399317405
      ],
      2.3014837253172537e-05
    ],
    "V": [
      [
        -0.04778156996587031,
        0.040955631399317405
      ],
      0.00010095238855430905
    ],
    "W": [
      [
        -0.08873720136518772,
        0.020477815699658702
      ],
      0.011509840904948722
    ],
    "X": [
      [
        -0.04778156996587031,
        0.020477815699658702
      ],
      0.00155375268229281
    ],
    "Y": [
      [
        -0.013651877133105802,
        0.020477815699658702
      ],
      0.0006394660557757263
    ],
    "Z": [
      [
        0.006825938566552901,
        0.020477815699658702
      ],
      0.0024899483696049834
    ]
  }
}