{
  "base_font": "STIXTwoText",
  "overlay_font": "STIXTwoText-Bold",
  "font_scale": 1.00390625,
  "average_remainder": 0.0009289136249780877,
  "offsets": {
    "a": [
      [
        -0.01556420233463035,
        0.007782101167315175
      ],
      0.0003274694720822042
    ],
    "b": [
      [
        -0.038910505836575876,
        0.0
      ],
      0.00030471325242221184
    ],
    "c": [
      [
        -0.038910505836575876,
        0.007782101167315175
      ],
      7.601494767117784e-05
    ],
    "d": [
      [
        -0.007782101167315175,
        0.007782101167315175
      ],
      0.0007088931725753603
    ],
    "e": [
      [
        -0.0311284046692607,
        0.0
      ],
      9.830714564134902e-05
    ],
    "f": [
      [
        -0.04669260700389105,
        0.007782101167315175
      ],
      0.00014278617885854389
    ],
    "g": [
      [
        -0.007782101167315175,
        0.0
      ],
      0.00020869428713204532
    ],
    "h": [
      [
        -0.04669260700389105,
        0.0
      ],
      1.2165137443809876e-05
    ],
    "i": [
      [
        -0.0311284046692607,
        0.007782101167315175
      ],
      4.450776850532599e-06
    ],
    "j": [
      [
        -0.007782101167315175,
        0.0
      ],
      0.00020196703689956888
    ],
    "k": [
      [
        -0.04669260700389105,
        0.0
      ],
      0.00020786149591120795
    ],
    "l": [
      [
        -0.0311284046692607,
        0.0
      ],
      0.0
    ],
    "m": [
      [
        -0.054474708171206226,
        0.0
      ],
      0.0011011836011967716
    ],
    "n": [
      [
        -0.04669260700389105,
        0.0
      ],
      1.8974336460956594e-05
    ],
    "o": [
      [
        -0.01556420233463035,
        0.007782101167315175
      ],
      6.767639276349659e-05
    ],
    "p": [
      [
        -0.04669260700389105,
        0.0
      ],
      0.00026824817178380946
    ],
    "q": [
      [
        -0.007782101167315175,
        0.0
      ],
      0.0006618577629844258
    ],
    "r": [
      [
        -0.04669260700389105,
        0.0
      ],
      0.00020772739789992934
    ],
    "s": [
      [
        -0.023346303501945526,
        0.0
      ],
      0.0006983079438437972
    ],
    "t": [
      [
        -0.04669260700389105,
        0.007782101167315175
      ],
      4.690769719924065e-06
    ],
    "u": [
      [
        -0.023346303501945526,
        0.007782101167315175
      ],
      0.0002565465238948554
    ],
    "v": [
      [
        -0.04669260700389105,
        0.0
      ],
      0.0002429664395780702
    ],
    "w": [
      [
        -0.0622568093385214,
        0.0
      ],
      0.006280890634291575
    ],
    "x": [
      [
        -0.023346303501945526,
        0.007782101167315175
      ],
      0.0026143572674337395
    ],
    "y": [
      [
        -0.038910505836575876,
        0.007782101167315175
      ],
      0.0012127797533288368
    ],
    "z": [
      [
        -0.023346303501945526,
        0.007782101167315175
      ],
      4.7362140459684795e-05
    ],
    "A": [
      [
        0.0,
        0.007782101167315175
      ],
      2.6701468293403252e-05
    ],
    "B": [
      [
        -0.0311284046692607,
        0.007782101167315175
      ],
      2.8731563186370962e-05
    ],
    "C": [
      [
        -0.007782101167315175,
        0.007782101167315175
      ],
      0.0002872815752259245
    ],
    "D": [
      [
        -0.007782101167315175,
        0.007782101167315175
      ],
      5.564428906103455e-05
    ],
    "E": [
      [
        -0.0311284046692607,
        0.0
      ],
      0.00014745300250502532
    ],
    "F": [
      [
        -0.0311284046692607,
        0.0
      ],
      3.230272093911179e-05
    ],
    "G": [
      [
        -0.007782101167315175,
        0.007782101167315175
      ],
      0.00020147374778665115
    ],
    "H": [
      [
        -0.038910505836575876,
        0.0
      ],
      0.0
    ],
    "I": [
      [
        -0.023346303501945526,
        0.0
      ],
      0.0
    ],
    "J": [
      [
        -0.0311284046692607,
        0.0
      ],
      7.091815897266025e-05
    ],
    "K": [
      [
        -0.054474708171206226,
        0.0
      ],
      0.0010981392570597681
    ],
    "L": [
      [
        -0.04669260700389105,
        0.0
      ],
      1.0779990128896396e-05
    ],
    "M": [
      [
        -0.04669260700389105,
        0.0
      ],
      0.008398679241015899
    ],
    "N": [
      [
        -0.01556420233463035,
        0.007782101167315175
      ],
      0.009017094037560746
    ],
    "O": [
      [
        -0.007782101167315175,
        0.0
      ],
      0.00013434332549764596
    ],
    "P": [
      [
        -0.04669260700389105,
        0.0
      ],
      1.0317032709005986e-05
    ],
    "Q": [
      [
        0.0,
        0.0
      ],
      0.0004231058323322544
    ],
    "R": [
      [
        -0.04669260700389105,
        0.0
      ],
      0.00010029786254687776
    ],
    "S": [
      [
        -0.007782101167315175,
        0.0
      ],
      0.0004499892907838215
    ],
    "T": [
      [
        -0.0311284046692607,
        0.007782101167315175
      ],
      0.000696568394641933
    ],
    "U": [
      [
        -0.054474708171206226,
        0.007782101167315175
      ],
      2.5190204991692042e-05
    ],
    "V": [
      [
        -0.038910505836575876,
        0.007782101167315175
      ],
      2.0241881948518602e-05
    ],
    "W": [
      [
        -0.0622568093385214,
        -0.007782101167315175
      ],
      0.007706474885225139
    ],
    "X": [
      [
        -0.01556420233463035,
        0.007782101167315175
      ],
      0.0025119893998714893
    ],
    "Y": [
      [
        -0.0311284046692607,
        0.0
      ],
      0.0008728992974488119
    ],
    "Z": [
      [
        -0.007782101167315175,
        0.0
      ],
      0.0
    ]
  }
}