{
  "base_font": "STIXTwoText-Regular",
  "overlay_font": "STIXTwoText-Bold",
  "overlay_font_path": "fonts/STIXTwoText-Bold.ttf",
  "font_scale": 1.00390625,
  "total_overlap": 1395.9713956170704,
  "offsets": {
    "a": [
      [
        -0.01556420233463035,
        0.007782101167315175
      ],
      9.463867743175701
    ],
    "b": [
      [
        -0.038910505836575876,
        0.0
      ],
      8.806212995001923
    ],
    "c": [
      [
        -0.038910505836575876,
        0.007782101167315175
      ],
      2.1968319876970397
    ],
    "d": [
      [
        -0.007782101167315175,
        0.007782101167315175
      ],
      20.487012687427914
    ],
    "e": [
      [
        -0.0311284046692607,
        0.0
      ],
      2.8410765090349868
    ],
    "f": [
      [
        -0.04669260700389105,
        0.007782101167315175
      ],
      4.126520569011919
    ],
    "g": [
      [
        -0.007782101167315175,
        0.0
      ],
      6.03126489811611
    ],
    "h": [
      [
        -0.04669260700389105,
        0.0
      ],
      0.3515724721261055
    ],
    "i": [
      [
        -0.0311284046692607,
        0.007782101167315175
      ],
      0.12862745098039213
    ],
    "j": [
      [
        -0.007782101167315175,
        0.0
      ],
      5.836847366397539
    ],
    "k": [
      [
        -0.04669260700389105,
        0.0
      ],
      6.007197231833911
    ],
    "l": [
      [
        -0.0311284046692607,
        0.0
      ],
      0.0
    ],
    "m": [
      [
        -0.054474708171206226,
        0.0
      ],
      31.824206074586698
    ],
    "n": [
      [
        -0.04669260700389105,
        0.0
      ],
      0.5483583237216456
    ],
    "o": [
      [
        -0.01556420233463035,
        0.007782101167315175
      ],
      1.9558477508650518
    ],
    "p": [
      [
        -0.04669260700389105,
        0.0
      ],
      7.752372164552096
    ],
    "q": [
      [
        -0.007782101167315175,
        0.0
      ],
      19.127689350249902
    ],
    "r": [
      [
        -0.04669260700389105,
        0.0
      ],
      6.003321799307959
    ],
    "s": [
      [
        -0.023346303501945526,
        0.0
      ],
      20.181099577085735
    ],
    "t": [
      [
        -0.04669260700389105,
        0.007782101167315175
      ],
      0.13556324490580546
    ],
    "u": [
      [
        -0.023346303501945526,
        0.007782101167315175
      ],
      7.414194540561322
    ],
    "v": [
      [
        -0.04669260700389105,
        0.0
      ],
      7.021730103806228
    ],
    "w": [
      [
        -0.0622568093385214,
        0.0
      ],
      181.51773933102652
    ],
    "x": [
      [
        -0.023346303501945526,
        0.007782101167315175
      ],
      75.55492502883506
    ],
    "y": [
      [
        -0.038910505836575876,
        0.007782101167315175
      ],
      35.049334871203385
    ],
    "z": [
      [
        -0.023346303501945526,
        0.007782101167315175
      ],
      1.3687658592848906
    ],
    "A": [
      [
        0.0,
        0.007782101167315175
      ],
      0.7716724336793541
    ],
    "B": [
      [
        -0.0311284046692607,
        0.007782101167315175
      ],
      0.8303421760861207
    ],
    "C": [
      [
        -0.007782101167315175,
        0.007782101167315175
      ],
      8.30243752402922
    ],
    "D": [
      [
        -0.007782101167315175,
        0.007782101167315175
      ],
      1.6081199538638984
    ],
    "E": [
      [
        -0.0311284046692607,
        0.0
      ],
      4.261391772395232
    ],
    "F": [
      [
        -0.0311284046692607,
        0.0
      ],
      0.9335486351403307
    ],
    "G": [
      [
        -0.007782101167315175,
        0.007782101167315175
      ],
      5.822591311034218
    ],
    "H": [
      [
        -0.0311284046692607,
        0.007782101167315175
      ],
      0.0
    ],
    "I": [
      [
        -0.007782101167315175,
        0.007782101167315175
      ],
      0.0
    ],
    "J": [
      [
        -0.0311284046692607,
        0.0
      ],
      2.049534794309881
    ],
    "K": [
      [
        -0.054474708171206226,
        0.0
      ],
      31.7362245290273
    ],
    "L": [
      [
        -0.04669260700389105,
        0.0
      ],
      0.31154171472510583
    ],
    "M": [
      [
        -0.04669260700389105,
        0.0
      ],
      242.72183006535948
    ],
    "N": [
      [
        -0.01556420233463035,
        0.007782101167315175
      ],
      260.59401768550555
    ],
    "O": [
      [
        -0.007782101167315175,
        0.0
      ],
      3.882522106881969
    ],
    "P": [
      [
        -0.04669260700389105,
        0.0
      ],
      0.29816224529027296
    ],
    "Q": [
      [
        0.0,
        0.0
      ],
      12.227758554402154
    ],
    "R": [
      [
        -0.04669260700389105,
        0.0
      ],
      2.8986082276047673
    ],
    "S": [
      [
        -0.007782101167315175,
        0.0
      ],
      13.00469050365244
    ],
    "T": [
      [
        -0.0311284046692607,
        0.007782101167315175
      ],
      20.130826605151867
    ],
    "U": [
      [
        -0.054474708171206226,
        0.007782101167315175
      ],
      0.7279969242599
    ],
    "V": [
      [
        -0.038910505836575876,
        0.007782101167315175
      ],
      0.5849903883121876
    ],
    "W": [
      [
        -0.0622568093385214,
        -0.007782101167315175
      ],
      222.7171241830065
    ],
    "X": [
      [
        -0.01556420233463035,
        0.007782101167315175
      ],
      72.59649365628604
    ],
    "Y": [
      [
        -0.0311284046692607,
        0.0
      ],
      25.226789696270664
    ],
    "Z": [
      [
        -0.007782101167315175,
        0.0
      ],
      0.0
    ]
  }
}