{
  "base_font": "SuisseWorks",
  "overlay_font": "Playfair_SemiCondensed-Bold",
  "overlay_font_path": "fonts/Playfair_SemiCondensed-Bold.ttf",
  "font_scale": 1.3285590277777777,
  "total_overlap": 3967.3270126874286,
  "offsets": {
    "a": [
      [
        -0.02352172492649461,
        0.011760862463247305
      ],
      30.092918108419838
    ],
    "b": [
      [
        -0.05880431231623653,
        0.011760862463247305
      ],
      23.482722029988466
    ],
    "c": [
      [
        -0.029402156158118264,
        0.005880431231623653
      ],
      60.035524798154555
    ],
    "d": [
      [
        -0.017641293694870958,
        0.005880431231623653
      ],
      34.86974240676663
    ],
    "e": [
      [
        -0.035282587389741916,
        0.0
      ],
      110.7126028450596
    ],
    "f": [
      [
        -0.04116301862136557,
        0.011760862463247305
      ],
      70.59750865051905
    ],
    "g": [
      [
        -0.005880431231623653,
        0.0
      ],
      211.02957324106114
    ],
    "h": [
      [
        -0.05292388108461288,
        0.011760862463247305
      ],
      14.516216839677046
    ],
    "i": [
      [
        -0.035282587389741916,
        0.011760862463247305
      ],
      2.788988850442138
    ],
    "j": [
      [
        -0.04704344985298922,
        0.017641293694870958
      ],
      2.3960784313725494
    ],
    "k": [
      [
        -0.05880431231623653,
        0.011760862463247305
      ],
      216.54725105728568
    ],
    "l": [
      [
        -0.035282587389741916,
        0.011760862463247305
      ],
      2.755524798154556
    ],
    "m": [
      [
        -0.05880431231623653,
        0.011760862463247305
      ],
      37.99124951941561
    ],
    "n": [
      [
        -0.05292388108461288,
        0.011760862463247305
      ],
      12.912156862745096
    ],
    "o": [
      [
        -0.005880431231623653,
        0.011760862463247305
      ],
      59.896624375240286
    ],
    "p": [
      [
        -0.05292388108461288,
        0.011760862463247305
      ],
      30.038200692041524
    ],
    "q": [
      [
        -0.017641293694870958,
        0.0
      ],
      8.862068435217223
    ],
    "r": [
      [
        -0.05292388108461288,
        0.017641293694870958
      ],
      22.177747020376778
    ],
    "s": [
      [
        -0.029402156158118264,
        0.005880431231623653
      ],
      79.94068435217224
    ],
    "t": [
      [
        -0.05292388108461288,
        0.005880431231623653
      ],
      5.94486735870819
    ],
    "u": [
      [
        -0.05880431231623653,
        0.005880431231623653
      ],
      6.621284121491732
    ],
    "v": [
      [
        -0.04704344985298922,
        0.005880431231623653
      ],
      3.7246443675509413
    ],
    "w": [
      [
        -0.06468474354786018,
        0.005880431231623653
      ],
      53.102206843521714
    ],
    "x": [
      [
        -0.011760862463247305,
        0.005880431231623653
      ],
      68.23420222991157
    ],
    "y": [
      [
        -0.04116301862136557,
        0.0
      ],
      135.14237600922723
    ],
    "z": [
      [
        0.011760862463247305,
        0.005880431231623653
      ],
      14.047643214148405
    ],
    "A": [
      [
        -0.011760862463247305,
        0.005880431231623653
      ],
      31.91317185697808
    ],
    "B": [
      [
        -0.02352172492649461,
        0.011760862463247305
      ],
      21.005105728565937
    ],
    "C": [
      [
        -0.005880431231623653,
        0.005880431231623653
      ],
      48.14134563629374
    ],
    "D": [
      [
        -0.04704344985298922,
        0.011760862463247305
      ],
      25.85316416762784
    ],
    "E": [
      [
        -0.011760862463247305,
        0.011760862463247305
      ],
      110.04549019607845
    ],
    "F": [
      [
        -0.011760862463247305,
        0.011760862463247305
      ],
      204.42491349480972
    ],
    "G": [
      [
        0.0,
        0.011760862463247305
      ],
      101.58891195693965
    ],
    "H": [
      [
        -0.035282587389741916,
        0.005880431231623653
      ],
      3.919369473279508
    ],
    "I": [
      [
        -0.02352172492649461,
        0.017641293694870958
      ],
      0.0
    ],
    "J": [
      [
        -0.005880431231623653,
        0.011760862463247305
      ],
      174.40848904267588
    ],
    "K": [
      [
        -0.05292388108461288,
        0.017641293694870958
      ],
      408.77873125720873
    ],
    "L": [
      [
        -0.035282587389741916,
        0.005880431231623653
      ],
      0.0
    ],
    "M": [
      [
        -0.02352172492649461,
        0.017641293694870958
      ],
      219.22612841214914
    ],
    "N": [
      [
        -0.017641293694870958,
        0.02352172492649461
      ],
      297.67237216455214
    ],
    "O": [
      [
        -0.005880431231623653,
        0.011760862463247305
      ],
      17.938885044213762
    ],
    "P": [
      [
        -0.029402156158118264,
        0.011760862463247305
      ],
      39.95515570934256
    ],
    "Q": [
      [
        -0.005880431231623653,
        0.005880431231623653
      ],
      148.40539792387543
    ],
    "R": [
      [
        -0.029402156158118264,
        0.017641293694870958
      ],
      142.74114571318722
    ],
    "S": [
      [
        -0.017641293694870958,
        0.011760862463247305
      ],
      53.318861976163014
    ],
    "T": [
      [
        0.005880431231623653,
        0.011760862463247305
      ],
      197.84046136101497
    ],
    "U": [
      [
        -0.029402156158118264,
        0.005880431231623653
      ],
      25.67461745482507
    ],
    "V": [
      [
        -0.035282587389741916,
        0.005880431231623653
      ],
      50.38645136485967
    ],
    "W": [
      [
        -0.05292388108461288,
        0.011760862463247305
      ],
      189.7535870818916
    ],
    "X": [
      [
        0.005880431231623653,
        0.017641293694870958
      ],
      89.76612072279892
    ],
    "Y": [
      [
        -0.04704344985298922,
        0.011760862463247305
      ],
      19.416132256824298
    ],
    "Z": [
      [
        0.011760862463247305,
        0.011760862463247305
      ],
      26.692395232602845
    ]
  }
}