{
  "base_font": "SuisseWorks",
  "overlay_font": "Playfair_SemiCondensed-Bold",
  "font_scale": 1.3285590277777777,
  "average_remainder": 0.002639191903934902,
  "offsets": {
    "a": [
      [
        -0.02352172492649461,
        0.011760862463247305
      ],
      0.0010412774431979182
    ],
    "b": [
      [
        -0.05880431231623653,
        0.011760862463247305
      ],
      0.0008125509352937187
    ],
    "c": [
      [
        -0.029402156158118264,
        0.005880431231623653
      ],
      0.0020773537992441024
    ],
    "d": [
      [
        -0.017641293694870958,
        0.005880431231623653
      ],
      0.0012065654812029975
    ],
    "e": [
      [
        -0.035282587389741916,
        0.0
      ],
      0.003830885911593758
    ],
    "f": [
      [
        -0.04116301862136557,
        0.011760862463247305
      ],
      0.0024428203685300702
    ],
    "g": [
      [
        -0.005880431231623653,
        0.0
      ],
      0.0073020613578221845
    ],
    "h": [
      [
        -0.05292388108461288,
        0.011760862463247305
      ],
      0.0005022912401272334
    ],
    "i": [
      [
        -0.035282587389741916,
        0.011760862463247305
      ],
      9.650480451356878e-05
    ],
    "j": [
      [
        -0.04704344985298922,
        0.017641293694870958
      ],
      8.290928828278717e-05
    ],
    "k": [
      [
        -0.05880431231623653,
        0.011760862463247305
      ],
      0.007492984465650022
    ],
    "l": [
      [
        -0.035282587389741916,
        0.011760862463247305
      ],
      9.534687882887738e-05
    ],
    "m": [
      [
        -0.05880431231623653,
        0.011760862463247305
      ],
      0.0013145761079382562
    ],
    "n": [
      [
        -0.05292388108461288,
        0.011760862463247305
      ],
      0.0004467874346970622
    ],
    "o": [
      [
        -0.005880431231623653,
        0.011760862463247305
      ],
      0.0020725475562366883
    ],
    "p": [
      [
        -0.05292388108461288,
        0.011760862463247305
      ],
      0.0010393841069910562
    ],
    "q": [
      [
        -0.017641293694870958,
        0.0
      ],
      0.0003066459666165129
    ],
    "r": [
      [
        -0.05292388108461288,
        0.017641293694870958
      ],
      0.0007673960906704767
    ],
    "s": [
      [
        -0.029402156158118264,
        0.005880431231623653
      ],
      0.0027661136454038837
    ],
    "t": [
      [
        -0.05292388108461288,
        0.005880431231623653
      ],
      0.00020570475289647715
    ],
    "u": [
      [
        -0.05880431231623653,
        0.005880431231623653
      ],
      0.00022911017721424686
    ],
    "v": [
      [
        -0.04704344985298922,
        0.005880431231623653
      ],
      0.00012888042794293917
    ],
    "w": [
      [
        -0.06468474354786018,
        0.005880431231623653
      ],
      0.0018374466035820667
    ],
    "x": [
      [
        -0.011760862463247305,
        0.005880431231623653
      ],
      0.002361045059858532
    ],
    "y": [
      [
        -0.04116301862136557,
        0.0
      ],
      0.004676206782326201
    ],
    "z": [
      [
        0.011760862463247305,
        0.005880431231623653
      ],
      0.0004860776198667268
    ],
    "A": [
      [
        -0.011760862463247305,
        0.005880431231623653
      ],
      0.00110426200197156
    ],
    "B": [
      [
        -0.02352172492649461,
        0.011760862463247305
      ],
      0.0007268202674244269
    ],
    "C": [
      [
        -0.005880431231623653,
        0.005880431231623653
      ],
      0.00166579050644615
    ],
    "D": [
      [
        -0.04704344985298922,
        0.011760862463247305
      ],
      0.0008945731545891983
    ],
    "E": [
      [
        -0.011760862463247305,
        0.011760862463247305
      ],
      0.00380780242893005
    ],
    "F": [
      [
        -0.011760862463247305,
        0.011760862463247305
      ],
      0.0070735264185055255
    ],
    "G": [
      [
        0.0,
        0.011760862463247305
      ],
      0.003515187264946008
    ],
    "H": [
      [
        -0.035282587389741916,
        0.005880431231623653
      ],
      0.00013561832087472347
    ],
    "I": [
      [
        -0.035282587389741916,
        0.005880431231623653
      ],
      0.0
    ],
    "J": [
      [
        -0.005880431231623653,
        0.011760862463247305
      ],
      0.006034895814625462
    ],
    "K": [
      [
        -0.05292388108461288,
        0.017641293694870958
      ],
      0.014144592777066048
    ],
    "L": [
      [
        -0.035282587389741916,
        0.005880431231623653
      ],
      0.0
    ],
    "M": [
      [
        -0.02352172492649461,
        0.017641293694870958
      ],
      0.007585679183811391
    ],
    "N": [
      [
        -0.017641293694870958,
        0.02352172492649461
      ],
      0.010300082081818412
    ],
    "O": [
      [
        -0.005880431231623653,
        0.011760862463247305
      ],
      0.0006207226658897496
    ],
    "P": [
      [
        -0.029402156158118264,
        0.011760862463247305
      ],
      0.0013825313394236181
    ],
    "Q": [
      [
        -0.005880431231623653,
        0.005880431231623653
      ],
      0.005135134876258665
    ],
    "R": [
      [
        -0.029402156158118264,
        0.017641293694870958
      ],
      0.004939139990075682
    ],
    "S": [
      [
        -0.017641293694870958,
        0.011760862463247305
      ],
      0.0018449433209744986
    ],
    "T": [
      [
        0.035282587389741916,
        0.011760862463247305
      ],
      0.006805918405085082
    ],
    "U": [
      [
        -0.029402156158118264,
        0.005880431231623653
      ],
      0.0008883950676410058
    ],
    "V": [
      [
        -0.035282587389741916,
        0.005880431231623653
      ],
      0.001743475825773691
    ],
    "W": [
      [
        -0.05292388108461288,
        0.011760862463247305
      ],
      0.006565868065117355
    ],
    "X": [
      [
        0.005880431231623653,
        0.017641293694870958
      ],
      0.003106094142657402
    ],
    "Y": [
      [
        -0.04704344985298922,
        0.011760862463247305
      ],
      0.0006718384863953045
    ],
    "Z": [
      [
        0.011760862463247305,
        0.011760862463247305
      ],
      0.0009236122917855654
    ]
  }
}