{
  "base_font": "TimesNewRoman-Italic",
  "overlay_font": "TimesNewerRoman-BoldItalic",
  "overlay_font_path": "fonts/TimesNewerRoman-BoldItalic.ttf",
  "font_scale": 1.03125,
  "total_overlap": 3357.297085736255,
  "offsets": {
    "a": [
      [
        -0.015151515151515152,
        0.007575757575757576
      ],
      18.056316801230295
    ],
    "b": [
      [
        -0.007575757575757576,
        0.007575757575757576
      ],
      21.44143021914648
    ],
    "c": [
      [
        -0.007575757575757576,
        0.015151515151515152
      ],
      37.065005767012686
    ],
    "d": [
      [
        -0.015151515151515152,
        0.007575757575757576
      ],
      16.40339869281046
    ],
    "e": [
      [
        -0.007575757575757576,
        0.007575757575757576
      ],
      42.72501345636294
    ],
    "f": [
      [
        -0.030303030303030304,
        0.015151515151515152
      ],
      76.67549404075355
    ],
    "g": [
      [
        -0.007575757575757576,
        0.015151515151515152
      ],
      103.19264898116107
    ],
    "h": [
      [
        -0.030303030303030304,
        0.007575757575757576
      ],
      31.30191464821223
    ],
    "i": [
      [
        -0.022727272727272728,
        0.015151515151515152
      ],
      24.16642829680892
    ],
    "j": [
      [
        -0.030303030303030304,
        0.022727272727272728
      ],
      28.65682429834679
    ],
    "k": [
      [
        -0.03787878787878788,
        0.007575757575757576
      ],
      38.53484044598232
    ],
    "l": [
      [
        -0.022727272727272728,
        0.0
      ],
      2.8218685121107265
    ],
    "m": [
      [
        -0.045454545454545456,
        0.022727272727272728
      ],
      36.043767781622456
    ],
    "n": [
      [
        -0.030303030303030304,
        0.015151515151515152
      ],
      32.79361783929258
    ],
    "o": [
      [
        -0.015151515151515152,
        0.015151515151515152
      ],
      31.463483275663208
    ],
    "p": [
      [
        -0.007575757575757576,
        0.007575757575757576
      ],
      12.64871972318339
    ],
    "q": [
      [
        -0.030303030303030304,
        0.007575757575757576
      ],
      9.95275663206459
    ],
    "r": [
      [
        -0.015151515151515152,
        0.015151515151515152
      ],
      5.07747789311803
    ],
    "s": [
      [
        -0.015151515151515152,
        0.015151515151515152
      ],
      59.275847750865054
    ],
    "t": [
      [
        -0.015151515151515152,
        0.015151515151515152
      ],
      3.437247212610534
    ],
    "u": [
      [
        -0.03787878787878788,
        0.007575757575757576
      ],
      43.010872741253365
    ],
    "v": [
      [
        0.0,
        0.022727272727272728
      ],
      23.515171088043058
    ],
    "w": [
      [
        0.0,
        0.022727272727272728
      ],
      57.52206074586698
    ],
    "x": [
      [
        -0.05303030303030303,
        0.015151515151515152
      ],
      24.849734717416382
    ],
    "y": [
      [
        -0.022727272727272728,
        0.022727272727272728
      ],
      161.45068819684735
    ],
    "z": [
      [
        -0.007575757575757576,
        0.0
      ],
      204.57059592464435
    ],
    "A": [
      [
        0.015151515151515152,
        0.0
      ],
      292.25291810841986
    ],
    "B": [
      [
        -0.06060606060606061,
        0.007575757575757576
      ],
      31.370426758938873
    ],
    "C": [
      [
        -0.015151515151515152,
        0.015151515151515152
      ],
      8.210888119953864
    ],
    "D": [
      [
        -0.022727272727272728,
        0.007575757575757576
      ],
      31.66229911572472
    ],
    "E": [
      [
        -0.06060606060606061,
        0.007575757575757576
      ],
      46.7434525182622
    ],
    "F": [
      [
        -0.045454545454545456,
        0.015151515151515152
      ],
      14.8158246828143
    ],
    "G": [
      [
        -0.007575757575757576,
        0.0
      ],
      35.40959630911188
    ],
    "H": [
      [
        -0.03787878787878788,
        0.007575757575757576
      ],
      0.41420991926182243
    ],
    "I": [
      [
        -0.030303030303030304,
        0.007575757575757576
      ],
      0.3139100346020761
    ],
    "J": [
      [
        -0.045454545454545456,
        0.007575757575757576
      ],
      36.58674356016917
    ],
    "K": [
      [
        -0.05303030303030303,
        0.0
      ],
      87.9936793540946
    ],
    "L": [
      [
        -0.06060606060606061,
        0.0
      ],
      37.92309111880046
    ],
    "M": [
      [
        -0.022727272727272728,
        0.015151515151515152
      ],
      107.58920415224915
    ],
    "N": [
      [
        -0.03787878787878788,
        0.015151515151515152
      ],
      310.45731641676275
    ],
    "O": [
      [
        -0.007575757575757576,
        0.007575757575757576
      ],
      27.29770088427528
    ],
    "P": [
      [
        -0.030303030303030304,
        0.007575757575757576
      ],
      10.03275663206459
    ],
    "Q": [
      [
        -0.015151515151515152,
        0.007575757575757576
      ],
      60.94963475586313
    ],
    "R": [
      [
        -0.05303030303030303,
        0.015151515151515152
      ],
      12.427281814686658
    ],
    "S": [
      [
        -0.030303030303030304,
        0.007575757575757576
      ],
      94.62720492118416
    ],
    "T": [
      [
        -0.022727272727272728,
        0.015151515151515152
      ],
      34.91337178008459
    ],
    "U": [
      [
        -0.007575757575757576,
        0.015151515151515152
      ],
      28.52507497116494
    ],
    "V": [
      [
        -0.07575757575757576,
        0.007575757575757576
      ],
      281.4785390234525
    ],
    "W": [
      [
        -0.08333333333333333,
        0.015151515151515152
      ],
      502.9457439446367
    ],
    "X": [
      [
        -0.030303030303030304,
        0.007575757575757576
      ],
      54.43275663206459
    ],
    "Y": [
      [
        -0.045454545454545456,
        0.0
      ],
      34.02626682045367
    ],
    "Z": [
      [
        -0.022727272727272728,
        0.0
      ],
      27.243967704728945
    ]
  }
}