{
  "base_font": "TimesNewRoman",
  "overlay_font": "TimesNewerRoman-Bold",
  "font_scale": 1.0134548611111112,
  "average_remainder": 0.002356734828039051,
  "offsets": {
    "a": [
      [
        -0.02312633832976445,
        0.0
      ],
      0.0022816345589731922
    ],
    "b": [
      [
        -0.0462526766595289,
        0.007708779443254817
      ],
      0.0035449421236708263
    ],
    "c": [
      [
        -0.02312633832976445,
        0.0
      ],
      0.0025856751927991494
    ],
    "d": [
      [
        0.0,
        0.0
      ],
      0.002298285062040285
    ],
    "e": [
      [
        -0.007708779443254817,
        -0.007708779443254817
      ],
      0.004303402604002453
    ],
    "f": [
      [
        0.0462526766595289,
        0.0
      ],
      0.00217491169885418
    ],
    "g": [
      [
        0.0,
        0.0
      ],
      0.005303919040986365
    ],
    "h": [
      [
        -0.03083511777301927,
        0.0
      ],
      0.0008680233447609317
    ],
    "i": [
      [
        0.007708779443254817,
        0.0
      ],
      0.0007367467130688357
    ],
    "j": [
      [
        -0.053961456102783724,
        0.0
      ],
      0.0020918784231244566
    ],
    "k": [
      [
        -0.03854389721627409,
        0.0
      ],
      0.0019947355887873844
    ],
    "l": [
      [
        0.007708779443254817,
        0.0
      ],
      0.0008934535426220152
    ],
    "m": [
      [
        -0.03083511777301927,
        0.0
      ],
      0.0010595115799220158
    ],
    "n": [
      [
        -0.03083511777301927,
        0.0
      ],
      0.0007167581273638432
    ],
    "o": [
      [
        -0.007708779443254817,
        0.0
      ],
      0.0009602811801157127
    ],
    "p": [
      [
        -0.0462526766595289,
        0.007708779443254817
      ],
      0.001879849246164305
    ],
    "q": [
      [
        -0.02312633832976445,
        0.007708779443254817
      ],
      0.0028387803998728197
    ],
    "r": [
      [
        -0.053961456102783724,
        0.0
      ],
      0.00030698759726429417
    ],
    "s": [
      [
        0.007708779443254817,
        0.0
      ],
      0.002331371085648453
    ],
    "t": [
      [
        -0.03083511777301927,
        0.0
      ],
      7.156363868567983e-05
    ],
    "u": [
      [
        -0.02312633832976445,
        0.0
      ],
      0.0006487635178910427
    ],
    "v": [
      [
        0.0,
        0.0
      ],
      0.000708791002662005
    ],
    "w": [
      [
        -0.007708779443254817,
        0.007708779443254817
      ],
      0.003709027004519156
    ],
    "x": [
      [
        -0.015417558886509634,
        0.0
      ],
      0.0023046020362144453
    ],
    "y": [
      [
        0.0,
        0.007708779443254817
      ],
      0.0036827507120631006
    ],
    "z": [
      [
        0.0,
        0.0
      ],
      0.0011300599050937288
    ],
    "A": [
      [
        0.007708779443254817,
        0.0
      ],
      0.004228654669683872
    ],
    "B": [
      [
        0.0,
        0.007708779443254817
      ],
      0.0029637842245928835
    ],
    "C": [
      [
        -0.0462526766595289,
        0.0
      ],
      0.00171664824149349
    ],
    "D": [
      [
        0.0,
        0.0
      ],
      0.0018227660641568523
    ],
    "E": [
      [
        -0.03083511777301927,
        0.0
      ],
      0.006319479465576854
    ],
    "F": [
      [
        -0.015417558886509634,
        0.007708779443254817
      ],
      0.0025973699229335538
    ],
    "G": [
      [
        -0.015417558886509634,
        0.0
      ],
      0.008111257182159113
    ],
    "H": [
      [
        -0.03854389721627409,
        0.0
      ],
      0.0
    ],
    "I": [
      [
        -0.03083511777301927,
        0.0
      ],
      0.0
    ],
    "J": [
      [
        -0.03854389721627409,
        0.0
      ],
      0.0014500975802492788
    ],
    "K": [
      [
        -0.07708779443254818,
        0.007708779443254817
      ],
      0.00175540895237259
    ],
    "L": [
      [
        -0.03083511777301927,
        0.0
      ],
      0.0006660685469655669
    ],
    "M": [
      [
        -0.007708779443254817,
        0.007708779443254817
      ],
      0.005116676178579173
    ],
    "N": [
      [
        0.0,
        0.007708779443254817
      ],
      0.0030194960947945225
    ],
    "O": [
      [
        -0.03083511777301927,
        0.0
      ],
      0.0016306600203009488
    ],
    "P": [
      [
        -0.0462526766595289,
        0.0
      ],
      0.0008603297374313046
    ],
    "Q": [
      [
        -0.03083511777301927,
        0.007708779443254817
      ],
      0.001798688021242828
    ],
    "R": [
      [
        -0.06167023554603854,
        0.0
      ],
      0.0013902648568756496
    ],
    "S": [
      [
        0.007708779443254817,
        0.007708779443254817
      ],
      0.0050792064271261116
    ],
    "T": [
      [
        -0.02312633832976445,
        0.007708779443254817
      ],
      0.0010157844534109187
    ],
    "U": [
      [
        -0.007708779443254817,
        0.0
      ],
      0.0012361431389843406
    ],
    "V": [
      [
        -0.007708779443254817,
        0.007708779443254817
      ],
      0.0017187650743858164
    ],
    "W": [
      [
        -0.06167023554603854,
        0.007708779443254817
      ],
      0.012799391237599593
    ],
    "X": [
      [
        0.007708779443254817,
        0.0
      ],
      0.001468015096668968
    ],
    "Y": [
      [
        -0.03083511777301927,
        0.007708779443254817
      ],
      0.0013989413174863542
    ],
    "Z": [
      [
        -0.02312633832976445,
        0.0
      ],
      0.0009596096257893889
    ]
  }
}