{
  "base_font": "TimesNewRoman",
  "overlay_font": "TimesNewerRoman-Bold",
  "overlay_font_path": "fonts/TimesNewerRoman-Bold.otf",
  "font_scale": 1.0095486111111112,
  "total_overlap": 3493.7620915032685,
  "offsets": {
    "a": [
      [
        -0.023215821152192603,
        0.0
      ],
      63.53173394848136
    ],
    "b": [
      [
        -0.03869303525365434,
        0.007738607050730868
      ],
      97.58599000384469
    ],
    "c": [
      [
        -0.015477214101461736,
        0.0
      ],
      82.55574009996155
    ],
    "d": [
      [
        0.0,
        0.0
      ],
      64.12093810073048
    ],
    "e": [
      [
        0.0,
        -0.007738607050730868
      ],
      130.87343329488658
    ],
    "f": [
      [
        0.03869303525365434,
        0.0
      ],
      61.1280891964629
    ],
    "g": [
      [
        -0.007738607050730868,
        0.0
      ],
      151.8666974240677
    ],
    "h": [
      [
        -0.030954428202923472,
        0.0
      ],
      29.27687812379854
    ],
    "i": [
      [
        0.0,
        0.0
      ],
      27.30188389081123
    ],
    "j": [
      [
        -0.05417024935511608,
        0.0
      ],
      68.50757400999615
    ],
    "k": [
      [
        -0.04643164230438521,
        0.0
      ],
      54.05963860053826
    ],
    "l": [
      [
        0.0,
        0.0
      ],
      25.53850057670127
    ],
    "m": [
      [
        -0.030954428202923472,
        0.0
      ],
      26.587743175701657
    ],
    "n": [
      [
        -0.030954428202923472,
        0.0
      ],
      20.71587850826605
    ],
    "o": [
      [
        -0.007738607050730868,
        0.0
      ],
      30.51670895809304
    ],
    "p": [
      [
        -0.04643164230438521,
        0.007738607050730868
      ],
      56.15028066128412
    ],
    "q": [
      [
        -0.023215821152192603,
        0.007738607050730868
      ],
      81.7358861976163
    ],
    "r": [
      [
        -0.05417024935511608,
        0.0
      ],
      10.538392925797769
    ],
    "s": [
      [
        0.007738607050730868,
        0.0
      ],
      67.22623606305268
    ],
    "t": [
      [
        -0.030954428202923472,
        0.0
      ],
      1.8816608996539794
    ],
    "u": [
      [
        -0.015477214101461736,
        0.0
      ],
      18.261837754709727
    ],
    "v": [
      [
        0.0,
        0.0
      ],
      23.153894655901574
    ],
    "w": [
      [
        -0.007738607050730868,
        0.0
      ],
      100.92835063437138
    ],
    "x": [
      [
        -0.023215821152192603,
        0.0
      ],
      56.90523644752018
    ],
    "y": [
      [
        0.0,
        0.0
      ],
      101.08693579392542
    ],
    "z": [
      [
        0.007738607050730868,
        0.0
      ],
      27.494486735870822
    ],
    "A": [
      [
        0.007738607050730868,
        0.0
      ],
      127.14263744713573
    ],
    "B": [
      [
        0.0,
        0.007738607050730868
      ],
      97.74980392156863
    ],
    "C": [
      [
        -0.04643164230438521,
        0.0
      ],
      34.62677431757017
    ],
    "D": [
      [
        0.0,
        0.0
      ],
      28.299161860822757
    ],
    "E": [
      [
        -0.023215821152192603,
        0.0
      ],
      157.5918646674356
    ],
    "F": [
      [
        -0.015477214101461736,
        0.0
      ],
      57.13411764705882
    ],
    "G": [
      [
        -0.015477214101461736,
        0.0
      ],
      237.92845828527487
    ],
    "H": [
      [
        -0.015477214101461736,
        0.0
      ],
      1.4313725490196076
    ],
    "I": [
      [
        -0.007738607050730868,
        0.0
      ],
      0.0
    ],
    "J": [
      [
        -0.03869303525365434,
        0.0
      ],
      45.410411380238365
    ],
    "K": [
      [
        -0.06964746345657781,
        0.0
      ],
      54.09068819684737
    ],
    "L": [
      [
        -0.030954428202923472,
        0.0
      ],
      19.97816224529027
    ],
    "M": [
      [
        0.0,
        0.0
      ],
      163.65370242214533
    ],
    "N": [
      [
        0.0,
        0.0
      ],
      120.91950788158401
    ],
    "O": [
      [
        -0.030954428202923472,
        0.0
      ],
      20.62088427527874
    ],
    "P": [
      [
        -0.04643164230438521,
        0.0
      ],
      30.242506728181468
    ],
    "Q": [
      [
        -0.030954428202923472,
        0.0
      ],
      56.65448673587082
    ],
    "R": [
      [
        -0.061908856405846945,
        0.0
      ],
      22.38174548250673
    ],
    "S": [
      [
        0.007738607050730868,
        0.0
      ],
      140.6959477124183
    ],
    "T": [
      [
        -0.030954428202923472,
        0.007738607050730868
      ],
      17.314156093810073
    ],
    "U": [
      [
        -0.007738607050730868,
        0.0
      ],
      48.77730103806228
    ],
    "V": [
      [
        0.0,
        0.0
      ],
      45.19338715878508
    ],
    "W": [
      [
        -0.05417024935511608,
        0.0
      ],
      359.7431141868512
    ],
    "X": [
      [
        0.007738607050730868,
        0.0
      ],
      45.9920338331411
    ],
    "Y": [
      [
        -0.023215821152192603,
        0.0
      ],
      39.42309880815071
    ],
    "Z": [
      [
        -0.023215821152192603,
        0.0
      ],
      41.236139946174546
    ]
  }
}