{
  "base_font": "TimesNewRoman-Italic",
  "overlay_font": "TimesNewerRoman-BoldItalic",
  "font_scale": 1.03125,
  "average_remainder": 0.0022340278717968166,
  "offsets": {
    "a": [
      [
        -0.015151515151515152,
        0.007575757575757576
      ],
      0.0006247860484854774
    ],
    "b": [
      [
        -0.007575757575757576,
        0.007575757575757576
      ],
      0.000741918000662508
    ],
    "c": [
      [
        -0.007575757575757576,
        0.015151515151515152
      ],
      0.0012825261511077053
    ],
    "d": [
      [
        -0.015151515151515152,
        0.007575757575757576
      ],
      0.0005675916502702581
    ],
    "e": [
      [
        -0.007575757575757576,
        0.007575757575757576
      ],
      0.00147837416804024
    ],
    "f": [
      [
        -0.030303030303030304,
        0.015151515151515152
      ],
      0.0026531312816869745
    ],
    "g": [
      [
        -0.007575757575757576,
        0.015151515151515152
      ],
      0.0035706798955419065
    ],
    "h": [
      [
        -0.030303030303030304,
        0.007575757575757576
      ],
      0.001083111233502153
    ],
    "i": [
      [
        -0.022727272727272728,
        0.015151515151515152
      ],
      0.0008362085915850836
    ],
    "j": [
      [
        -0.030303030303030304,
        0.022727272727272728
      ],
      0.0009915856158597505
    ],
    "k": [
      [
        -0.03787878787878788,
        0.007575757575757576
      ],
      0.0013333854825599415
    ],
    "l": [
      [
        -0.022727272727272728,
        0.0
      ],
      9.764250906957531e-05
    ],
    "m": [
      [
        -0.045454545454545456,
        0.022727272727272728
      ],
      0.0012471891965959328
    ],
    "n": [
      [
        -0.030303030303030304,
        0.015151515151515152
      ],
      0.0011347272608751757
    ],
    "o": [
      [
        -0.015151515151515152,
        0.015151515151515152
      ],
      0.0010887018434485537
    ],
    "p": [
      [
        -0.007575757575757576,
        0.007575757575757576
      ],
      0.0004376719627399097
    ],
    "q": [
      [
        -0.030303030303030304,
        0.007575757575757576
      ],
      0.0003443860426319928
    ],
    "r": [
      [
        -0.015151515151515152,
        0.015151515151515152
      ],
      0.00017569127657847858
    ],
    "s": [
      [
        -0.015151515151515152,
        0.015151515151515152
      ],
      0.002051067396223704
    ],
    "t": [
      [
        -0.015151515151515152,
        0.015151515151515152
      ],
      0.00011893588970970707
    ],
    "u": [
      [
        -0.03787878787878788,
        0.007575757575757576
      ],
      0.001488265492776933
    ],
    "v": [
      [
        0.0,
        0.022727272727272728
      ],
      0.0008136737400706942
    ],
    "w": [
      [
        0.0,
        0.022727272727272728
      ],
      0.001990382724770484
    ],
    "x": [
      [
        -0.05303030303030303,
        0.015151515151515152
      ],
      0.0008598524123673489
    ],
    "y": [
      [
        -0.022727272727272728,
        0.022727272727272728
      ],
      0.00558652900335112
    ],
    "z": [
      [
        -0.007575757575757576,
        0.0
      ],
      0.007078567333032676
    ],
    "A": [
      [
        0.015151515151515152,
        0.0
      ],
      0.010112557720014528
    ],
    "B": [
      [
        -0.06060606060606061,
        0.007575757575757576
      ],
      0.0010854818947729715
    ],
    "C": [
      [
        -0.015151515151515152,
        0.015151515151515152
      ],
      0.00028411377577695034
    ],
    "D": [
      [
        -0.022727272727272728,
        0.007575757575757576
      ],
      0.001095581284281132
    ],
    "E": [
      [
        -0.06060606060606061,
        0.007575757575757576
      ],
      0.001617420502362014
    ],
    "F": [
      [
        -0.045454545454545456,
        0.015151515151515152
      ],
      0.0005126582935229862
    ],
    "G": [
      [
        -0.007575757575757576,
        0.0
      ],
      0.0012252455470280928
    ],
    "H": [
      [
        -0.03787878787878788,
        0.007575757575757576
      ],
      1.4332523157848527e-05
    ],
    "I": [
      [
        -0.030303030303030304,
        0.007575757575757576
      ],
      1.0861938913566649e-05
    ],
    "J": [
      [
        -0.045454545454545456,
        0.007575757575757576
      ],
      0.0012659772858190023
    ],
    "K": [
      [
        -0.05303030303030303,
        0.0
      ],
      0.003044763991491162
    ],
    "L": [
      [
        -0.06060606060606061,
        0.0
      ],
      0.0013122176857716425
    ],
    "M": [
      [
        -0.022727272727272728,
        0.015151515151515152
      ],
      0.003722809832257755
    ],
    "N": [
      [
        -0.03787878787878788,
        0.015151515151515152
      ],
      0.010742467696081759
    ],
    "O": [
      [
        -0.007575757575757576,
        0.007575757575757576
      ],
      0.0009445571240233661
    ],
    "P": [
      [
        -0.030303030303030304,
        0.007575757575757576
      ],
      0.0003471542087219582
    ],
    "Q": [
      [
        -0.015151515151515152,
        0.007575757575757576
      ],
      0.0021089839015869596
    ],
    "R": [
      [
        -0.05303030303030303,
        0.015151515151515152
      ],
      0.0004300097513732408
    ],
    "S": [
      [
        -0.030303030303030304,
        0.007575757575757576
      ],
      0.00327429774813786
    ],
    "T": [
      [
        -0.022727272727272728,
        0.015151515151515152
      ],
      0.0012080751480998127
    ],
    "U": [
      [
        -0.007575757575757576,
        0.015151515151515152
      ],
      0.0009870268156112435
    ],
    "V": [
      [
        -0.07575757575757576,
        0.007575757575757576
      ],
      0.009739741834721542
    ],
    "W": [
      [
        -0.08333333333333333,
        0.015151515151515152
      ],
      0.01740296691849954
    ],
    "X": [
      [
        -0.030303030303030304,
        0.007575757575757576
      ],
      0.0018834863886527543
    ],
    "Y": [
      [
        -0.045454545454545456,
        0.0
      ],
      0.0011773794747561824
    ],
    "Z": [
      [
        -0.022727272727272728,
        0.0
      ],
      0.000942697844454289
    ]
  }
}