{
  "base_font": "VectoraLH-Light",
  "overlay_font": "OpenSans_SemiCondensed-SemiBold",
  "overlay_font_path": "fonts/OpenSans_SemiCondensed-SemiBold.ttf",
  "font_scale": 1.13671875,
  "total_overlap": 1137.719200307574,
  "offsets": {
    "a": [
      [
        -0.020618556701030927,
        0.013745704467353952
      ],
      45.16445982314494
    ],
    "b": [
      [
        -0.048109965635738834,
        0.006872852233676976
      ],
      6.088442906574394
    ],
    "c": [
      [
        -0.006872852233676976,
        0.006872852233676976
      ],
      82.62577470203767
    ],
    "d": [
      [
        -0.013745704467353952,
        0.013745704467353952
      ],
      5.697101114955786
    ],
    "e": [
      [
        -0.027491408934707903,
        0.006872852233676976
      ],
      32.285751633986926
    ],
    "f": [
      [
        -0.041237113402061855,
        0.048109965635738834
      ],
      0.4108419838523645
    ],
    "g": [
      [
        -0.013745704467353952,
        -0.013745704467353952
      ],
      105.9604152249135
    ],
    "h": [
      [
        -0.03436426116838488,
        0.0
      ],
      0.0
    ],
    "i": [
      [
        -0.027491408934707903,
        0.020618556701030927
      ],
      0.0
    ],
    "j": [
      [
        -0.054982817869415807,
        0.013745704467353952
      ],
      17.41993079584775
    ],
    "k": [
      [
        -0.061855670103092786,
        0.020618556701030927
      ],
      23.834925028835062
    ],
    "l": [
      [
        -0.006872852233676976,
        0.006872852233676976
      ],
      0.0
    ],
    "m": [
      [
        -0.048109965635738834,
        0.0
      ],
      0.7718569780853517
    ],
    "n": [
      [
        -0.03436426116838488,
        0.0
      ],
      0.0018454440599769307
    ],
    "o": [
      [
        -0.027491408934707903,
        0.006872852233676976
      ],
      0.15766243752402928
    ],
    "p": [
      [
        -0.048109965635738834,
        0.006872852233676976
      ],
      8.194863514033063
    ],
    "q": [
      [
        -0.013745704467353952,
        0.013745704467353952
      ],
      6.211164936562861
    ],
    "r": [
      [
        -0.03436426116838488,
        0.0
      ],
      0.6486582083813918
    ],
    "s": [
      [
        0.0,
        0.006872852233676976
      ],
      54.047458669742404
    ],
    "t": [
      [
        -0.03436426116838488,
        0.020618556701030927
      ],
      0.0
    ],
    "u": [
      [
        -0.027491408934707903,
        0.020618556701030927
      ],
      0.0
    ],
    "v": [
      [
        -0.013745704467353952,
        0.013745704467353952
      ],
      0.0
    ],
    "w": [
      [
        -0.027491408934707903,
        0.020618556701030927
      ],
      0.0021991541714725085
    ],
    "x": [
      [
        -0.020618556701030927,
        0.0
      ],
      0.0
    ],
    "y": [
      [
        -0.027491408934707903,
        -0.020618556701030927
      ],
      0.09381007304882738
    ],
    "z": [
      [
        0.0,
        0.006872852233676976
      ],
      40.44532103037294
    ],
    "A": [
      [
        0.0,
        0.020618556701030927
      ],
      14.671095732410611
    ],
    "B": [
      [
        -0.048109965635738834,
        0.048109965635738834
      ],
      4.628127643214149
    ],
    "C": [
      [
        -0.03436426116838488,
        0.041237113402061855
      ],
      233.51824682814302
    ],
    "D": [
      [
        -0.048109965635738834,
        0.048109965635738834
      ],
      1.753771626297578
    ],
    "E": [
      [
        -0.020618556701030927,
        0.048109965635738834
      ],
      42.02745098039216
    ],
    "F": [
      [
        -0.020618556701030927,
        0.048109965635738834
      ],
      11.775824682814301
    ],
    "G": [
      [
        -0.061855670103092786,
        0.048109965635738834
      ],
      103.64810457516342
    ],
    "H": [
      [
        -0.027491408934707903,
        0.027491408934707903
      ],
      0.0
    ],
    "I": [
      [
        -0.013745704467353952,
        0.013745704467353952
      ],
      0.0
    ],
    "J": [
      [
        0.041237113402061855,
        -0.1718213058419244
      ],
      0.0
    ],
    "K": [
      [
        -0.06872852233676977,
        0.048109965635738834
      ],
      50.16673587081891
    ],
    "L": [
      [
        -0.013745704467353952,
        0.013745704467353952
      ],
      0.0
    ],
    "M": [
      [
        -0.048109965635738834,
        0.048109965635738834
      ],
      0.06554402153018071
    ],
    "N": [
      [
        -0.054982817869415807,
        0.041237113402061855
      ],
      0.07750865051903114
    ],
    "O": [
      [
        -0.041237113402061855,
        0.041237113402061855
      ],
      0.09968473663975397
    ],
    "P": [
      [
        -0.027491408934707903,
        0.048109965635738834
      ],
      0.963829296424452
    ],
    "Q": [
      [
        -0.013745704467353952,
        0.041237113402061855
      ],
      68.34420607458671
    ],
    "R": [
      [
        -0.027491408934707903,
        0.041237113402061855
      ],
      9.419038831218762
    ],
    "S": [
      [
        -0.006872852233676976,
        0.041237113402061855
      ],
      130.78809688581313
    ],
    "T": [
      [
        -0.013745704467353952,
        0.041237113402061855
      ],
      0.0
    ],
    "U": [
      [
        -0.020618556701030927,
        0.020618556701030927
      ],
      0.0
    ],
    "V": [
      [
        -0.020618556701030927,
        0.041237113402061855
      ],
      0.0
    ],
    "W": [
      [
        -0.048109965635738834,
        0.013745704467353952
      ],
      0.7866974240676663
    ],
    "X": [
      [
        -0.006872852233676976,
        0.041237113402061855
      ],
      34.09663975394079
    ],
    "Y": [
      [
        0.0,
        0.07560137457044673
      ],
      0.8261130334486736
    ],
    "Z": [
      [
        -0.020618556701030927,
        0.041237113402061855
      ],
      0.0
    ]
  }
}