{
  "base_font": "VectoraLH",
  "overlay_font": "OpenSans_SemiCondensed-Bold",
  "overlay_font_path": "fonts/OpenSans_SemiCondensed-Bold.ttf",
  "font_scale": 1.14453125,
  "total_overlap": 907.89630142253,
  "offsets": {
    "a": [
      [
        -0.034129692832764506,
        0.013651877133105802
      ],
      43.3836831987697
    ],
    "b": [
      [
        -0.05460750853242321,
        0.013651877133105802
      ],
      5.850595924644368
    ],
    "c": [
      [
        0.0,
        0.013651877133105802
      ],
      77.62136101499424
    ],
    "d": [
      [
        -0.013651877133105802,
        0.013651877133105802
      ],
      6.7776239907727795
    ],
    "e": [
      [
        -0.027303754266211604,
        0.006825938566552901
      ],
      21.605674740484428
    ],
    "f": [
      [
        -0.034129692832764506,
        0.040955631399317405
      ],
      0.0
    ],
    "g": [
      [
        -0.013651877133105802,
        -0.020477815699658702
      ],
      48.237216455209534
    ],
    "h": [
      [
        -0.040955631399317405,
        0.0
      ],
      0.0
    ],
    "i": [
      [
        -0.027303754266211604,
        0.020477815699658702
      ],
      0.0
    ],
    "j": [
      [
        -0.04778156996587031,
        0.013651877133105802
      ],
      10.935793925413302
    ],
    "k": [
      [
        -0.06143344709897611,
        0.020477815699658702
      ],
      18.173194925028834
    ],
    "l": [
      [
        -0.006825938566552901,
        0.006825938566552901
      ],
      0.0
    ],
    "m": [
      [
        -0.040955631399317405,
        0.0
      ],
      0.8505651672433677
    ],
    "n": [
      [
        -0.034129692832764506,
        0.0
      ],
      0.0
    ],
    "o": [
      [
        -0.027303754266211604,
        0.013651877133105802
      ],
      0.0
    ],
    "p": [
      [
        -0.05460750853242321,
        0.013651877133105802
      ],
      10.053656286043829
    ],
    "q": [
      [
        -0.013651877133105802,
        0.013651877133105802
      ],
      7.338992695117263
    ],
    "r": [
      [
        -0.040955631399317405,
        0.0
      ],
      0.44112264513648597
    ],
    "s": [
      [
        -0.006825938566552901,
        0.013651877133105802
      ],
      41.021822376009226
    ],
    "t": [
      [
        -0.027303754266211604,
        0.020477815699658702
      ],
      0.0
    ],
    "u": [
      [
        -0.040955631399317405,
        0.020477815699658702
      ],
      0.0
    ],
    "v": [
      [
        -0.027303754266211604,
        0.006825938566552901
      ],
      0.0
    ],
    "w": [
      [
        -0.027303754266211604,
        0.020477815699658702
      ],
      0.024036908881199536
    ],
    "x": [
      [
        -0.013651877133105802,
        0.0
      ],
      0.0
    ],
    "y": [
      [
        -0.034129692832764506,
        -0.027303754266211604
      ],
      0.0
    ],
    "z": [
      [
        0.0,
        0.006825938566552901
      ],
      15.286212995001923
    ],
    "A": [
      [
        -0.013651877133105802,
        0.05460750853242321
      ],
      1.5505882352941176
    ],
    "B": [
      [
        -0.034129692832764506,
        0.04778156996587031
      ],
      0.0
    ],
    "C": [
      [
        -0.020477815699658702,
        0.04778156996587031
      ],
      262.71337178008463
    ],
    "D": [
      [
        -0.034129692832764506,
        0.04778156996587031
      ],
      0.0
    ],
    "E": [
      [
        -0.013651877133105802,
        0.040955631399317405
      ],
      59.440784313725494
    ],
    "F": [
      [
        -0.013651877133105802,
        0.040955631399317405
      ],
      42.25254901960784
    ],
    "G": [
      [
        -0.04778156996587031,
        0.06825938566552901
      ],
      85.36472126105345
    ],
    "H": [
      [
        -0.020477815699658702,
        0.020477815699658702
      ],
      0.0
    ],
    "I": [
      [
        -0.020477815699658702,
        0.020477815699658702
      ],
      0.0
    ],
    "J": [
      [
        0.040955631399317405,
        -0.17064846416382254
      ],
      0.0
    ],
    "K": [
      [
        -0.06825938566552901,
        0.04778156996587031
      ],
      25.24861207227989
    ],
    "L": [
      [
        -0.020477815699658702,
        0.020477815699658702
      ],
      0.0
    ],
    "M": [
      [
        -0.04778156996587031,
        0.040955631399317405
      ],
      0.0
    ],
    "N": [
      [
        -0.05460750853242321,
        0.013651877133105802
      ],
      1.4695117262591313
    ],
    "O": [
      [
        -0.027303754266211604,
        0.040955631399317405
      ],
      0.0
    ],
    "P": [
      [
        -0.027303754266211604,
        0.04778156996587031
      ],
      0.0
    ],
    "Q": [
      [
        -0.020477815699658702,
        0.034129692832764506
      ],
      27.074725105728568
    ],
    "R": [
      [
        -0.034129692832764506,
        0.040955631399317405
      ],
      0.0
    ],
    "S": [
      [
        0.0,
        0.04778156996587031
      ],
      88.53674740484429
    ],
    "T": [
      [
        -0.020477815699658702,
        0.04778156996587031
      ],
      0.0
    ],
    "U": [
      [
        -0.013651877133105802,
        0.020477815699658702
      ],
      0.0
    ],
    "V": [
      [
        -0.027303754266211604,
        0.027303754266211604
      ],
      0.0
    ],
    "W": [
      [
        -0.04778156996587031,
        0.006825938566552901
      ],
      0.19008073817762405
    ],
    "X": [
      [
        -0.006825938566552901,
        0.040955631399317405
      ],
      6.45188773548635
    ],
    "Y": [
      [
        -0.006825938566552901,
        0.08191126279863481
      ],
      0.001168781237985386
    ],
    "Z": [
      [
        -0.027303754266211604,
        0.04778156996587031
      ],
      0.0
    ]
  }
}