{
  "base_font": "VectoraLH",
  "overlay_font": "OpenSans_SemiCondensed-Bold",
  "font_scale": 1.1458333333333333,
  "average_remainder": 0.000604136479519916,
  "offsets": {
    "a": [
      [
        -0.034090909090909095,
        0.013636363636363637
      ],
      0.0015011655086079483
    ],
    "b": [
      [
        -0.05454545454545455,
        0.013636363636363637
      ],
      0.00020244276555862867
    ],
    "c": [
      [
        0.0,
        0.013636363636363637
      ],
      0.002685860242733364
    ],
    "d": [
      [
        -0.013636363636363637,
        0.013636363636363637
      ],
      0.0002345198612724145
    ],
    "e": [
      [
        -0.027272727272727275,
        0.006818181818181819
      ],
      0.0007476012020928869
    ],
    "f": [
      [
        -0.034090909090909095,
        0.04090909090909091
      ],
      0.0
    ],
    "g": [
      [
        -0.013636363636363637,
        -0.020454545454545454
      ],
      0.0016691078358203992
    ],
    "h": [
      [
        -0.04090909090909091,
        0.0
      ],
      0.0
    ],
    "i": [
      [
        -0.027272727272727275,
        0.020454545454545454
      ],
      0.0
    ],
    "j": [
      [
        -0.04772727272727273,
        0.013636363636363637
      ],
      0.00037840117388973366
    ],
    "k": [
      [
        -0.06136363636363637,
        0.020454545454545454
      ],
      0.000628830274222451
    ],
    "l": [
      [
        -0.034090909090909095,
        0.0
      ],
      0.0
    ],
    "m": [
      [
        -0.04090909090909091,
        0.0
      ],
      2.9431320665860476e-05
    ],
    "n": [
      [
        -0.034090909090909095,
        0.0
      ],
      0.0
    ],
    "o": [
      [
        -0.027272727272727275,
        0.013636363636363637
      ],
      0.0
    ],
    "p": [
      [
        -0.05454545454545455,
        0.013636363636363637
      ],
      0.000347877380139925
    ],
    "q": [
      [
        -0.013636363636363637,
        0.013636363636363637
      ],
      0.0002539443839140921
    ],
    "r": [
      [
        -0.04090909090909091,
        0.0
      ],
      1.5263759347283253e-05
    ],
    "s": [
      [
        -0.006818181818181819,
        0.013636363636363637
      ],
      0.0014194402206231566
    ],
    "t": [
      [
        -0.027272727272727275,
        0.013636363636363637
      ],
      0.0
    ],
    "u": [
      [
        -0.04090909090909091,
        0.020454545454545454
      ],
      0.0
    ],
    "v": [
      [
        -0.034090909090909095,
        0.0
      ],
      0.0
    ],
    "w": [
      [
        -0.027272727272727275,
        0.020454545454545454
      ],
      8.317269509065583e-07
    ],
    "x": [
      [
        -0.027272727272727275,
        0.0
      ],
      0.0
    ],
    "y": [
      [
        -0.04090909090909091,
        -0.027272727272727275
      ],
      0.0
    ],
    "z": [
      [
        0.0,
        0.006818181818181819
      ],
      0.0005289347057094091
    ],
    "A": [
      [
        -0.013636363636363637,
        0.05454545454545455
      ],
      5.3653572155505804e-05
    ],
    "B": [
      [
        -0.034090909090909095,
        0.04772727272727273
      ],
      0.0
    ],
    "C": [
      [
        -0.020454545454545454,
        0.04772727272727273
      ],
      0.009090428089276282
    ],
    "D": [
      [
        -0.04090909090909091,
        0.04772727272727273
      ],
      0.0
    ],
    "E": [
      [
        -0.013636363636363637,
        0.04090909090909091
      ],
      0.0020567745437275256
    ],
    "F": [
      [
        -0.013636363636363637,
        0.04090909090909091
      ],
      0.0014620259176334896
    ],
    "G": [
      [
        -0.04772727272727273,
        0.06818181818181819
      ],
      0.002953796583427455
    ],
    "H": [
      [
        -0.034090909090909095,
        0.013636363636363637
      ],
      0.0
    ],
    "I": [
      [
        -0.04772727272727273,
        0.0
      ],
      0.0
    ],
    "J": [
      [
        0.04090909090909091,
        -0.17045454545454547
      ],
      0.0
    ],
    "K": [
      [
        -0.06818181818181819,
        0.04772727272727273
      ],
      0.0008736543969647022
    ],
    "L": [
      [
        -0.027272727272727275,
        0.0
      ],
      0.0
    ],
    "M": [
      [
        -0.04772727272727273,
        0.04090909090909091
      ],
      0.0
    ],
    "N": [
      [
        -0.05454545454545455,
        0.013636363636363637
      ],
      5.084815661796302e-05
    ],
    "O": [
      [
        -0.034090909090909095,
        0.04090909090909091
      ],
      0.0
    ],
    "P": [
      [
        -0.027272727272727275,
        0.04772727272727273
      ],
      0.0
    ],
    "Q": [
      [
        -0.020454545454545454,
        0.034090909090909095
      ],
      0.0009368416991601579
    ],
    "R": [
      [
        -0.034090909090909095,
        0.04090909090909091
      ],
      0.0
    ],
    "S": [
      [
        0.0,
        0.04772727272727273
      ],
      0.0030635552735240232
    ],
    "T": [
      [
        -0.020454545454545454,
        0.04772727272727273
      ],
      0.0
    ],
    "U": [
      [
        -0.027272727272727275,
        0.013636363636363637
      ],
      0.0
    ],
    "V": [
      [
        -0.027272727272727275,
        0.027272727272727275
      ],
      0.0
    ],
    "W": [
      [
        -0.04772727272727273,
        0.006818181818181819
      ],
      6.577188172236127e-06
    ],
    "X": [
      [
        -0.006818181818181819,
        0.04090909090909091
      ],
      0.000223248710570462
    ],
    "Y": [
      [
        -0.006818181818181819,
        0.08181818181818182
      ],
      4.044225736973654e-08
    ],
    "Z": [
      [
        -0.027272727272727275,
        0.04772727272727273
      ],
      0.0
    ]
  }
}