{
  "base_font": "VectoraLH-Light",
  "overlay_font": "OpenSans_SemiCondensed-SemiBold",
  "font_scale": 1.13671875,
  "average_remainder": 0.0007570662764889368,
  "offsets": {
    "a": [
      [
        -0.020618556701030927,
        0.013745704467353952
      ],
      0.0015627840769254309
    ],
    "b": [
      [
        -0.048109965635738834,
        0.006872852233676976
      ],
      0.00021067276493337005
    ],
    "c": [
      [
        -0.006872852233676976,
        0.006872852233676976
      ],
      0.002859023346091269
    ],
    "d": [
      [
        -0.013745704467353952,
        0.013745704467353952
      ],
      0.0001971315264690583
    ],
    "e": [
      [
        -0.027491408934707903,
        0.006872852233676976
      ],
      0.0011171540357780944
    ],
    "f": [
      [
        -0.041237113402061855,
        0.048109965635738834
      ],
      1.4215985600427837e-05
    ],
    "g": [
      [
        -0.013745704467353952,
        -0.013745704467353952
      ],
      0.003666450353803235
    ],
    "h": [
      [
        -0.03436426116838488,
        0.0
      ],
      0.0
    ],
    "i": [
      [
        -0.027491408934707903,
        0.020618556701030927
      ],
      0.0
    ],
    "j": [
      [
        -0.054982817869415807,
        0.013745704467353952
      ],
      0.0006027657714826212
    ],
    "k": [
      [
        -0.061855670103092786,
        0.020618556701030927
      ],
      0.0008247378902711095
    ],
    "l": [
      [
        -0.027491408934707903,
        0.0
      ],
      0.0
    ],
    "m": [
      [
        -0.048109965635738834,
        0.0
      ],
      2.6707853912987947e-05
    ],
    "n": [
      [
        -0.03436426116838488,
        0.0
      ],
      6.385619584695262e-08
    ],
    "o": [
      [
        -0.027491408934707903,
        0.006872852233676976
      ],
      5.4554476651913235e-06
    ],
    "p": [
      [
        -0.048109965635738834,
        0.006872852233676976
      ],
      0.00028355929114301254
    ],
    "q": [
      [
        -0.013745704467353952,
        0.013745704467353952
      ],
      0.00021491920195719236
    ],
    "r": [
      [
        -0.03436426116838488,
        0.0
      ],
      2.244492070523847e-05
    ],
    "s": [
      [
        0.0,
        0.006872852233676976
      ],
      0.0018701542792298412
    ],
    "t": [
      [
        -0.03436426116838488,
        0.020618556701030927
      ],
      0.0
    ],
    "u": [
      [
        -0.027491408934707903,
        0.013745704467353952
      ],
      0.0
    ],
    "v": [
      [
        -0.020618556701030927,
        0.0
      ],
      0.0
    ],
    "w": [
      [
        -0.027491408934707903,
        0.020618556701030927
      ],
      7.609530005095185e-08
    ],
    "x": [
      [
        -0.027491408934707903,
        0.0
      ],
      0.0
    ],
    "y": [
      [
        -0.027491408934707903,
        -0.020618556701030927
      ],
      3.2460232888867606e-06
    ],
    "z": [
      [
        0.0,
        0.006872852233676976
      ],
      0.001399492077175534
    ],
    "A": [
      [
        0.0,
        0.020618556701030927
      ],
      0.0005076503713636889
    ],
    "B": [
      [
        -0.048109965635738834,
        0.048109965635738834
      ],
      0.00016014282502471104
    ],
    "C": [
      [
        -0.03436426116838488,
        0.041237113402061855
      ],
      0.008080216153222942
    ],
    "D": [
      [
        -0.048109965635738834,
        0.048109965635738834
      ],
      6.06841393182553e-05
    ],
    "E": [
      [
        -0.020618556701030927,
        0.048109965635738834
      ],
      0.0014542370581450575
    ],
    "F": [
      [
        -0.020618556701030927,
        0.048109965635738834
      ],
      0.0004074679821043011
    ],
    "G": [
      [
        -0.061855670103092786,
        0.048109965635738834
      ],
      0.003586439604676934
    ],
    "H": [
      [
        -0.027491408934707903,
        0.013745704467353952
      ],
      0.0
    ],
    "I": [
      [
        -0.041237113402061855,
        0.0
      ],
      0.0
    ],
    "J": [
      [
        0.041237113402061855,
        -0.1718213058419244
      ],
      0.0
    ],
    "K": [
      [
        -0.06872852233676977,
        0.048109965635738834
      ],
      0.0017358732135231462
    ],
    "L": [
      [
        -0.03436426116838488,
        0.0
      ],
      0.0
    ],
    "M": [
      [
        -0.048109965635738834,
        0.048109965635738834
      ],
      2.2679592224976024e-06
    ],
    "N": [
      [
        -0.054982817869415807,
        0.03436426116838488
      ],
      2.6819602255720114e-06
    ],
    "O": [
      [
        -0.041237113402061855,
        0.041237113402061855
      ],
      3.449298845666227e-06
    ],
    "P": [
      [
        -0.027491408934707903,
        0.048109965635738834
      ],
      3.3350494685967195e-05
    ],
    "Q": [
      [
        -0.013745704467353952,
        0.041237113402061855
      ],
      0.0023648514212659755
    ],
    "R": [
      [
        -0.027491408934707903,
        0.041237113402061855
      ],
      0.0003259182986580886
    ],
    "S": [
      [
        -0.006872852233676976,
        0.041237113402061855
      ],
      0.004525539684630213
    ],
    "T": [
      [
        -0.013745704467353952,
        0.041237113402061855
      ],
      0.0
    ],
    "U": [
      [
        -0.027491408934707903,
        0.013745704467353952
      ],
      0.0
    ],
    "V": [
      [
        -0.020618556701030927,
        0.041237113402061855
      ],
      0.0
    ],
    "W": [
      [
        -0.048109965635738834,
        0.013745704467353952
      ],
      2.7221364154590528e-05
    ],
    "X": [
      [
        -0.006872852233676976,
        0.041237113402061855
      ],
      0.001179814524357813
    ],
    "Y": [
      [
        0.0,
        0.07560137457044673
      ],
      2.8585226070888363e-05
    ],
    "Z": [
      [
        -0.020618556701030927,
        0.041237113402061855
      ],
      0.0
    ]
  }
}