{
  "base_font": "Verdana-Italic",
  "overlay_font": "DejaVuSans-BoldItalic",
  "font_scale": 1.04296875,
  "average_remainder": 0.0005757618151614872,
  "offsets": {
    "a": [
      [
        -0.02247191011235955,
        0.00749063670411985
      ],
      0.00020528596267871423
    ],
    "b": [
      [
        -0.06741573033707865,
        0.0149812734082397
      ],
      0.0017046645620728785
    ],
    "c": [
      [
        -0.0449438202247191,
        0.00749063670411985
      ],
      0.0
    ],
    "d": [
      [
        -0.03745318352059925,
        0.0
      ],
      0.001397722196280643
    ],
    "e": [
      [
        -0.052434456928838954,
        0.00749063670411985
      ],
      0.0
    ],
    "f": [
      [
        -0.03745318352059925,
        0.00749063670411985
      ],
      0.0
    ],
    "g": [
      [
        -0.03745318352059925,
        0.0
      ],
      0.0012041634239692213
    ],
    "h": [
      [
        -0.06741573033707865,
        0.0
      ],
      0.0001408476111796235
    ],
    "i": [
      [
        -0.03745318352059925,
        0.0
      ],
      0.0
    ],
    "j": [
      [
        0.0,
        0.0
      ],
      0.0016006523974675699
    ],
    "k": [
      [
        -0.03745318352059925,
        0.02247191011235955
      ],
      1.2680776225274016e-06
    ],
    "l": [
      [
        -0.03745318352059925,
        0.0
      ],
      0.0
    ],
    "m": [
      [
        -0.0749063670411985,
        0.0
      ],
      0.0002353388169841517
    ],
    "n": [
      [
        -0.0749063670411985,
        0.0
      ],
      4.433535677653923e-05
    ],
    "o": [
      [
        -0.052434456928838954,
        0.00749063670411985
      ],
      0.0
    ],
    "p": [
      [
        -0.08239700374531835,
        0.02247191011235955
      ],
      0.0013212171523063396
    ],
    "q": [
      [
        -0.0449438202247191,
        0.00749063670411985
      ],
      0.0017251464368907888
    ],
    "r": [
      [
        -0.06741573033707865,
        0.0
      ],
      7.456807270027896e-06
    ],
    "s": [
      [
        -0.03745318352059925,
        0.00749063670411985
      ],
      2.458463540107678e-07
    ],
    "t": [
      [
        -0.052434456928838954,
        0.02247191011235955
      ],
      0.0
    ],
    "u": [
      [
        -0.03745318352059925,
        0.02247191011235955
      ],
      2.7896111290706656e-05
    ],
    "v": [
      [
        -0.03745318352059925,
        0.0
      ],
      0.0
    ],
    "w": [
      [
        -0.0599250936329588,
        0.0
      ],
      0.0
    ],
    "x": [
      [
        -0.03745318352059925,
        0.0
      ],
      0.0
    ],
    "y": [
      [
        -0.0599250936329588,
        -0.00749063670411985
      ],
      4.065511135589316e-07
    ],
    "z": [
      [
        -0.03745318352059925,
        0.0
      ],
      0.0
    ],
    "A": [
      [
        -0.0299625468164794,
        0.0
      ],
      0.0
    ],
    "B": [
      [
        -0.03745318352059925,
        0.00749063670411985
      ],
      0.0
    ],
    "C": [
      [
        0.0,
        0.0149812734082397
      ],
      8.588658341415134e-07
    ],
    "D": [
      [
        -0.03745318352059925,
        0.00749063670411985
      ],
      0.0
    ],
    "E": [
      [
        0.0,
        0.02247191011235955
      ],
      4.4699337092867025e-08
    ],
    "F": [
      [
        -0.0149812734082397,
        0.0
      ],
      0.0
    ],
    "G": [
      [
        -0.0299625468164794,
        0.00749063670411985
      ],
      0.0004209671819063469
    ],
    "H": [
      [
        -0.0449438202247191,
        0.0
      ],
      0.0
    ],
    "I": [
      [
        0.0299625468164794,
        0.0
      ],
      0.007279326955695773
    ],
    "J": [
      [
        0.12734082397003746,
        -0.14232209737827714
      ],
      0.0029154142205087474
    ],
    "K": [
      [
        -0.02247191011235955,
        0.0299625468164794
      ],
      0.0
    ],
    "L": [
      [
        -0.0449438202247191,
        0.0
      ],
      0.0
    ],
    "M": [
      [
        -0.0749063670411985,
        0.0
      ],
      0.005330060171161212
    ],
    "N": [
      [
        -0.0449438202247191,
        0.0
      ],
      0.0
    ],
    "O": [
      [
        -0.03745318352059925,
        0.00749063670411985
      ],
      0.0
    ],
    "P": [
      [
        -0.052434456928838954,
        0.0
      ],
      0.0
    ],
    "Q": [
      [
        -0.02247191011235955,
        0.03745318352059925
      ],
      0.002766164198225596
    ],
    "R": [
      [
        -0.0449438202247191,
        0.0299625468164794
      ],
      4.399691893855039e-06
    ],
    "S": [
      [
        0.0,
        0.0149812734082397
      ],
      1.3686511309863517e-06
    ],
    "T": [
      [
        -0.0299625468164794,
        0.0
      ],
      0.0
    ],
    "U": [
      [
        -0.03745318352059925,
        0.00749063670411985
      ],
      0.0
    ],
    "V": [
      [
        -0.052434456928838954,
        0.0
      ],
      0.0
    ],
    "W": [
      [
        -0.0599250936329588,
        0.0
      ],
      0.0016043624424462776
    ],
    "X": [
      [
        -0.0449438202247191,
        0.00749063670411985
      ],
      0.0
    ],
    "Y": [
      [
        -0.0599250936329588,
        0.0
      ],
      0.0
    ],
    "Z": [
      [
        -0.03745318352059925,
        0.00749063670411985
      ],
      0.0
    ]
  }
}