{
  "base_font": "Verdana-Italic",
  "overlay_font": "DejaVuSans-BoldItalic",
  "overlay_font_path": "fonts/DejaVuSans-BoldItalic.ttf",
  "font_scale": 1.04296875,
  "total_overlap": 865.2878123798539,
  "offsets": {
    "a": [
      [
        -0.02247191011235955,
        0.00749063670411985
      ],
      5.932764321414841
    ],
    "b": [
      [
        -0.06741573033707865,
        0.0149812734082397
      ],
      49.26480584390619
    ],
    "c": [
      [
        -0.0449438202247191,
        0.00749063670411985
      ],
      0.0
    ],
    "d": [
      [
        -0.03745318352059925,
        0.0
      ],
      40.39417147251057
    ],
    "e": [
      [
        -0.052434456928838954,
        0.00749063670411985
      ],
      0.0
    ],
    "f": [
      [
        -0.03745318352059925,
        0.0149812734082397
      ],
      0.0
    ],
    "g": [
      [
        -0.03745318352059925,
        0.0
      ],
      34.8003229527105
    ],
    "h": [
      [
        -0.06741573033707865,
        0.0
      ],
      4.070495963091119
    ],
    "i": [
      [
        -0.0149812734082397,
        0.00749063670411985
      ],
      0.0
    ],
    "j": [
      [
        0.0,
        0.0
      ],
      46.25885428681276
    ],
    "k": [
      [
        -0.03745318352059925,
        0.02247191011235955
      ],
      0.03664744329104191
    ],
    "l": [
      [
        -0.0149812734082397,
        0.00749063670411985
      ],
      0.0
    ],
    "m": [
      [
        -0.0749063670411985,
        0.0
      ],
      6.801291810841983
    ],
    "n": [
      [
        -0.0749063670411985,
        0.0
      ],
      1.2812918108419837
    ],
    "o": [
      [
        -0.03745318352059925,
        0.0149812734082397
      ],
      0.0
    ],
    "p": [
      [
        -0.08239700374531835,
        0.02247191011235955
      ],
      38.18317570165321
    ],
    "q": [
      [
        -0.0449438202247191,
        0.00749063670411985
      ],
      49.856732026143796
    ],
    "r": [
      [
        -0.06741573033707865,
        0.0
      ],
      0.2155017301038062
    ],
    "s": [
      [
        -0.02247191011235955,
        0.0149812734082397
      ],
      0.008796616685890045
    ],
    "t": [
      [
        -0.0449438202247191,
        0.02247191011235955
      ],
      0.0
    ],
    "u": [
      [
        -0.03745318352059925,
        0.02247191011235955
      ],
      0.8061976163014224
    ],
    "v": [
      [
        -0.03745318352059925,
        0.00749063670411985
      ],
      0.0
    ],
    "w": [
      [
        -0.0599250936329588,
        0.00749063670411985
      ],
      0.0
    ],
    "x": [
      [
        -0.02247191011235955,
        0.0149812734082397
      ],
      0.0
    ],
    "y": [
      [
        -0.0599250936329588,
        -0.00749063670411985
      ],
      0.011749327181853123
    ],
    "z": [
      [
        -0.0149812734082397,
        0.0
      ],
      0.0
    ],
    "A": [
      [
        -0.0299625468164794,
        0.0
      ],
      0.0
    ],
    "B": [
      [
        0.0,
        0.00749063670411985
      ],
      0.0
    ],
    "C": [
      [
        0.0,
        0.0149812734082397
      ],
      0.024821222606689737
    ],
    "D": [
      [
        0.0,
        0.00749063670411985
      ],
      0.0
    ],
    "E": [
      [
        0.00749063670411985,
        0.0
      ],
      0.03255670895809305
    ],
    "F": [
      [
        0.0,
        0.0
      ],
      0.0
    ],
    "G": [
      [
        -0.0299625468164794,
        0.00749063670411985
      ],
      12.165951557093425
    ],
    "H": [
      [
        -0.02247191011235955,
        0.0
      ],
      0.0
    ],
    "I": [
      [
        0.0149812734082397,
        0.00749063670411985
      ],
      210.37254901960785
    ],
    "J": [
      [
        0.12734082397003746,
        -0.14232209737827714
      ],
      84.2554709727028
    ],
    "K": [
      [
        -0.0149812734082397,
        0.02247191011235955
      ],
      0.0
    ],
    "L": [
      [
        0.0,
        0.0
      ],
      0.0
    ],
    "M": [
      [
        -0.0749063670411985,
        0.0
      ],
      154.03873894655902
    ],
    "N": [
      [
        -0.02247191011235955,
        0.00749063670411985
      ],
      0.0
    ],
    "O": [
      [
        -0.00749063670411985,
        0.0149812734082397
      ],
      0.0
    ],
    "P": [
      [
        -0.0299625468164794,
        0.00749063670411985
      ],
      0.0
    ],
    "Q": [
      [
        -0.02247191011235955,
        0.03745318352059925
      ],
      79.94214532871972
    ],
    "R": [
      [
        -0.0449438202247191,
        0.0299625468164794
      ],
      0.1271510957324106
    ],
    "S": [
      [
        0.0,
        0.0149812734082397
      ],
      0.039554017685505566
    ],
    "T": [
      [
        0.0,
        0.0
      ],
      0.0
    ],
    "U": [
      [
        -0.0149812734082397,
        0.0149812734082397
      ],
      0.0
    ],
    "V": [
      [
        -0.02247191011235955,
        0.0
      ],
      0.0
    ],
    "W": [
      [
        -0.0599250936329588,
        0.0
      ],
      46.36607458669742
    ],
    "X": [
      [
        -0.02247191011235955,
        0.02247191011235955
      ],
      0.0
    ],
    "Y": [
      [
        -0.0299625468164794,
        0.00749063670411985
      ],
      0.0
    ],
    "Z": [
      [
        0.0,
        0.0
      ],
      0.0
    ]
  }
}