{
  "base_font": "Verdana",
  "overlay_font": "DejaVuSans-Bold",
  "overlay_font_path": "fonts/DejaVuSans-Bold.ttf",
  "font_scale": 1.03515625,
  "total_overlap": 861.6801384083044,
  "offsets": {
    "a": [
      [
        -0.01509433962264151,
        0.007547169811320755
      ],
      16.233341022683582
    ],
    "b": [
      [
        -0.0830188679245283,
        0.01509433962264151
      ],
      41.48450595924644
    ],
    "c": [
      [
        -0.03773584905660377,
        0.007547169811320755
      ],
      0.012302960399846213
    ],
    "d": [
      [
        -0.03773584905660377,
        0.007547169811320755
      ],
      37.31606305267205
    ],
    "e": [
      [
        -0.045283018867924525,
        0.007547169811320755
      ],
      6.151480199923084e-05
    ],
    "f": [
      [
        -0.022641509433962263,
        0.007547169811320755
      ],
      0.0
    ],
    "g": [
      [
        -0.03018867924528302,
        0.0
      ],
      29.75438677431757
    ],
    "h": [
      [
        -0.07547169811320754,
        0.0
      ],
      0.2613148788927336
    ],
    "i": [
      [
        -0.01509433962264151,
        0.01509433962264151
      ],
      0.0
    ],
    "j": [
      [
        -0.007547169811320755,
        0.007547169811320755
      ],
      43.80515186466743
    ],
    "k": [
      [
        -0.03773584905660377,
        0.022641509433962263
      ],
      0.0007535563244905804
    ],
    "l": [
      [
        -0.007547169811320755,
        0.007547169811320755
      ],
      0.0
    ],
    "m": [
      [
        -0.07547169811320754,
        0.0
      ],
      3.7933410226835838
    ],
    "n": [
      [
        -0.07547169811320754,
        0.0
      ],
      0.2613148788927336
    ],
    "o": [
      [
        -0.03773584905660377,
        0.01509433962264151
      ],
      0.0
    ],
    "p": [
      [
        -0.0830188679245283,
        0.01509433962264151
      ],
      37.81374855824682
    ],
    "q": [
      [
        -0.03773584905660377,
        0.007547169811320755
      ],
      32.95570934256055
    ],
    "r": [
      [
        -0.06792452830188679,
        0.0
      ],
      0.19215686274509805
    ],
    "s": [
      [
        -0.022641509433962263,
        0.01509433962264151
      ],
      1.228465974625144
    ],
    "t": [
      [
        -0.03018867924528302,
        0.022641509433962263
      ],
      0.0
    ],
    "u": [
      [
        -0.03018867924528302,
        0.022641509433962263
      ],
      0.5009765474817378
    ],
    "v": [
      [
        -0.03018867924528302,
        0.007547169811320755
      ],
      0.0
    ],
    "w": [
      [
        -0.06792452830188679,
        0.0
      ],
      0.0
    ],
    "x": [
      [
        -0.022641509433962263,
        0.022641509433962263
      ],
      0.0
    ],
    "y": [
      [
        -0.052830188679245285,
        0.0
      ],
      0.0
    ],
    "z": [
      [
        -0.022641509433962263,
        0.0
      ],
      0.0
    ],
    "A": [
      [
        -0.052830188679245285,
        -0.007547169811320755
      ],
      25.737254901960785
    ],
    "B": [
      [
        -0.022641509433962263,
        0.007547169811320755
      ],
      0.0
    ],
    "C": [
      [
        -0.03018867924528302,
        0.01509433962264151
      ],
      0.0
    ],
    "D": [
      [
        -0.007547169811320755,
        0.007547169811320755
      ],
      0.0
    ],
    "E": [
      [
        -0.007547169811320755,
        0.007547169811320755
      ],
      0.0
    ],
    "F": [
      [
        -0.007547169811320755,
        0.007547169811320755
      ],
      0.0
    ],
    "G": [
      [
        -0.045283018867924525,
        0.022641509433962263
      ],
      20.09004229142637
    ],
    "H": [
      [
        -0.03018867924528302,
        0.022641509433962263
      ],
      0.0
    ],
    "I": [
      [
        0.0,
        0.0
      ],
      234.66666666666669
    ],
    "J": [
      [
        0.07547169811320754,
        -0.14339622641509434
      ],
      81.46866589773164
    ],
    "K": [
      [
        -0.03018867924528302,
        0.022641509433962263
      ],
      0.0
    ],
    "L": [
      [
        -0.007547169811320755,
        0.007547169811320755
      ],
      0.0
    ],
    "M": [
      [
        -0.09056603773584905,
        0.022641509433962263
      ],
      106.0314494425221
    ],
    "N": [
      [
        -0.03773584905660377,
        0.01509433962264151
      ],
      0.0
    ],
    "O": [
      [
        -0.01509433962264151,
        0.01509433962264151
      ],
      0.0
    ],
    "P": [
      [
        -0.052830188679245285,
        0.01509433962264151
      ],
      0.0
    ],
    "Q": [
      [
        -0.052830188679245285,
        0.03018867924528302
      ],
      127.95709342560554
    ],
    "R": [
      [
        -0.06037735849056604,
        0.022641509433962263
      ],
      0.1651826220684352
    ],
    "S": [
      [
        -0.022641509433962263,
        0.01509433962264151
      ],
      1.7033141099577085
    ],
    "T": [
      [
        -0.007547169811320755,
        0.007547169811320755
      ],
      0.0
    ],
    "U": [
      [
        -0.022641509433962263,
        0.022641509433962263
      ],
      0.0
    ],
    "V": [
      [
        -0.03018867924528302,
        0.0
      ],
      0.0
    ],
    "W": [
      [
        -0.07547169811320754,
        0.0
      ],
      18.24687427912341
    ],
    "X": [
      [
        -0.03018867924528302,
        0.03018867924528302
      ],
      0.0
    ],
    "Y": [
      [
        -0.03773584905660377,
        0.007547169811320755
      ],
      0.0
    ],
    "Z": [
      [
        0.0,
        0.0
      ],
      0.0
    ]
  }
}