{
  "base_font": "Verdana",
  "overlay_font": "DejaVuSans-Bold",
  "font_scale": 1.03515625,
  "average_remainder": 0.0005736911756775024,
  "offsets": {
    "a": [
      [
        -0.01509433962264151,
        0.007547169811320755
      ],
      0.0005617073018229614
    ],
    "b": [
      [
        -0.0830188679245283,
        0.01509433962264151
      ],
      0.0014354500331919184
    ],
    "c": [
      [
        -0.03773584905660377,
        0.007547169811320755
      ],
      4.2570797231301776e-07
    ],
    "d": [
      [
        -0.03773584905660377,
        0.007547169811320755
      ],
      0.001291213254417718
    ],
    "e": [
      [
        -0.045283018867924525,
        0.007547169811320755
      ],
      2.128539861565081e-09
    ],
    "f": [
      [
        -0.03773584905660377,
        0.0
      ],
      0.0
    ],
    "g": [
      [
        -0.03018867924528302,
        0.0
      ],
      0.0010295635562047602
    ],
    "h": [
      [
        -0.07547169811320754,
        0.0
      ],
      9.042037331928495e-06
    ],
    "i": [
      [
        -0.03773584905660377,
        0.007547169811320755
      ],
      0.0
    ],
    "j": [
      [
        -0.007547169811320755,
        0.007547169811320755
      ],
      0.0015157491994694612
    ],
    "k": [
      [
        -0.03773584905660377,
        0.022641509433962263
      ],
      2.6074613304172333e-08
    ],
    "l": [
      [
        -0.045283018867924525,
        0.0
      ],
      0.0
    ],
    "m": [
      [
        -0.07547169811320754,
        0.0
      ],
      0.000131257474833342
    ],
    "n": [
      [
        -0.07547169811320754,
        0.0
      ],
      9.042037331928495e-06
    ],
    "o": [
      [
        -0.03773584905660377,
        0.007547169811320755
      ],
      0.0
    ],
    "p": [
      [
        -0.0830188679245283,
        0.01509433962264151
      ],
      0.0013084342061677103
    ],
    "q": [
      [
        -0.03773584905660377,
        0.007547169811320755
      ],
      0.0011403359634103998
    ],
    "r": [
      [
        -0.06792452830188679,
        0.0
      ],
      6.649026392563946e-06
    ],
    "s": [
      [
        -0.045283018867924525,
        0.007547169811320755
      ],
      5.852686416855908e-05
    ],
    "t": [
      [
        -0.06037735849056604,
        0.022641509433962263
      ],
      0.0
    ],
    "u": [
      [
        -0.03018867924528302,
        0.022641509433962263
      ],
      1.7334828632586084e-05
    ],
    "v": [
      [
        -0.03773584905660377,
        0.0
      ],
      0.0
    ],
    "w": [
      [
        -0.06792452830188679,
        0.0
      ],
      0.0
    ],
    "x": [
      [
        -0.03773584905660377,
        0.0
      ],
      0.0
    ],
    "y": [
      [
        -0.052830188679245285,
        0.0
      ],
      0.0
    ],
    "z": [
      [
        -0.03773584905660377,
        0.0
      ],
      0.0
    ],
    "A": [
      [
        -0.06037735849056604,
        -0.007547169811320755
      ],
      0.0008905624533550445
    ],
    "B": [
      [
        -0.022641509433962263,
        0.007547169811320755
      ],
      0.0
    ],
    "C": [
      [
        -0.03018867924528302,
        0.01509433962264151
      ],
      0.0
    ],
    "D": [
      [
        -0.03773584905660377,
        0.007547169811320755
      ],
      0.0
    ],
    "E": [
      [
        -0.022641509433962263,
        0.0
      ],
      0.0
    ],
    "F": [
      [
        -0.052830188679245285,
        0.0
      ],
      0.0
    ],
    "G": [
      [
        -0.045283018867924525,
        0.01509433962264151
      ],
      0.0006951571727137154
    ],
    "H": [
      [
        -0.052830188679245285,
        0.0
      ],
      0.0
    ],
    "I": [
      [
        0.022641509433962263,
        0.0
      ],
      0.0081199538638985
    ],
    "J": [
      [
        0.07547169811320754,
        -0.14339622641509434
      ],
      0.0028189849791602642
    ],
    "K": [
      [
        -0.052830188679245285,
        0.022641509433962263
      ],
      0.0
    ],
    "L": [
      [
        -0.045283018867924525,
        0.0
      ],
      0.0
    ],
    "M": [
      [
        -0.09056603773584905,
        0.022641509433962263
      ],
      0.003668908285208377
    ],
    "N": [
      [
        -0.052830188679245285,
        0.0
      ],
      0.0
    ],
    "O": [
      [
        -0.03773584905660377,
        0.007547169811320755
      ],
      0.0
    ],
    "P": [
      [
        -0.07547169811320754,
        0.0
      ],
      0.0
    ],
    "Q": [
      [
        -0.052830188679245285,
        0.03018867924528302
      ],
      0.004427581087391195
    ],
    "R": [
      [
        -0.06037735849056604,
        0.022641509433962263
      ],
      5.7156616632676545e-06
    ],
    "S": [
      [
        -0.022641509433962263,
        0.01509433962264151
      ],
      5.893820449680652e-05
    ],
    "T": [
      [
        -0.045283018867924525,
        0.0
      ],
      0.0
    ],
    "U": [
      [
        -0.045283018867924525,
        0.007547169811320755
      ],
      0.0
    ],
    "V": [
      [
        -0.052830188679245285,
        0.0
      ],
      0.0
    ],
    "W": [
      [
        -0.07547169811320754,
        0.0
      ],
      0.0006313797328416407
    ],
    "X": [
      [
        -0.052830188679245285,
        0.0
      ],
      0.0
    ],
    "Y": [
      [
        -0.0830188679245283,
        0.0
      ],
      0.0
    ],
    "Z": [
      [
        -0.03018867924528302,
        0.0
      ],
      0.0
    ]
  }
}